{"learner":{"attributes":{"scikit_learn":"{\"_estimator_type\": \"regressor\"}"},"feature_names":["pl_rade","pl_bmasse","pl_orbsmax","pl_orbeccen","st_lum","st_mass","sy_snum","sy_pnum","pl_dens","st_teff","st_rad","pl_temp","atm_retention_prob","radiation_viability"],"feature_types":["float","float","float","float","float","float","float","float","float","float","float","float","float","float"],"gradient_booster":{"model":{"gbtree_model_param":{"num_parallel_tree":"1","num_trees":"200"},"iteration_indptr":[0,1,2,3,4,5,6,7,8,9,10,11,12,13,14,15,16,17,18,19,20,21,22,23,24,25,26,27,28,29,30,31,32,33,34,35,36,37,38,39,40,41,42,43,44,45,46,47,48,49,50,51,52,53,54,55,56,57,58,59,60,61,62,63,64,65,66,67,68,69,70,71,72,73,74,75,76,77,78,79,80,81,82,83,84,85,86,87,88,89,90,91,92,93,94,95,96,97,98,99,100,101,102,103,104,105,106,107,108,109,110,111,112,113,114,115,116,117,118,119,120,121,122,123,124,125,126,127,128,129,130,131,132,133,134,135,136,137,138,139,140,141,142,143,144,145,146,147,148,149,150,151,152,153,154,155,156,157,158,159,160,161,162,163,164,165,166,167,168,169,170,171,172,173,174,175,176,177,178,179,180,181,182,183,184,185,186,187,188,189,190,191,192,193,194,195,196,197,198,199,200],"tree_info":[0,0,0,0,0,0,0,0,0,0,0,0,0,0,0,0,0,0,0,0,0,0,0,0,0,0,0,0,0,0,0,0,0,0,0,0,0,0,0,0,0,0,0,0,0,0,0,0,0,0,0,0,0,0,0,0,0,0,0,0,0,0,0,0,0,0,0,0,0,0,0,0,0,0,0,0,0,0,0,0,0,0,0,0,0,0,0,0,0,0,0,0,0,0,0,0,0,0,0,0,0,0,0,0,0,0,0,0,0,0,0,0,0,0,0,0,0,0,0,0,0,0,0,0,0,0,0,0,0,0,0,0,0,0,0,0,0,0,0,0,0,0,0,0,0,0,0,0,0,0,0,0,0,0,0,0,0,0,0,0,0,0,0,0,0,0,0,0,0,0,0,0,0,0,0,0,0,0,0,0,0,0,0,0,0,0,0,0,0,0,0,0,0,0,0,0,0,0,0,0],"trees":[{"base_weights":[-2.065176E-10,6.1636668E-2,-2.50144E-2,4.1899976E-1,-1.9638252E-2,-5.8016483E-2,-2.0286357E-2,-9.022438E-3,5.129999E-1,-1.7402656E-3,-9.79639E-4,-4.7108766E-2,-6.361797E-2,-5.1783778E-2,-1.9616134E-2,-9.577282E-4,1.02153525E-1,5.606617E-1,9.105584E-2,-3.3534206E-3,-2.650379E-2,-3.3841257E-3,-5.70167E-2,-2.5279729E-2,-6.646297E-2,9.415897E-4,-1.9976102E-2,1.1195884E-2,-6.536875E-4,1.4024267E-1,5.6685513E-1,4.6721974E-1,-4.7064118E-2,-2.171837E-2,-3.3015516E-2,-3.2582004E-3,-4.051356E-2,-2.6103985E-3,-9.3150465E-4,-3.3864626E-3,-4.902656E-4,1.5165783E-1,-9.5874164E-4,-2.6865965E-2,-9.826157E-4,-1.3775844E-4,9.441351E-3,3.2477964E-2,2.5803173E-2,-1.7402656E-3,2.872929E-2,4.422482E-3,-6.106183E-2,-2.9095478E-2,-9.532943E-4,-2.9667125E-3,-1.0972181E-3,-1.1414042E-3,-5.4585487E-2,-7.3539844E-4,1.6146315E-2,-5.0375458E-2,-1.0477513E-3,-3.226706E-3,-1.2251941E-3,-3.3160415E-2,-7.3539844E-4,-3.046262E-3,-1.1056614E-3,-8.579648E-4,-3.1521663E-3,-4.902656E-4,-1.7709358E-3],"categories":[],"categories_nodes":[],"categories_segments":[],"categories_sizes":[],"default_left":[0,0,0,0,0,0,0,0,0,0,0,0,0,0,0,0,0,0,0,0,0,0,0,0,0,0,0,0,0,0,0,0,0,0,0,0,0,0,0,0,0,0,0,0,0,0,0,0,0,0,0,0,0,0,0,0,0,0,0,0,0,0,0,0,0,0,0,0,0,0,0,0,0],"id":0,"left_children":[1,3,5,7,9,11,13,15,17,-1,-1,19,21,23,25,-1,27,29,31,-1,33,-1,35,37,39,41,43,-1,-1,45,47,49,51,53,55,-1,57,-1,-1,-1,-1,59,-1,61,-1,-1,-1,-1,-1,-1,-1,-1,63,65,-1,-1,-1,-1,67,-1,-1,69,-1,-1,-1,71,-1,-1,-1,-1,-1,-1,-1],"loss_changes":[7.2048516E0,3.9189472E1,5.174844E-1,1.0063164E1,7.6681376E-5,2.2420287E-2,6.039393E-2,5.377335E-2,4.0716248E0,0E0,0E0,5.785632E-2,3.4390688E-3,2.1663308E-2,2.1109223E-2,0E0,5.904965E-2,3.996086E-1,1.1650155E0,0E0,1.5577339E-3,0E0,1.2150139E-2,3.1458074E-3,2.0621866E-3,1.545016E-1,5.7206154E-3,0E0,0E0,2.8310068E-2,4.2510986E-1,3.434013E-1,3.7647907E-2,3.2581575E-4,7.1479306E-3,0E0,8.459806E-3,0E0,0E0,0E0,0E0,1.7570888E-1,0E0,1.6036838E-2,0E0,0E0,0E0,0E0,0E0,0E0,0E0,0E0,4.4969842E-4,9.712018E-5,0E0,0E0,0E0,0E0,2.9759333E-3,0E0,0E0,9.0168975E-3,0E0,0E0,0E0,2.1907967E-5,0E0,0E0,0E0,0E0,0E0,0E0,0E0],"parents":[2147483647,0,0,1,1,2,2,3,3,4,4,5,5,6,6,7,7,8,8,11,11,12,12,13,13,14,14,16,16,17,17,18,18,20,20,22,22,23,23,24,24,25,25,26,26,29,29,30,30,31,31,32,32,33,33,34,34,36,36,41,41,43,43,52,52,53,53,58,58,61,61,65,65],"right_children":[2,4,6,8,10,12,14,16,18,-1,-1,20,22,24,26,-1,28,30,32,-1,34,-1,36,38,40,42,44,-1,-1,46,48,50,52,54,56,-1,58,-1,-1,-1,-1,60,-1,62,-1,-1,-1,-1,-1,-1,-1,-1,64,66,-1,-1,-1,-1,68,-1,-1,70,-1,-1,-1,72,-1,-1,-1,-1,-1,-1,-1],"split_conditions":[-6.432542E-1,-5.67E-1,-1.272137E0,-4.1062462E-1,-2.0499468E0,-1.4867683E-1,-1.8907913E0,-4.3437406E-1,1.4404309E0,-1.7402656E-3,-9.79639E-4,-1.4857206E0,-1.9664495E-1,6.814337E-1,-6.1847204E-1,-9.577282E-4,8.001438E-1,-1.2959808E0,-1.7388953E-1,-3.3534206E-3,-2.313473E-2,-3.3841257E-3,-1.3978941E0,-2.0499468E0,1.5166337E0,-5.67E-1,-1.135814E0,1.1195884E-2,-6.536875E-4,-1.6150581E0,-8.6186534E-1,-1.5393295E0,-9.222997E-1,-1.6037714E0,2.7144548E-1,-3.2582004E-3,5.316768E-1,-2.6103985E-3,-9.3150465E-4,-3.3864626E-3,-4.902656E-4,5.004156E-2,-9.5874164E-4,-1.3632318E0,-9.826157E-4,-1.3775844E-4,9.441351E-3,3.2477964E-2,2.5803173E-2,-1.7402656E-3,2.872929E-2,4.422482E-3,-1.1240993E0,-1.4283078E0,-9.532943E-4,-2.9667125E-3,-1.0972181E-3,-1.1414042E-3,-1.310547E0,-7.3539844E-4,1.6146315E-2,5.0235003E-1,-1.0477513E-3,-3.226706E-3,-1.2251941E-3,-1.1240993E0,-7.3539844E-4,-3.046262E-3,-1.1056614E-3,-8.579648E-4,-3.1521663E-3,-4.902656E-4,-1.7709358E-3],"split_indices":[0,11,11,12,4,10,4,12,2,0,0,11,4,2,0,0,3,11,10,0,9,0,11,4,7,11,11,0,0,0,11,0,3,8,4,0,5,0,0,0,0,12,0,4,0,0,0,0,0,0,0,0,4,11,0,0,0,0,11,0,0,2,0,0,0,4,0,0,0,0,0,0,0],"split_type":[0,0,0,0,0,0,0,0,0,0,0,0,0,0,0,0,0,0,0,0,0,0,0,0,0,0,0,0,0,0,0,0,0,0,0,0,0,0,0,0,0,0,0,0,0,0,0,0,0,0,0,0,0,0,0,0,0,0,0,0,0,0,0,0,0,0,0,0,0,0,0,0,0],"sum_hessian":[4.671E3,1.348E3,3.323E3,2.49E2,1.099E3,4.15E2,2.908E3,4.5E1,2.04E2,1E0,1.098E3,1.44E2,2.71E2,5.9E1,2.849E3,4.2E1,3E0,1.83E2,2.1E1,7.2E1,7.2E1,1.62E2,1.09E2,2.2E1,3.7E1,4.9E1,2.8E3,1E0,2E0,3E0,1.8E2,5E0,1.6E1,4.4E1,2.8E1,7.1E1,3.8E1,3E0,1.9E1,3.6E1,1E0,5E0,4.4E1,1.22E2,2.678E3,1E0,2E0,6.4E1,1.16E2,1E0,4E0,1E0,1.5E1,9E0,3.5E1,7E0,2.1E1,1.8E1,2E1,3E0,2E0,2.3E1,9.9E1,1.3E1,2E0,6E0,3E0,1.6E1,4E0,7E0,1.6E1,1E0,5E0],"tree_param":{"num_deleted":"0","num_feature":"14","num_nodes":"73","size_leaf_vector":"1"}},{"base_weights":[1.6928552E-5,5.863001E-2,-2.3770396E-2,3.984663E-1,-1.8658811E-2,-5.5171676E-2,-1.92717E-2,-8.362958E-3,4.878111E-1,-1.6967591E-3,-9.307017E-4,-4.4831723E-2,-6.0480945E-2,-4.9318235E-2,-1.863238E-2,-9.109555E-4,9.96814E-2,5.329959E-1,8.7728485E-2,-3.1880469E-3,-2.5288379E-2,-3.2159572E-3,-5.424361E-2,-2.416974E-2,-6.324185E-2,1.1835523E-3,-1.8979456E-2,1.0915987E-2,-6.3189806E-4,1.3555644E-1,5.3883433E-1,4.4835696E-1,-4.4712644E-2,-2.0720227E-2,-3.1504877E-2,-3.097553E-3,-3.862361E-2,-2.5125083E-3,-8.872584E-4,-3.221716E-3,-4.7800905E-4,1.4664342E-1,-9.1186987E-4,-2.5563786E-2,-9.3350344E-4,-1.3431441E-4,9.126639E-3,3.0879049E-2,2.452404E-2,-1.6967591E-3,2.7580122E-2,4.31192E-3,-5.8286984E-2,-2.7940363E-2,-9.069536E-4,-2.836919E-3,-1.044851E-3,-9.53417E-4,-5.0051134E-2,-7.078209E-4,1.5608104E-2,-4.802377E-2,-1.991775E-2,-3.0768947E-3,-1.1843543E-3,-3.1825423E-2,-7.078209E-4,-2.9244625E-3,-1.0601486E-3,-8.204289E-4,-3.0038292E-3,-2.5098408E-2,-9.49772E-4,-6.989067E-4,-1.8084357E-3,-1.9084739E-3,-8.250166E-4],"categories":[],"categories_nodes":[],"categories_segments":[],"categories_sizes":[],"default_left":[0,0,0,0,0,0,0,0,0,0,0,0,0,0,0,0,0,0,0,0,0,0,0,0,0,0,0,0,0,0,0,0,0,0,0,0,0,0,0,0,0,0,0,0,0,0,0,0,0,0,0,0,0,0,0,0,0,0,0,0,0,0,0,0,0,0,0,0,0,0,0,0,0,0,0,0,0],"id":1,"left_children":[1,3,5,7,9,11,13,15,17,-1,-1,19,21,23,25,-1,27,29,31,-1,33,-1,35,37,39,41,43,-1,-1,45,47,49,51,53,55,-1,57,-1,-1,-1,-1,59,-1,61,-1,-1,-1,-1,-1,-1,-1,-1,63,65,-1,-1,-1,-1,67,-1,-1,69,71,-1,-1,73,-1,-1,-1,-1,-1,75,-1,-1,-1,-1,-1],"loss_changes":[6.5153217E0,3.5439655E1,4.6850097E-1,9.091095E0,1.2078881E-4,2.0125866E-2,5.4961085E-2,5.0801575E-2,3.6591606E0,0E0,0E0,5.2028865E-2,3.02279E-3,1.9480944E-2,1.9623876E-2,0E0,5.6060646E-2,3.5391617E-1,1.0708121E0,0E0,1.4202632E-3,0E0,1.0850191E-2,2.9620798E-3,1.8165112E-3,1.4392284E-1,5.2286386E-3,0E0,0E0,2.6466884E-2,3.8628006E-1,3.1748557E-1,3.524533E-2,3.3182092E-4,6.576864E-3,0E0,7.760871E-3,0E0,0E0,0E0,0E0,1.6411132E-1,0E0,1.4641076E-2,0E0,0E0,0E0,0E0,0E0,0E0,0E0,0E0,3.420487E-4,8.498039E-5,0E0,0E0,0E0,0E0,4.60203E-3,0E0,0E0,8.159481E-3,1.065433E-6,0E0,0E0,3.7040096E-5,0E0,0E0,0E0,0E0,0E0,7.188241E-4,0E0,0E0,0E0,0E0,0E0],"parents":[2147483647,0,0,1,1,2,2,3,3,4,4,5,5,6,6,7,7,8,8,11,11,12,12,13,13,14,14,16,16,17,17,18,18,20,20,22,22,23,23,24,24,25,25,26,26,29,29,30,30,31,31,32,32,33,33,34,34,36,36,41,41,43,43,52,52,53,53,58,58,61,61,62,62,65,65,71,71],"right_children":[2,4,6,8,10,12,14,16,18,-1,-1,20,22,24,26,-1,28,30,32,-1,34,-1,36,38,40,42,44,-1,-1,46,48,50,52,54,56,-1,58,-1,-1,-1,-1,60,-1,62,-1,-1,-1,-1,-1,-1,-1,-1,64,66,-1,-1,-1,-1,68,-1,-1,70,72,-1,-1,74,-1,-1,-1,-1,-1,76,-1,-1,-1,-1,-1],"split_conditions":[-6.432542E-1,-5.67E-1,-1.272137E0,-4.1062462E-1,-2.0499468E0,-1.4867683E-1,-1.8907913E0,-4.3437406E-1,1.4404309E0,-1.6967591E-3,-9.307017E-4,-1.4857206E0,-1.9664495E-1,6.814337E-1,-6.1847204E-1,-9.109555E-4,8.001438E-1,-1.2959808E0,-1.7388953E-1,-3.1880469E-3,-2.313473E-2,-3.2159572E-3,-1.3978941E0,-2.0499468E0,1.5166337E0,-5.67E-1,-1.135814E0,1.0915987E-2,-6.3189806E-4,-1.6150581E0,-8.6186534E-1,-1.5393295E0,-9.222997E-1,-1.6037714E0,2.7144548E-1,-3.097553E-3,4.3121547E-1,-2.5125083E-3,-8.872584E-4,-3.221716E-3,-4.7800905E-4,5.004156E-2,-9.1186987E-4,-1.3632318E0,-9.3350344E-4,-1.3431441E-4,9.126639E-3,3.0879049E-2,2.452404E-2,-1.6967591E-3,2.7580122E-2,4.31192E-3,-1.1240993E0,-1.4283078E0,-9.069536E-4,-2.836919E-3,-1.044851E-3,-9.53417E-4,-1.310547E0,-7.078209E-4,1.5608104E-2,5.0235003E-1,-8.4223473E-1,-3.0768947E-3,-1.1843543E-3,-1.0051949E0,-7.078209E-4,-2.9244625E-3,-1.0601486E-3,-8.204289E-4,-3.0038292E-3,-1.2352631E0,-9.49772E-4,-6.989067E-4,-1.8084357E-3,-1.9084739E-3,-8.250166E-4],"split_indices":[0,11,11,12,4,10,4,12,2,0,0,11,4,2,0,0,3,11,10,0,9,0,11,4,7,11,11,0,0,0,11,0,3,8,4,0,10,0,0,0,0,12,0,4,0,0,0,0,0,0,0,0,4,11,0,0,0,0,11,0,0,2,4,0,0,12,0,0,0,0,0,11,0,0,0,0,0],"split_type":[0,0,0,0,0,0,0,0,0,0,0,0,0,0,0,0,0,0,0,0,0,0,0,0,0,0,0,0,0,0,0,0,0,0,0,0,0,0,0,0,0,0,0,0,0,0,0,0,0,0,0,0,0,0,0,0,0,0,0,0,0,0,0,0,0,0,0,0,0,0,0,0,0,0,0,0,0],"sum_hessian":[4.671E3,1.348E3,3.323E3,2.49E2,1.099E3,4.15E2,2.908E3,4.5E1,2.04E2,1E0,1.098E3,1.44E2,2.71E2,5.9E1,2.849E3,4.2E1,3E0,1.83E2,2.1E1,7.2E1,7.2E1,1.62E2,1.09E2,2.2E1,3.7E1,4.9E1,2.8E3,1E0,2E0,3E0,1.8E2,5E0,1.6E1,4.4E1,2.8E1,7.1E1,3.8E1,3E0,1.9E1,3.6E1,1E0,5E0,4.4E1,1.22E2,2.678E3,1E0,2E0,6.4E1,1.16E2,1E0,4E0,1E0,1.5E1,9E0,3.5E1,7E0,2.1E1,1.5E1,2.3E1,3E0,2E0,2.3E1,9.9E1,1.3E1,2E0,6E0,3E0,1.7E1,6E0,7E0,1.6E1,1.1E1,8.8E1,2E0,4E0,3E0,8E0],"tree_param":{"num_deleted":"0","num_feature":"14","num_nodes":"77","size_leaf_vector":"1"}},{"base_weights":[3.1725547E-5,5.577047E-2,-2.2589093E-2,3.789418E-1,-1.7728256E-2,-5.2467044E-2,-1.8308647E-2,-7.7410494E-3,4.6386114E-1,-1.6543402E-3,-8.8420877E-4,-4.266732E-2,-5.7498265E-2,-4.697065E-2,-1.7698811E-2,-8.664671E-4,9.726835E-2,5.0669605E-1,8.4520884E-2,-5.9182882E-2,-2.2556929E-2,-3.056146E-3,-5.1604476E-2,-2.3109067E-2,-6.0177118E-2,1.4041435E-3,-1.8033495E-2,1.0643087E-2,-6.1083474E-4,1.3102669E-1,5.1219875E-1,4.3025297E-1,-4.2474028E-2,-3.030828E-3,-1.788848E-3,-9.220889E-4,-3.1982478E-2,-5.8896523E-2,-3.681904E-2,-2.4182894E-3,-8.451135E-4,-3.064984E-3,-4.6605887E-4,1.4179464E-1,-8.672896E-4,-2.4346635E-2,-1.7736912E-2,-1.3095663E-4,8.822418E-3,2.9358847E-2,2.330832E-2,-1.6543402E-3,2.6476914E-2,4.204122E-3,-5.563896E-2,-2.6448348E-3,-9.1303943E-4,-1.2160297E-3,-2.9768485E-3,-9.087257E-4,-4.7714602E-2,-6.812776E-4,1.5087835E-2,-4.578193E-2,-1.8958697E-2,-2.2994671E-2,-8.853308E-4,-2.9340386E-3,-2.2897517E-2,-2.7863625E-3,-1.0147135E-3,-7.8453514E-4,-5.724945E-2,-2.4071276E-2,-9.028171E-4,-7.962528E-4,-1.9447582E-3,-1.3602148E-3,-3.5709896E-4,-2.9359204E-3,-8.436533E-4,-1.8369061E-3,-7.8834913E-4],"categories":[],"categories_nodes":[],"categories_segments":[],"categories_sizes":[],"default_left":[0,0,0,0,0,0,0,0,0,0,0,0,0,0,0,0,0,0,0,0,0,0,0,0,0,0,0,0,0,0,0,0,0,0,0,0,0,0,0,0,0,0,0,0,0,0,0,0,0,0,0,0,0,0,0,0,0,0,0,0,0,0,0,0,0,0,0,0,0,0,0,0,0,0,0,0,0,0,0,0,0,0,0],"id":2,"left_children":[1,3,5,7,9,11,13,15,17,-1,-1,19,21,23,25,-1,27,29,31,33,35,-1,37,39,41,43,45,-1,-1,47,49,51,53,-1,-1,-1,55,57,59,-1,-1,-1,-1,61,-1,63,65,-1,-1,-1,-1,-1,-1,-1,67,-1,-1,-1,-1,-1,69,-1,-1,71,73,75,-1,-1,77,-1,-1,-1,79,81,-1,-1,-1,-1,-1,-1,-1,-1,-1],"loss_changes":[5.891979E0,3.204908E1,4.2414904E-1,8.2128105E0,1.5962124E-4,1.8057346E-2,5.001521E-2,4.8001193E-2,3.2882156E0,0E0,0E0,4.6824485E-2,2.656579E-3,1.7517E-2,1.824665E-2,0E0,5.322346E-2,3.132515E-1,9.842113E-1,4.823208E-4,2.0089522E-3,0E0,9.691268E-3,2.788065E-3,1.5980005E-3,1.3407518E-1,4.812658E-3,0E0,0E0,2.4743795E-2,3.5098648E-1,2.9353786E-1,3.3002082E-2,0E0,0E0,0E0,4.486656E-3,1.4640391E-4,7.055372E-3,0E0,0E0,0E0,0E0,1.5327957E-1,0E0,1.3337553E-2,1.9550323E-5,0E0,0E0,0E0,0E0,0E0,0E0,0E0,2.4984777E-4,0E0,0E0,0E0,0E0,0E0,4.142087E-3,0E0,0E0,7.3834397E-3,2.669543E-5,7.295166E-4,0E0,0E0,9.274343E-6,0E0,0E0,0E0,1.752749E-5,6.830208E-4,0E0,0E0,0E0,0E0,0E0,0E0,0E0,0E0,0E0],"parents":[2147483647,0,0,1,1,2,2,3,3,4,4,5,5,6,6,7,7,8,8,11,11,12,12,13,13,14,14,16,16,17,17,18,18,19,19,20,20,22,22,23,23,24,24,25,25,26,26,29,29,30,30,31,31,32,32,36,36,37,37,38,38,43,43,45,45,46,46,54,54,60,60,63,63,64,64,65,65,68,68,72,72,73,73],"right_children":[2,4,6,8,10,12,14,16,18,-1,-1,20,22,24,26,-1,28,30,32,34,36,-1,38,40,42,44,46,-1,-1,48,50,52,54,-1,-1,-1,56,58,60,-1,-1,-1,-1,62,-1,64,66,-1,-1,-1,-1,-1,-1,-1,68,-1,-1,-1,-1,-1,70,-1,-1,72,74,76,-1,-1,78,-1,-1,-1,80,82,-1,-1,-1,-1,-1,-1,-1,-1,-1],"split_conditions":[-6.432542E-1,-5.67E-1,-1.272137E0,-4.1062462E-1,-2.0499468E0,-1.4867683E-1,-1.8907913E0,-4.3437406E-1,1.4404309E0,-1.6543402E-3,-8.8420877E-4,-1.466825E0,-1.9664495E-1,6.814337E-1,-6.1847204E-1,-8.664671E-4,8.001438E-1,-1.2959808E0,-1.7388953E-1,-1.4857206E0,-2.2431496E-1,-3.056146E-3,-1.3978941E0,-2.0499468E0,1.5166337E0,-5.67E-1,-1.135814E0,1.0643087E-2,-6.1083474E-4,-1.6150581E0,-8.6186534E-1,-1.5393295E0,-9.222997E-1,-3.030828E-3,-1.788848E-3,-9.220889E-4,2.7144548E-1,-9.222997E-1,4.3121547E-1,-2.4182894E-3,-8.451135E-4,-3.064984E-3,-4.6605887E-4,5.004156E-2,-8.672896E-4,-1.3632318E0,-1.8716391E0,-1.3095663E-4,8.822418E-3,2.9358847E-2,2.330832E-2,-1.6543402E-3,2.6476914E-2,4.204122E-3,-1.1240993E0,-2.6448348E-3,-9.1303943E-4,-1.2160297E-3,-2.9768485E-3,-9.087257E-4,-1.310547E0,-6.812776E-4,1.5087835E-2,5.0235003E-1,-8.4223473E-1,7.3124063E-1,-8.853308E-4,-2.9340386E-3,-1.2674525E0,-2.7863625E-3,-1.0147135E-3,-7.8453514E-4,1.2866297E-1,-1.2352631E0,-9.028171E-4,-7.962528E-4,-1.9447582E-3,-1.3602148E-3,-3.5709896E-4,-2.9359204E-3,-8.436533E-4,-1.8369061E-3,-7.8834913E-4],"split_indices":[0,11,11,12,4,10,4,12,2,0,0,11,4,2,0,0,3,11,10,11,10,0,11,4,7,11,11,0,0,0,11,0,3,0,0,0,4,3,10,0,0,0,0,12,0,4,4,0,0,0,0,0,0,0,4,0,0,0,0,0,11,0,0,2,4,2,0,0,0,0,0,0,10,11,0,0,0,0,0,0,0,0,0],"split_type":[0,0,0,0,0,0,0,0,0,0,0,0,0,0,0,0,0,0,0,0,0,0,0,0,0,0,0,0,0,0,0,0,0,0,0,0,0,0,0,0,0,0,0,0,0,0,0,0,0,0,0,0,0,0,0,0,0,0,0,0,0,0,0,0,0,0,0,0,0,0,0,0,0,0,0,0,0,0,0,0,0,0,0],"sum_hessian":[4.671E3,1.348E3,3.323E3,2.49E2,1.099E3,4.15E2,2.908E3,4.5E1,2.04E2,1E0,1.098E3,1.44E2,2.71E2,5.9E1,2.849E3,4.2E1,3E0,1.83E2,2.1E1,7.8E1,6.6E1,1.62E2,1.09E2,2.2E1,3.7E1,4.9E1,2.8E3,1E0,2E0,3E0,1.8E2,5E0,1.6E1,7.2E1,6E0,4.8E1,1.8E1,7.1E1,3.8E1,3E0,1.9E1,3.6E1,1E0,5E0,4.4E1,1.22E2,2.678E3,1E0,2E0,6.4E1,1.16E2,1E0,4E0,1E0,1.5E1,6E0,1.2E1,2E0,6.9E1,1.5E1,2.3E1,3E0,2E0,2.3E1,9.9E1,1.1E1,2.667E3,1.3E1,2E0,1.7E1,6E0,7E0,1.6E1,1.1E1,8.8E1,9E0,2E0,1E0,1E0,1.5E1,1E0,3E0,8E0],"tree_param":{"num_deleted":"0","num_feature":"14","num_nodes":"83","size_leaf_vector":"1"}},{"base_weights":[4.4292196E-5,5.305041E-2,-2.146753E-2,3.603743E-1,-1.6844155E-2,-4.9894795E-2,-1.7394925E-2,-7.1547423E-3,4.410863E-1,-1.6129817E-3,-8.400387E-4,-4.059809E-2,-5.466732E-2,-4.473536E-2,-1.6813233E-2,-8.2415127E-4,9.4913E-2,4.8169473E-1,8.140281E-2,-5.6284744E-2,-2.1495946E-2,-2.9042761E-3,-4.9105186E-2,-2.2095503E-2,-5.7261184E-2,1.6047239E-3,-1.7136006E-2,1.037701E-2,-5.904736E-4,1.2664822E-1,4.8687977E-1,4.128774E-1,-4.0376637E-2,-2.8813626E-3,-1.7121829E-3,-8.7692525E-4,-3.0570611E-2,-5.600993E-2,-3.5098854E-2,-2.3276035E-3,-8.049707E-4,-2.9158767E-3,-4.5440748E-4,1.37106E-1,-8.248887E-4,-2.3195093E-2,-1.685142E-2,-1.2768265E-4,8.528336E-3,2.791349E-2,2.2152863E-2,-1.6129817E-3,2.5417838E-2,4.099019E-3,-5.3147722E-2,-2.5314847E-3,-8.708991E-4,-1.1754953E-3,-5.6602646E-2,-8.6612924E-4,-4.5487247E-2,-6.5572956E-4,1.4584906E-2,-4.3683004E-2,-1.8046044E-2,-2.2073356E-2,-8.4108085E-4,-2.7978155E-3,-2.2325078E-2,-3.356502E-2,-2.8929196E-3,-2.6547844E-3,-9.712257E-4,-7.5021165E-4,-2.7304653E-3,-2.3086486E-2,-8.581835E-4,-7.6042156E-4,-1.8799329E-3,-1.3262094E-3,-3.481715E-4,-3.426007E-4,-2.2604258E-3,-1.7680222E-3,-7.533115E-4],"categories":[],"categories_nodes":[],"categories_segments":[],"categories_sizes":[],"default_left":[0,0,0,0,0,0,0,0,0,0,0,0,0,0,0,0,0,0,0,0,0,0,0,0,0,0,0,0,0,0,0,0,0,0,0,0,0,0,0,0,0,0,0,0,0,0,0,0,0,0,0,0,0,0,0,0,0,0,0,0,0,0,0,0,0,0,0,0,0,0,0,0,0,0,0,0,0,0,0,0,0,0,0,0,0],"id":3,"left_children":[1,3,5,7,9,11,13,15,17,-1,-1,19,21,23,25,-1,27,29,31,33,35,-1,37,39,41,43,45,-1,-1,47,49,51,53,-1,-1,-1,55,57,59,-1,-1,-1,-1,61,-1,63,65,-1,-1,-1,-1,-1,-1,-1,67,-1,-1,-1,69,-1,71,-1,-1,73,75,77,-1,-1,79,81,-1,-1,-1,-1,-1,83,-1,-1,-1,-1,-1,-1,-1,-1,-1],"loss_changes":[5.3284254E0,2.8982954E1,3.839618E-1,7.419159E0,1.9362569E-4,1.6237974E-2,4.5511723E-2,4.5361828E-2,2.9550552E0,0E0,0E0,4.2239174E-2,2.319038E-3,1.574976E-2,1.6970158E-2,0E0,5.053035E-2,2.770691E-1,9.047401E-1,3.642738E-4,1.8699709E-3,0E0,8.672237E-3,2.6233448E-3,1.4037341E-3,1.24907516E-1,4.4389963E-3,0E0,0E0,2.313298E-2,3.189087E-1,2.7140772E-1,3.0921813E-2,0E0,0E0,0E0,4.1308943E-3,5.622208E-5,6.4140484E-3,0E0,0E0,0E0,0E0,1.43163E-1,0E0,1.2187369E-2,4.5597553E-5,0E0,0E0,0E0,0E0,0E0,0E0,0E0,1.3586134E-4,0E0,0E0,0E0,8.302927E-5,0E0,3.7277676E-3,0E0,0E0,6.7011006E-3,4.8507005E-5,7.071439E-4,0E0,0E0,8.816482E-6,1.5564281E-3,0E0,0E0,0E0,0E0,0E0,6.485353E-4,0E0,0E0,0E0,0E0,0E0,0E0,0E0,0E0,0E0],"parents":[2147483647,0,0,1,1,2,2,3,3,4,4,5,5,6,6,7,7,8,8,11,11,12,12,13,13,14,14,16,16,17,17,18,18,19,19,20,20,22,22,23,23,24,24,25,25,26,26,29,29,30,30,31,31,32,32,36,36,37,37,38,38,43,43,45,45,46,46,54,54,58,58,60,60,63,63,64,64,65,65,68,68,69,69,75,75],"right_children":[2,4,6,8,10,12,14,16,18,-1,-1,20,22,24,26,-1,28,30,32,34,36,-1,38,40,42,44,46,-1,-1,48,50,52,54,-1,-1,-1,56,58,60,-1,-1,-1,-1,62,-1,64,66,-1,-1,-1,-1,-1,-1,-1,68,-1,-1,-1,70,-1,72,-1,-1,74,76,78,-1,-1,80,82,-1,-1,-1,-1,-1,84,-1,-1,-1,-1,-1,-1,-1,-1,-1],"split_conditions":[-6.432542E-1,-5.67E-1,-1.272137E0,-4.1062462E-1,-2.0499468E0,-1.4867683E-1,-1.8907913E0,-4.3437406E-1,1.4404309E0,-1.6129817E-3,-8.400387E-4,-1.466825E0,-1.9664495E-1,6.814337E-1,-6.1847204E-1,-8.2415127E-4,8.001438E-1,-1.2959808E0,-1.7388953E-1,-1.4857206E0,-2.2431496E-1,-2.9042761E-3,-1.3978941E0,-2.0499468E0,1.5166337E0,-5.67E-1,-1.135814E0,1.037701E-2,-5.904736E-4,-1.6150581E0,-8.6186534E-1,-1.5393295E0,-9.222997E-1,-2.8813626E-3,-1.7121829E-3,-8.7692525E-4,2.7144548E-1,-9.222997E-1,4.3121547E-1,-2.3276035E-3,-8.049707E-4,-2.9158767E-3,-4.5440748E-4,5.004156E-2,-8.248887E-4,-1.3632318E0,-1.8716391E0,-1.2768265E-4,8.528336E-3,2.791349E-2,2.2152863E-2,-1.6129817E-3,2.5417838E-2,4.099019E-3,-1.1240993E0,-2.5314847E-3,-8.708991E-4,-1.1754953E-3,-1.6037714E0,-8.6612924E-4,-1.310547E0,-6.5572956E-4,1.4584906E-2,5.0235003E-1,-8.4223473E-1,7.3124063E-1,-8.4108085E-4,-2.7978155E-3,-1.2674525E0,1.3699418E0,-2.8929196E-3,-2.6547844E-3,-9.712257E-4,-7.5021165E-4,-2.7304653E-3,-1.2352631E0,-8.581835E-4,-7.6042156E-4,-1.8799329E-3,-1.3262094E-3,-3.481715E-4,-3.426007E-4,-2.2604258E-3,-1.7680222E-3,-7.533115E-4],"split_indices":[0,11,11,12,4,10,4,12,2,0,0,11,4,2,0,0,3,11,10,11,10,0,11,4,7,11,11,0,0,0,11,0,3,0,0,0,4,3,10,0,0,0,0,12,0,4,4,0,0,0,0,0,0,0,4,0,0,0,8,0,11,0,0,2,4,2,0,0,0,0,0,0,0,0,0,11,0,0,0,0,0,0,0,0,0],"split_type":[0,0,0,0,0,0,0,0,0,0,0,0,0,0,0,0,0,0,0,0,0,0,0,0,0,0,0,0,0,0,0,0,0,0,0,0,0,0,0,0,0,0,0,0,0,0,0,0,0,0,0,0,0,0,0,0,0,0,0,0,0,0,0,0,0,0,0,0,0,0,0,0,0,0,0,0,0,0,0,0,0,0,0,0,0],"sum_hessian":[4.671E3,1.348E3,3.323E3,2.49E2,1.099E3,4.15E2,2.908E3,4.5E1,2.04E2,1E0,1.098E3,1.44E2,2.71E2,5.9E1,2.849E3,4.2E1,3E0,1.83E2,2.1E1,7.8E1,6.6E1,1.62E2,1.09E2,2.2E1,3.7E1,4.9E1,2.8E3,1E0,2E0,3E0,1.8E2,5E0,1.6E1,7.2E1,6E0,4.8E1,1.8E1,7.1E1,3.8E1,3E0,1.9E1,3.6E1,1E0,5E0,4.4E1,1.22E2,2.678E3,1E0,2E0,6.4E1,1.16E2,1E0,4E0,1E0,1.5E1,6E0,1.2E1,2E0,6.9E1,1.5E1,2.3E1,3E0,2E0,2.3E1,9.9E1,1.1E1,2.667E3,1.3E1,2E0,5E0,6.4E1,1.7E1,6E0,7E0,1.6E1,1.1E1,8.8E1,9E0,2E0,1E0,1E0,2E0,3E0,3E0,8E0],"tree_param":{"num_deleted":"0","num_feature":"14","num_nodes":"85","size_leaf_vector":"1"}},{"base_weights":[5.529047E-5,5.0463427E-2,-2.040218E-2,3.4271905E-1,-1.6004179E-2,-4.74552E-2,-1.6526464E-2,-6.602169E-3,4.194315E-1,-1.572657E-3,-7.980751E-4,-3.862938E-2,-5.1985674E-2,-4.2606972E-2,-1.5971603E-2,-7.8390195E-4,9.261398E-2,4.5792776E-1,7.839775E-2,-5.3528655E-2,-2.048502E-2,-2.7599533E-3,-4.6751413E-2,-2.1126928E-2,-5.4486815E-2,1.786576E-3,-1.6282897E-2,1.0117585E-2,-5.707911E-4,1.22415975E-1,4.628124E-1,3.9620104E-1,-3.8379755E-2,-2.7392681E-3,-1.6388039E-3,-1.7178869E-2,-3.080108E-2,-2.6651048E-3,-3.3459093E-2,-2.2403186E-3,-7.6673477E-4,-2.7740232E-3,-4.430472E-4,1.3257223E-1,-7.845607E-4,-2.2091115E-2,-1.6010148E-2,-1.2449063E-4,8.244059E-3,2.6539287E-2,2.1054689E-2,-1.572657E-3,2.4401126E-2,3.9965436E-3,-5.0769847E-2,-2.2610852E-2,-7.776949E-4,-2.4423923E-3,-8.446457E-4,-8.255294E-4,-4.336397E-2,-6.3113956E-4,1.4098743E-2,-4.164388E-2,-1.7177539E-2,-2.118972E-2,-7.990426E-4,-2.667917E-3,-2.1766951E-2,-7.1959995E-4,-3.134113E-2,-2.5294197E-3,-9.296016E-4,-7.173898E-4,-5.2039456E-2,-2.2142272E-2,-8.1575656E-4,-7.2620256E-4,-1.8172687E-3,-1.2930542E-3,-3.3946717E-4,-1.8279984E-3,-3.921154E-4,-2.6703086E-3,-7.543004E-4,-1.7017213E-3,-7.198309E-4],"categories":[],"categories_nodes":[],"categories_segments":[],"categories_sizes":[],"default_left":[0,0,0,0,0,0,0,0,0,0,0,0,0,0,0,0,0,0,0,0,0,0,0,0,0,0,0,0,0,0,0,0,0,0,0,0,0,0,0,0,0,0,0,0,0,0,0,0,0,0,0,0,0,0,0,0,0,0,0,0,0,0,0,0,0,0,0,0,0,0,0,0,0,0,0,0,0,0,0,0,0,0,0,0,0,0,0],"id":4,"left_children":[1,3,5,7,9,11,13,15,17,-1,-1,19,21,23,25,-1,27,29,31,33,35,-1,37,39,41,43,45,-1,-1,47,49,51,53,-1,-1,55,57,-1,59,-1,-1,-1,-1,61,-1,63,65,-1,-1,-1,-1,-1,-1,-1,67,69,-1,-1,-1,-1,71,-1,-1,73,75,77,-1,-1,79,-1,81,-1,-1,-1,83,85,-1,-1,-1,-1,-1,-1,-1,-1,-1,-1,-1],"loss_changes":[4.818903E0,2.6210526E1,3.477366E-1,6.702093E0,2.232194E-4,1.46256685E-2,4.141587E-2,4.2873755E-2,2.655449E0,0E0,0E0,3.8102463E-2,1.9943714E-3,1.415962E-2,1.5784025E-2,0E0,4.7973983E-2,2.4489212E-1,8.316762E-1,2.6465952E-4,1.756005E-3,0E0,7.7946633E-3,2.4675159E-3,1.2311712E-3,1.1637243E-1,4.083574E-3,0E0,0E0,2.1627117E-2,2.897606E-1,2.509569E-1,2.8978033E-2,0E0,0E0,1.1613406E-4,2.9397793E-3,0E0,5.8310777E-3,0E0,0E0,0E0,0E0,1.3371441E-1,0E0,1.110176E-2,6.788969E-5,0E0,0E0,0E0,0E0,0E0,0E0,0E0,3.973022E-5,2.664677E-4,0E0,0E0,0E0,0E0,3.3545718E-3,0E0,0E0,6.0635507E-3,6.690994E-5,6.84388E-4,0E0,0E0,8.381088E-6,0E0,2.0383159E-4,0E0,0E0,0E0,5.2895397E-5,6.153695E-4,0E0,0E0,0E0,0E0,0E0,0E0,0E0,0E0,0E0,0E0,0E0],"parents":[2147483647,0,0,1,1,2,2,3,3,4,4,5,5,6,6,7,7,8,8,11,11,12,12,13,13,14,14,16,16,17,17,18,18,19,19,20,20,22,22,23,23,24,24,25,25,26,26,29,29,30,30,31,31,32,32,35,35,36,36,38,38,43,43,45,45,46,46,54,54,55,55,60,60,63,63,64,64,65,65,68,68,70,70,74,74,75,75],"right_children":[2,4,6,8,10,12,14,16,18,-1,-1,20,22,24,26,-1,28,30,32,34,36,-1,38,40,42,44,46,-1,-1,48,50,52,54,-1,-1,56,58,-1,60,-1,-1,-1,-1,62,-1,64,66,-1,-1,-1,-1,-1,-1,-1,68,70,-1,-1,-1,-1,72,-1,-1,74,76,78,-1,-1,80,-1,82,-1,-1,-1,84,86,-1,-1,-1,-1,-1,-1,-1,-1,-1,-1,-1],"split_conditions":[-6.432542E-1,-5.67E-1,-1.272137E0,-4.1062462E-1,-2.0499468E0,-1.4867683E-1,-1.8907913E0,-4.3437406E-1,1.4404309E0,-1.572657E-3,-7.980751E-4,-1.466825E0,-1.9664495E-1,6.814337E-1,-6.1847204E-1,-7.8390195E-4,8.001438E-1,-1.2959808E0,-1.7388953E-1,-1.4857206E0,-1.9910224E-1,-2.7599533E-3,-1.3978941E0,-2.0499468E0,1.5166337E0,-5.67E-1,-1.135814E0,1.0117585E-2,-5.707911E-4,-1.6150581E0,-8.6186534E-1,-1.5393295E0,-9.222997E-1,-2.7392681E-3,-1.6388039E-3,-1.4283078E0,-1.1240993E0,-2.6651048E-3,4.3121547E-1,-2.2403186E-3,-7.6673477E-4,-2.7740232E-3,-4.430472E-4,5.004156E-2,-7.845607E-4,-1.3632318E0,-1.8716391E0,-1.2449063E-4,8.244059E-3,2.6539287E-2,2.1054689E-2,-1.572657E-3,2.4401126E-2,3.9965436E-3,-1.1240993E0,-1.4516841E0,-7.776949E-4,-2.4423923E-3,-8.446457E-4,-8.255294E-4,-1.310547E0,-6.3113956E-4,1.4098743E-2,5.0235003E-1,-8.4223473E-1,7.3124063E-1,-7.990426E-4,-2.667917E-3,-1.2674525E0,-7.1959995E-4,2.7144548E-1,-2.5294197E-3,-9.296016E-4,-7.173898E-4,1.2866297E-1,-1.2352631E0,-8.1575656E-4,-7.2620256E-4,-1.8172687E-3,-1.2930542E-3,-3.3946717E-4,-1.8279984E-3,-3.921154E-4,-2.6703086E-3,-7.543004E-4,-1.7017213E-3,-7.198309E-4],"split_indices":[0,11,11,12,4,10,4,12,2,0,0,11,4,2,0,0,3,11,10,11,10,0,11,4,7,11,11,0,0,0,11,0,3,0,0,11,4,0,10,0,0,0,0,12,0,4,4,0,0,0,0,0,0,0,4,11,0,0,0,0,11,0,0,2,4,2,0,0,0,0,4,0,0,0,10,11,0,0,0,0,0,0,0,0,0,0,0],"split_type":[0,0,0,0,0,0,0,0,0,0,0,0,0,0,0,0,0,0,0,0,0,0,0,0,0,0,0,0,0,0,0,0,0,0,0,0,0,0,0,0,0,0,0,0,0,0,0,0,0,0,0,0,0,0,0,0,0,0,0,0,0,0,0,0,0,0,0,0,0,0,0,0,0,0,0,0,0,0,0,0,0,0,0,0,0,0,0],"sum_hessian":[4.671E3,1.348E3,3.323E3,2.49E2,1.099E3,4.15E2,2.908E3,4.5E1,2.04E2,1E0,1.098E3,1.44E2,2.71E2,5.9E1,2.849E3,4.2E1,3E0,1.83E2,2.1E1,7.8E1,6.6E1,1.62E2,1.09E2,2.2E1,3.7E1,4.9E1,2.8E3,1E0,2E0,3E0,1.8E2,5E0,1.6E1,7.2E1,6E0,5.2E1,1.4E1,7.1E1,3.8E1,3E0,1.9E1,3.6E1,1E0,5E0,4.4E1,1.22E2,2.678E3,1E0,2E0,6.4E1,1.16E2,1E0,4E0,1E0,1.5E1,9E0,4.3E1,5E0,9E0,1.5E1,2.3E1,3E0,2E0,2.3E1,9.9E1,1.1E1,2.667E3,1.3E1,2E0,6E0,3E0,1.7E1,6E0,7E0,1.6E1,1.1E1,8.8E1,9E0,2E0,1E0,1E0,2E0,1E0,1.5E1,1E0,3E0,8E0],"tree_param":{"num_deleted":"0","num_feature":"14","num_nodes":"87","size_leaf_vector":"1"}},{"base_weights":[6.521493E-5,4.800299E-2,-1.9389696E-2,3.259311E-1,-1.5206123E-2,-4.513314E-2,-1.5701605E-2,-6.08156E-3,3.988416E-1,-1.5333405E-3,-7.582076E-4,-3.677641E-2,-4.9422085E-2,-4.0580362E-2,-1.5172332E-2,-7.456182E-4,9.036998E-2,4.3533418E-1,7.55017E-2,-5.0907638E-2,-1.9565314E-2,-2.686913E-3,-4.5765944E-2,-2.0201325E-2,-5.1847134E-2,1.9509075E-3,-1.5472578E-2,9.864645E-3,-5.517648E-4,1.1832507E-1,4.3993473E-1,3.8019574E-1,-3.6478646E-2,-2.6041807E-3,-1.5685695E-3,-1.6390068E-2,-2.9480163E-2,-4.8123885E-2,-1.8749075E-2,-2.1563065E-3,-7.3031493E-4,-2.6390709E-3,-4.3197098E-4,1.2818821E-1,-7.4620434E-4,-2.1046553E-2,-1.52108865E-2,-1.2137834E-4,7.9692565E-3,2.5232738E-2,2.0010954E-2,-1.5333405E-3,2.3425082E-2,3.89663E-3,-2.4250068E-3,-2.177428E-2,-7.3969405E-4,-2.3406257E-3,-8.066368E-4,-3.956539E-2,-2.6195787E-3,-1.07254185E-4,-9.93065E-4,-6.0747185E-4,1.3628784E-2,-3.973427E-2,-1.6351035E-2,-2.0342192E-2,-7.591053E-4,-6.8876E-4,-3.03291E-2,-4.3693885E-2,-7.722105E-4,-6.860041E-4,-4.963893E-2,-2.1236956E-2,-7.7542703E-4,-6.935235E-4,-1.7566931E-3,-1.7670653E-3,-3.823125E-4,-2.477436E-3,-3.1824805E-2,-2.545138E-3,-7.3544285E-4,-1.637907E-3,-6.878385E-4,-4.035709E-2,-9.456093E-3,-2.168249E-3,-1.8175784E-4,-1.1799987E-4,-5.201657E-4],"categories":[],"categories_nodes":[],"categories_segments":[],"categories_sizes":[],"default_left":[0,0,0,0,0,0,0,0,0,0,0,0,0,0,0,0,0,0,0,0,0,0,0,0,0,0,0,0,0,0,0,0,0,0,0,0,0,0,0,0,0,0,0,0,0,0,0,0,0,0,0,0,0,0,0,0,0,0,0,0,0,0,0,0,0,0,0,0,0,0,0,0,0,0,0,0,0,0,0,0,0,0,0,0,0,0,0,0,0,0,0,0,0],"id":5,"left_children":[1,3,5,7,9,11,13,15,17,-1,-1,19,21,23,25,-1,27,29,31,33,35,-1,37,39,41,43,45,-1,-1,47,49,51,53,-1,-1,55,57,59,61,-1,-1,-1,-1,63,-1,65,67,-1,-1,-1,-1,-1,-1,-1,-1,69,-1,-1,-1,71,-1,-1,-1,-1,-1,73,75,77,-1,-1,79,81,-1,-1,83,85,-1,-1,-1,-1,-1,-1,87,-1,-1,-1,-1,89,91,-1,-1,-1,-1],"loss_changes":[4.3581557E0,2.3703634E1,3.1488597E-1,6.054226E0,2.487898E-4,1.3092518E-2,3.768897E-2,4.052788E-2,2.386032E0,0E0,0E0,3.4270003E-2,1.8329024E-3,1.2728982E-2,1.4682591E-2,0E0,4.5547374E-2,2.1629333E-1,7.645034E-1,1.810193E-4,1.626119E-3,0E0,8.908153E-3,2.3201797E-3,1.0779873E-3,1.0842577E-1,3.765583E-3,0E0,0E0,2.0219363E-2,2.6326752E-1,2.3205692E-1,2.7161432E-2,0E0,0E0,1.3336632E-4,2.7149227E-3,3.0771494E-3,2.1593925E-4,0E0,0E0,0E0,0E0,1.24889635E-1,0E0,1.0143362E-2,8.678436E-5,0E0,0E0,0E0,0E0,0E0,0E0,0E0,0E0,2.665175E-4,0E0,0E0,0E0,4.403971E-3,0E0,0E0,0E0,0E0,0E0,5.502831E-3,8.228235E-5,6.614076E-4,0E0,0E0,1.8453575E-4,1.4112592E-3,0E0,0E0,1.7546117E-6,5.835211E-4,0E0,0E0,0E0,0E0,0E0,0E0,2.8629377E-3,0E0,0E0,0E0,0E0,1.1678264E-3,1.5777594E-5,0E0,0E0,0E0,0E0],"parents":[2147483647,0,0,1,1,2,2,3,3,4,4,5,5,6,6,7,7,8,8,11,11,12,12,13,13,14,14,16,16,17,17,18,18,19,19,20,20,22,22,23,23,24,24,25,25,26,26,29,29,30,30,31,31,32,32,35,35,36,36,37,37,38,38,43,43,45,45,46,46,55,55,59,59,65,65,66,66,67,67,70,70,71,71,74,74,75,75,82,82,87,87,88,88],"right_children":[2,4,6,8,10,12,14,16,18,-1,-1,20,22,24,26,-1,28,30,32,34,36,-1,38,40,42,44,46,-1,-1,48,50,52,54,-1,-1,56,58,60,62,-1,-1,-1,-1,64,-1,66,68,-1,-1,-1,-1,-1,-1,-1,-1,70,-1,-1,-1,72,-1,-1,-1,-1,-1,74,76,78,-1,-1,80,82,-1,-1,84,86,-1,-1,-1,-1,-1,-1,88,-1,-1,-1,-1,90,92,-1,-1,-1,-1],"split_conditions":[-6.432542E-1,-5.67E-1,-1.272137E0,-4.1062462E-1,-2.0499468E0,-1.4867683E-1,-1.8907913E0,-4.3437406E-1,1.4404309E0,-1.5333405E-3,-7.582076E-4,-1.466825E0,-6.623391E-1,6.814337E-1,-6.1847204E-1,-7.456182E-4,8.001438E-1,-1.2959808E0,-1.7388953E-1,-1.4857206E0,-1.9910224E-1,-2.686913E-3,-1.310547E0,-2.0499468E0,1.5166337E0,-5.67E-1,-1.135814E0,9.864645E-3,-5.517648E-4,-1.6150581E0,-8.6186534E-1,-1.5393295E0,-9.222997E-1,-2.6041807E-3,-1.5685695E-3,-1.4283078E0,-1.1240993E0,5.3024843E-2,-8.753726E-1,-2.1563065E-3,-7.3031493E-4,-2.6390709E-3,-4.3197098E-4,5.004156E-2,-7.4620434E-4,-1.3632318E0,-1.8716391E0,-1.2137834E-4,7.9692565E-3,2.5232738E-2,2.0010954E-2,-1.5333405E-3,2.3425082E-2,3.89663E-3,-2.4250068E-3,-1.4516841E0,-7.3969405E-4,-2.3406257E-3,-8.066368E-4,-1.3771505E0,-2.6195787E-3,-1.07254185E-4,-9.93065E-4,-6.0747185E-4,1.3628784E-2,5.0235003E-1,-8.4223473E-1,7.3124063E-1,-7.591053E-4,-6.8876E-4,2.7144548E-1,1.1036973E-1,-7.722105E-4,-6.860041E-4,1.2866297E-1,-1.2352631E0,-7.7542703E-4,-6.935235E-4,-1.7566931E-3,-1.7670653E-3,-3.823125E-4,-2.477436E-3,-1.4283078E0,-2.545138E-3,-7.3544285E-4,-1.637907E-3,-6.878385E-4,1.3453785E0,1.2523892E0,-2.168249E-3,-1.8175784E-4,-1.1799987E-4,-5.201657E-4],"split_indices":[0,11,11,12,4,10,4,12,2,0,0,11,4,2,0,0,3,11,10,11,10,0,11,4,7,11,11,0,0,0,11,0,3,0,0,11,4,10,5,0,0,0,0,12,0,4,4,0,0,0,0,0,0,0,0,11,0,0,0,11,0,0,0,0,0,2,4,2,0,0,4,4,0,0,10,11,0,0,0,0,0,0,11,0,0,0,0,0,0,0,0,0,0],"split_type":[0,0,0,0,0,0,0,0,0,0,0,0,0,0,0,0,0,0,0,0,0,0,0,0,0,0,0,0,0,0,0,0,0,0,0,0,0,0,0,0,0,0,0,0,0,0,0,0,0,0,0,0,0,0,0,0,0,0,0,0,0,0,0,0,0,0,0,0,0,0,0,0,0,0,0,0,0,0,0,0,0,0,0,0,0,0,0,0,0,0,0,0,0],"sum_hessian":[4.671E3,1.348E3,3.323E3,2.49E2,1.099E3,4.15E2,2.908E3,4.5E1,2.04E2,1E0,1.098E3,1.44E2,2.71E2,5.9E1,2.849E3,4.2E1,3E0,1.83E2,2.1E1,7.8E1,6.6E1,1.18E2,1.53E2,2.2E1,3.7E1,4.9E1,2.8E3,1E0,2E0,3E0,1.8E2,5E0,1.6E1,7.2E1,6E0,5.2E1,1.4E1,1.4E2,1.3E1,3E0,1.9E1,3.6E1,1E0,5E0,4.4E1,1.22E2,2.678E3,1E0,2E0,6.4E1,1.16E2,1E0,4E0,1E0,1.5E1,9E0,4.3E1,5E0,9E0,5E1,9E1,1E0,1.2E1,3E0,2E0,2.3E1,9.9E1,1.1E1,2.667E3,6E0,3E0,4.2E1,8E0,7E0,1.6E1,1.1E1,8.8E1,9E0,2E0,2E0,1E0,2.6E1,1.6E1,1.5E1,1E0,3E0,8E0,1.1E1,5E0,1E1,1E0,1E0,4E0],"tree_param":{"num_deleted":"0","num_feature":"14","num_nodes":"93","size_leaf_vector":"1"}},{"base_weights":[7.377402E-5,4.5664173E-2,-1.8428488E-2,3.0997464E-1,-1.44479E-2,-4.2933077E-2,-1.4917888E-2,-5.591238E-3,3.7927246E-1,-1.4950071E-3,-7.203316E-4,-3.5012748E-2,-4.699747E-2,-3.865064E-2,-1.4413017E-2,-7.092044E-4,8.81797E-2,4.13856E-1,7.278859E-2,-4.8415076E-2,-1.8687423E-2,-2.553696E-3,-4.3542303E-2,-1.9316766E-2,-4.9335595E-2,2.098865E-3,-1.4702621E-2,9.618029E-3,-5.333726E-4,1.1437078E-1,4.1818798E-1,3.6483458E-1,-3.4568146E-2,-2.4757553E-3,-3.00269E-2,-7.582003E-4,-2.6790584E-2,-4.917184E-2,-3.220665E-2,-2.075445E-3,-6.956251E-4,-2.5106834E-3,-4.2117175E-4,1.2394902E-1,-7.0972316E-4,-2.0051688E-2,-1.4451543E-2,-1.1834391E-4,7.703615E-3,2.399051E-2,1.9018957E-2,-1.4950071E-3,2.2488078E-2,3.7992143E-3,-4.622669E-2,-4.510617E-4,-1.6012153E-3,-2.2264915E-3,-7.588934E-4,-9.7520027E-4,-2.478709E-3,-2.1514513E-2,-4.0043212E-2,-5.846918E-4,1.3174491E-2,-3.791283E-2,-1.5564496E-2,-1.9529266E-2,-7.211644E-4,-2.4314597E-3,-1.9606104E-2,-3.487319E-2,-7.730276E-4,-2.3243572E-3,-9.921071E-4,-6.5599143E-4,-2.3674981E-3,-2.036892E-2,-7.3709135E-4,-6.6231505E-4,-1.6981367E-3,-1.2001026E-3,-2.7035523E-4,-1.9164094E-3,-3.5358025E-4,-1.5764855E-3,-6.5726787E-4],"categories":[],"categories_nodes":[],"categories_segments":[],"categories_sizes":[],"default_left":[0,0,0,0,0,0,0,0,0,0,0,0,0,0,0,0,0,0,0,0,0,0,0,0,0,0,0,0,0,0,0,0,0,0,0,0,0,0,0,0,0,0,0,0,0,0,0,0,0,0,0,0,0,0,0,0,0,0,0,0,0,0,0,0,0,0,0,0,0,0,0,0,0,0,0,0,0,0,0,0,0,0,0,0,0,0,0],"id":6,"left_children":[1,3,5,7,9,11,13,15,17,-1,-1,19,21,23,25,-1,27,29,31,33,35,-1,37,39,41,43,45,-1,-1,47,49,51,53,-1,55,-1,57,59,61,-1,-1,-1,-1,63,-1,65,67,-1,-1,-1,-1,-1,-1,-1,69,-1,-1,-1,-1,-1,-1,71,73,-1,-1,75,77,79,-1,-1,81,83,-1,-1,-1,-1,-1,85,-1,-1,-1,-1,-1,-1,-1,-1,-1],"loss_changes":[3.9417925E0,2.1437725E1,2.853093E-1,5.4691296E0,2.706796E-4,1.1746049E-2,3.429854E-2,3.8315687E-2,2.1427307E0,0E0,0E0,3.0820876E-2,1.6071796E-3,1.1441901E-2,1.3659239E-2,0E0,4.3243933E-2,1.9088745E-1,7.023799E-1,1.11177564E-4,1.5066527E-3,0E0,8.24374E-3,2.180947E-3,9.4213337E-4,1.01026624E-1,3.4720898E-3,0E0,0E0,1.8903319E-2,2.3919487E-1,2.1458966E-1,2.5423469E-2,0E0,4.799105E-6,0E0,3.2381462E-3,2.386868E-4,3.66313E-3,0E0,0E0,0E0,0E0,1.1664748E-1,0E0,9.267911E-3,1.026392E-4,0E0,0E0,0E0,0E0,0E0,0E0,0E0,6.986782E-5,0E0,0E0,0E0,0E0,0E0,0E0,1.4826627E-3,2.982825E-3,0E0,0E0,4.9941726E-3,9.497069E-5,6.383392E-4,0E0,0E0,5.7472498E-5,4.0133856E-4,0E0,0E0,0E0,0E0,0E0,5.5297883E-4,0E0,0E0,0E0,0E0,0E0,0E0,0E0,0E0,0E0],"parents":[2147483647,0,0,1,1,2,2,3,3,4,4,5,5,6,6,7,7,8,8,11,11,12,12,13,13,14,14,16,16,17,17,18,18,19,19,20,20,22,22,23,23,24,24,25,25,26,26,29,29,30,30,31,31,32,32,34,34,36,36,37,37,38,38,43,43,45,45,46,46,54,54,61,61,62,62,65,65,66,66,67,67,70,70,71,71,77,77],"right_children":[2,4,6,8,10,12,14,16,18,-1,-1,20,22,24,26,-1,28,30,32,34,36,-1,38,40,42,44,46,-1,-1,48,50,52,54,-1,56,-1,58,60,62,-1,-1,-1,-1,64,-1,66,68,-1,-1,-1,-1,-1,-1,-1,70,-1,-1,-1,-1,-1,-1,72,74,-1,-1,76,78,80,-1,-1,82,84,-1,-1,-1,-1,-1,86,-1,-1,-1,-1,-1,-1,-1,-1,-1],"split_conditions":[-6.432542E-1,-5.67E-1,-1.272137E0,-4.1062462E-1,-2.0499468E0,-1.4867683E-1,-1.8907913E0,-4.3437406E-1,1.4404309E0,-1.4950071E-3,-7.203316E-4,-1.466825E0,-6.623391E-1,6.814337E-1,-6.1847204E-1,-7.092044E-4,8.001438E-1,-1.2959808E0,-1.7388953E-1,-1.4857206E0,-2.2431496E-1,-2.553696E-3,-1.3978941E0,-2.0499468E0,1.5166337E0,-5.67E-1,-1.135814E0,9.618029E-3,-5.333726E-4,-1.6150581E0,-8.6186534E-1,-1.5393295E0,-9.222997E-1,-2.4757553E-3,9.350808E-1,-7.582003E-4,2.7144548E-1,-9.222997E-1,4.3121547E-1,-2.075445E-3,-6.956251E-4,-2.5106834E-3,-4.2117175E-4,5.004156E-2,-7.0972316E-4,-1.3632318E0,-1.8716391E0,-1.1834391E-4,7.703615E-3,2.399051E-2,1.9018957E-2,-1.4950071E-3,2.2488078E-2,3.7992143E-3,-1.1240993E0,-4.510617E-4,-1.6012153E-3,-2.2264915E-3,-7.588934E-4,-9.7520027E-4,-2.478709E-3,1.1603538E0,-1.310547E0,-5.846918E-4,1.3174491E-2,5.0235003E-1,-8.4223473E-1,7.3124063E-1,-7.211644E-4,-2.4314597E-3,-1.2674525E0,8.001438E-1,-7.730276E-4,-2.3243572E-3,-9.921071E-4,-6.5599143E-4,-2.3674981E-3,-1.2352631E0,-7.3709135E-4,-6.6231505E-4,-1.6981367E-3,-1.2001026E-3,-2.7035523E-4,-1.9164094E-3,-3.5358025E-4,-1.5764855E-3,-6.5726787E-4],"split_indices":[0,11,11,12,4,10,4,12,2,0,0,11,4,2,0,0,3,11,10,11,10,0,11,4,7,11,11,0,0,0,11,0,3,0,1,0,4,3,10,0,0,0,0,12,0,4,4,0,0,0,0,0,0,0,4,0,0,0,0,0,0,0,11,0,0,2,4,2,0,0,0,3,0,0,0,0,0,11,0,0,0,0,0,0,0,0,0],"split_type":[0,0,0,0,0,0,0,0,0,0,0,0,0,0,0,0,0,0,0,0,0,0,0,0,0,0,0,0,0,0,0,0,0,0,0,0,0,0,0,0,0,0,0,0,0,0,0,0,0,0,0,0,0,0,0,0,0,0,0,0,0,0,0,0,0,0,0,0,0,0,0,0,0,0,0,0,0,0,0,0,0,0,0,0,0,0,0],"sum_hessian":[4.671E3,1.348E3,3.323E3,2.49E2,1.099E3,4.15E2,2.908E3,4.5E1,2.04E2,1E0,1.098E3,1.44E2,2.71E2,5.9E1,2.849E3,4.2E1,3E0,1.83E2,2.1E1,7.8E1,6.6E1,1.18E2,1.53E2,2.2E1,3.7E1,4.9E1,2.8E3,1E0,2E0,3E0,1.8E2,5E0,1.6E1,7.2E1,6E0,4.8E1,1.8E1,1E2,5.3E1,3E0,1.9E1,3.6E1,1E0,5E0,4.4E1,1.22E2,2.678E3,1E0,2E0,6.4E1,1.16E2,1E0,4E0,1E0,1.5E1,1E0,5E0,6E0,1.2E1,2E0,9.8E1,2.4E1,2.9E1,3E0,2E0,2.3E1,9.9E1,1.1E1,2.667E3,1.3E1,2E0,6E0,1.8E1,2.1E1,8E0,7E0,1.6E1,1.1E1,8.8E1,9E0,2E0,1E0,1E0,5E0,1E0,3E0,8E0],"tree_param":{"num_deleted":"0","num_feature":"14","num_nodes":"87","size_leaf_vector":"1"}},{"base_weights":[8.1666156E-5,4.343852E-2,-1.7514145E-2,2.9479533E-1,-1.3727521E-2,-4.0836036E-2,-1.417299E-2,-5.1296E-3,3.6065754E-1,-1.4576319E-3,-6.843479E-4,-2.3769333E-3,-3.641775E-2,-3.6813155E-2,-1.36913825E-2,-6.7456876E-4,8.6041875E-2,3.934382E-1,7.009872E-2,-1.7808925E-2,-4.282184E-2,-1.847141E-2,-4.694597E-2,2.2315213E-3,-1.397073E-2,9.377578E-3,-5.1559345E-4,1.10548556E-1,3.975162E-1,3.500917E-1,-3.284578E-2,-1.4866433E-2,-2.7018473E-2,-2.3510351E-3,-3.3240285E-2,-1.997616E-3,-6.62583E-4,-2.3885423E-3,-4.106424E-4,1.19849876E-1,-6.750258E-4,-1.9097837E-2,-1.3730116E-2,-1.1538528E-4,7.446828E-3,2.2809438E-2,1.8076137E-2,-1.4576319E-3,2.1588555E-2,3.7042336E-3,-2.2079614E-3,-2.01401E-2,-6.6649995E-4,-2.1503293E-3,-7.361879E-4,-2.2692302E-2,-4.0949207E-2,-5.6276587E-4,1.2735342E-2,-3.614317E-2,-1.4815978E-2,-1.874951E-2,-6.851197E-4,-6.267473E-4,-2.8414095E-2,-3.6296986E-2,-1.5435578E-2,-2.3706413E-3,-2.069524E-2,-6.272917E-4,-4.512173E-2,-1.953662E-2,-7.0065074E-4,-6.32511E-4,-1.641532E-3,-1.6584181E-3,-3.5378235E-4,-1.9595223E-3,-3.2873312E-4,-2.6216999E-2,-1.1101661E-2,-1.262572E-3,-5.544375E-4,-2.3148581E-3,-6.578694E-4,-1.5173672E-3,-6.2805595E-4,-1.5809393E-3,-1.15246236E-4,-1.06578824E-4,-6.115423E-4],"categories":[],"categories_nodes":[],"categories_segments":[],"categories_sizes":[],"default_left":[0,0,0,0,0,0,0,0,0,0,0,0,0,0,0,0,0,0,0,0,0,0,0,0,0,0,0,0,0,0,0,0,0,0,0,0,0,0,0,0,0,0,0,0,0,0,0,0,0,0,0,0,0,0,0,0,0,0,0,0,0,0,0,0,0,0,0,0,0,0,0,0,0,0,0,0,0,0,0,0,0,0,0,0,0,0,0,0,0,0,0],"id":7,"left_children":[1,3,5,7,9,11,13,15,17,-1,-1,-1,19,21,23,-1,25,27,29,31,33,35,37,39,41,-1,-1,43,45,47,49,51,53,-1,55,-1,-1,-1,-1,57,-1,59,61,-1,-1,-1,-1,-1,-1,-1,-1,63,-1,-1,-1,65,67,-1,-1,69,71,73,-1,-1,75,77,79,-1,81,-1,83,85,-1,-1,-1,-1,-1,-1,-1,87,89,-1,-1,-1,-1,-1,-1,-1,-1,-1,-1],"loss_changes":[3.5650246E0,1.9387928E1,2.5843418E-1,4.940279E0,2.8923154E-4,1.0588169E-2,3.1214774E-2,3.622917E-2,1.9249859E0,0E0,0E0,0E0,2.96264E-2,1.0284051E-2,1.2708068E-2,0E0,4.1057363E-2,1.6832352E-1,6.4562124E-1,1.4139656E-3,6.0407817E-3,2.0494396E-3,8.217618E-4,9.413685E-2,3.1931996E-3,0E0,0E0,1.7673E-2,2.1731567E-1,1.9844598E-1,2.38373E-2,1.6097259E-4,2.315321E-3,0E0,4.0308908E-3,0E0,0E0,0E0,0E0,1.08949505E-1,0E0,8.441739E-3,1.15931034E-4,0E0,0E0,0E0,0E0,0E0,0E0,0E0,0E0,2.7308054E-4,0E0,0E0,0E0,2.2040475E-3,3.4698546E-3,0E0,0E0,4.5187883E-3,1.05284154E-4,6.1530434E-4,0E0,0E0,1.71107E-4,5.163392E-4,6.434638E-4,0E0,1.5768409E-4,0E0,2.957508E-5,5.23726E-4,0E0,0E0,0E0,0E0,0E0,0E0,0E0,5.729608E-4,1.3599126E-4,0E0,0E0,0E0,0E0,0E0,0E0,0E0,0E0,0E0,0E0],"parents":[2147483647,0,0,1,1,2,2,3,3,4,4,5,5,6,6,7,7,8,8,12,12,13,13,14,14,16,16,17,17,18,18,19,19,20,20,21,21,22,22,23,23,24,24,27,27,28,28,29,29,30,30,31,31,32,32,34,34,39,39,41,41,42,42,51,51,55,55,56,56,59,59,60,60,61,61,64,64,65,65,66,66,68,68,70,70,71,71,79,79,80,80],"right_children":[2,4,6,8,10,12,14,16,18,-1,-1,-1,20,22,24,-1,26,28,30,32,34,36,38,40,42,-1,-1,44,46,48,50,52,54,-1,56,-1,-1,-1,-1,58,-1,60,62,-1,-1,-1,-1,-1,-1,-1,-1,64,-1,-1,-1,66,68,-1,-1,70,72,74,-1,-1,76,78,80,-1,82,-1,84,86,-1,-1,-1,-1,-1,-1,-1,88,90,-1,-1,-1,-1,-1,-1,-1,-1,-1,-1],"split_conditions":[-6.432542E-1,-5.67E-1,-1.272137E0,-4.1062462E-1,-2.0499468E0,-1.466825E0,-1.8907913E0,-4.3437406E-1,1.4404309E0,-1.4576319E-3,-6.843479E-4,-2.3769333E-3,-1.4867683E-1,6.814337E-1,-6.1847204E-1,-6.7456876E-4,8.001438E-1,-1.2959808E0,-1.7388953E-1,-1.9910224E-1,-2.3495318E-1,-2.0499468E0,1.5166337E0,-5.67E-1,-1.135814E0,9.377578E-3,-5.1559345E-4,-1.6150581E0,-8.6186534E-1,-1.5393295E0,-9.222997E-1,-1.4283078E0,-1.1240993E0,-2.3510351E-3,4.3121547E-1,-1.997616E-3,-6.62583E-4,-2.3885423E-3,-4.106424E-4,5.004156E-2,-6.750258E-4,-1.3632318E0,-1.8716391E0,-1.1538528E-4,7.446828E-3,2.2809438E-2,1.8076137E-2,-1.4576319E-3,2.1588555E-2,3.7042336E-3,-2.2079614E-3,-1.4516841E0,-6.6649995E-4,-2.1503293E-3,-7.361879E-4,-5.5878645E-1,-1.323261E0,-5.6276587E-4,1.2735342E-2,5.0235003E-1,-8.4223473E-1,7.3124063E-1,-6.851197E-4,-6.267473E-4,2.7144548E-1,1.3521864E0,-1.4283078E0,-2.3706413E-3,-1.2959808E0,-6.272917E-4,1.2866297E-1,-1.2352631E0,-7.0065074E-4,-6.32511E-4,-1.641532E-3,-1.6584181E-3,-3.5378235E-4,-1.9595223E-3,-3.2873312E-4,1.3453785E0,-1.4074627E0,-1.262572E-3,-5.544375E-4,-2.3148581E-3,-6.578694E-4,-1.5173672E-3,-6.2805595E-4,-1.5809393E-3,-1.15246236E-4,-1.06578824E-4,-6.115423E-4],"split_indices":[0,11,11,12,4,11,4,12,2,0,0,0,10,2,0,0,3,11,10,10,4,4,7,11,11,0,0,0,11,0,3,11,4,0,10,0,0,0,0,12,0,4,4,0,0,0,0,0,0,0,0,11,0,0,0,5,11,0,0,2,4,2,0,0,4,0,11,0,11,0,10,11,0,0,0,0,0,0,0,0,11,0,0,0,0,0,0,0,0,0,0],"split_type":[0,0,0,0,0,0,0,0,0,0,0,0,0,0,0,0,0,0,0,0,0,0,0,0,0,0,0,0,0,0,0,0,0,0,0,0,0,0,0,0,0,0,0,0,0,0,0,0,0,0,0,0,0,0,0,0,0,0,0,0,0,0,0,0,0,0,0,0,0,0,0,0,0,0,0,0,0,0,0,0,0,0,0,0,0,0,0,0,0,0,0],"sum_hessian":[4.671E3,1.348E3,3.323E3,2.49E2,1.099E3,4.15E2,2.908E3,4.5E1,2.04E2,1E0,1.098E3,1.61E2,2.54E2,5.9E1,2.849E3,4.2E1,3E0,1.83E2,2.1E1,6.6E1,1.88E2,2.2E1,3.7E1,4.9E1,2.8E3,1E0,2E0,3E0,1.8E2,5E0,1.6E1,5.2E1,1.4E1,1.28E2,6E1,3E0,1.9E1,3.6E1,1E0,5E0,4.4E1,1.22E2,2.678E3,1E0,2E0,6.4E1,1.16E2,1E0,4E0,1E0,1.5E1,9E0,4.3E1,5E0,9E0,2.7E1,3.3E1,3E0,2E0,2.3E1,9.9E1,1.1E1,2.667E3,6E0,3E0,8E0,1.9E1,2.4E1,9E0,7E0,1.6E1,1.1E1,8.8E1,9E0,2E0,2E0,1E0,7E0,1E0,4E0,1.5E1,5E0,4E0,1.5E1,1E0,3E0,8E0,3E0,1E0,2E0,1.3E1],"tree_param":{"num_deleted":"0","num_feature":"14","num_nodes":"91","size_leaf_vector":"1"}},{"base_weights":[8.886474E-5,4.132285E-2,-1.6645413E-2,2.803677E-1,-1.3043089E-2,-3.8841855E-2,-1.34654995E-2,-4.695133E-3,3.4296536E-1,-1.4211911E-3,-6.501615E-4,-3.1671785E-2,-4.252133E-2,-3.506349E-2,-1.300608E-2,-6.4162473E-4,8.395528E-2,3.740283E-1,6.757684E-2,-4.3704793E-2,-1.7010897E-2,-2.31027E-3,-3.9398443E-2,-1.7663503E-2,-4.4672336E-2,2.3498924E-3,-1.3275553E-2,9.143139E-3,-4.98407E-4,1.0685399E-1,3.7786627E-1,3.3594227E-1,-3.1115474E-2,-2.3009828E-3,-3.3972625E-2,-1.4185478E-2,-2.5859986E-2,-4.4515077E-2,-2.9098839E-2,-1.9227052E-3,-6.3111045E-4,-2.272343E-3,-4.0037642E-4,1.1588614E-1,-6.420247E-4,-1.819535E-2,-1.3044717E-2,-1.125006E-4,7.1985996E-3,2.1686513E-2,3.4360108E-1,-1.4211911E-3,2.0725012E-2,3.611628E-3,-4.208926E-2,-3.6028836E-2,7.597916E-5,-1.9396989E-2,-6.3393236E-4,-2.0607323E-3,-7.030596E-4,-8.767291E-4,-2.244151E-3,-1.9304603E-2,-3.6290742E-2,-5.416622E-4,1.231083E-2,-3.448601E-2,-1.4103638E-2,-1.800154E-2,-6.508766E-4,1.4801184E-2,1.8179731E-2,-2.216058E-3,-1.7643979E-2,-3.8036183E-4,-3.725321E-2,-5.998866E-4,-2.749644E-2,-3.1743072E-2,-1.3705976E-2,-2.108011E-3,-8.9554145E-4,-5.998476E-4,-2.1520255E-3,-1.8738575E-2,-6.6601177E-4,-6.040481E-4,-1.5868144E-3,-1.114901E-3,-2.083974E-4,-1.9152968E-3,-5.1024073E-4,-1.6031376E-3,-3.4493775E-4,-1.7418619E-3,-3.294521E-4,-1.46225365E-2,-6.6132424E-3,-1.460466E-3,-6.0014246E-4,-9.6430414E-4,-5.730424E-4,-2.6471262E-5,-4.2323532E-4],"categories":[],"categories_nodes":[],"categories_segments":[],"categories_sizes":[],"default_left":[0,0,0,0,0,0,0,0,0,0,0,0,0,0,0,0,0,0,0,0,0,0,0,0,0,0,0,0,0,0,0,0,0,0,0,0,0,0,0,0,0,0,0,0,0,0,0,0,0,0,0,0,0,0,0,0,0,0,0,0,0,0,0,0,0,0,0,0,0,0,0,0,0,0,0,0,0,0,0,0,0,0,0,0,0,0,0,0,0,0,0,0,0,0,0,0,0,0,0,0,0,0,0,0,0],"id":8,"left_children":[1,3,5,7,9,11,13,15,17,-1,-1,19,21,23,25,-1,27,29,31,33,35,-1,37,39,41,43,45,-1,-1,47,49,51,53,-1,55,57,59,61,63,-1,-1,-1,-1,65,-1,67,69,-1,-1,-1,71,-1,-1,-1,73,75,-1,77,-1,-1,-1,-1,-1,79,81,-1,-1,83,85,87,-1,-1,-1,-1,89,-1,91,-1,93,95,97,-1,-1,-1,-1,99,-1,-1,-1,-1,-1,-1,-1,-1,-1,-1,-1,101,103,-1,-1,-1,-1,-1,-1],"loss_changes":[3.2244656E0,1.7535124E1,2.3409408E-1,4.462677E0,3.0474365E-4,9.628236E-3,2.8408587E-2,3.4260858E-2,1.7283726E0,0E0,0E0,2.483666E-2,1.3088882E-3,9.24255E-3,1.1824489E-2,0E0,3.898172E-2,1.4829636E-1,5.9313625E-1,2.1634996E-4,1.3083238E-3,0E0,6.820351E-3,1.9252906E-3,7.1519613E-4,8.7721E-2,2.9436946E-3,0E0,0E0,1.6522832E-2,1.974392E-1,1.8352497E-1,2.2320243E-2,0E0,1.4413577E-3,1.7027557E-4,2.1379683E-3,2.156347E-4,3.1031407E-3,0E0,0E0,0E0,0E0,1.01759695E-1,0E0,7.7123977E-3,1.2665987E-4,0E0,0E0,0E0,3.663063E-3,0E0,0E0,0E0,9.09511E-5,3.429819E-4,0E0,2.694046E-4,0E0,0E0,0E0,0E0,0E0,1.3058884E-3,2.4812892E-3,0E0,0E0,4.1008294E-3,1.13502145E-4,5.924071E-4,0E0,0E0,0E0,0E0,9.521708E-5,0E0,9.316206E-5,0E0,1.5502842E-4,3.1527085E-4,2.6815105E-5,0E0,0E0,0E0,0E0,4.957421E-4,0E0,0E0,0E0,0E0,0E0,0E0,0E0,0E0,0E0,0E0,0E0,1.4880206E-5,4.057445E-5,0E0,0E0,0E0,0E0,0E0,0E0],"parents":[2147483647,0,0,1,1,2,2,3,3,4,4,5,5,6,6,7,7,8,8,11,11,12,12,13,13,14,14,16,16,17,17,18,18,19,19,20,20,22,22,23,23,24,24,25,25,26,26,29,29,30,30,31,31,32,32,34,34,35,35,36,36,37,37,38,38,43,43,45,45,46,46,50,50,54,54,55,55,57,57,63,63,64,64,67,67,68,68,69,69,74,74,76,76,78,78,79,79,80,80,85,85,97,97,98,98],"right_children":[2,4,6,8,10,12,14,16,18,-1,-1,20,22,24,26,-1,28,30,32,34,36,-1,38,40,42,44,46,-1,-1,48,50,52,54,-1,56,58,60,62,64,-1,-1,-1,-1,66,-1,68,70,-1,-1,-1,72,-1,-1,-1,74,76,-1,78,-1,-1,-1,-1,-1,80,82,-1,-1,84,86,88,-1,-1,-1,-1,90,-1,92,-1,94,96,98,-1,-1,-1,-1,100,-1,-1,-1,-1,-1,-1,-1,-1,-1,-1,-1,102,104,-1,-1,-1,-1,-1,-1],"split_conditions":[-6.432542E-1,-5.67E-1,-1.272137E0,-4.1062462E-1,-2.0499468E0,-1.4867683E-1,-1.8907913E0,-4.3437406E-1,1.4404309E0,-1.4211911E-3,-6.501615E-4,-1.466825E0,-6.623391E-1,6.814337E-1,-6.1847204E-1,-6.4162473E-4,8.001438E-1,-1.2959808E0,-1.7388953E-1,-1.5101128E0,-1.9910224E-1,-2.31027E-3,-1.3978941E0,-2.0499468E0,1.5166337E0,-5.67E-1,-1.135814E0,9.143139E-3,-4.98407E-4,-1.6150581E0,-8.6186534E-1,-1.5393295E0,-9.222997E-1,-2.3009828E-3,1.7236432E0,-1.4283078E0,-1.1240993E0,-9.222997E-1,4.3121547E-1,-1.9227052E-3,-6.3111045E-4,-2.272343E-3,-4.0037642E-4,5.004156E-2,-6.420247E-4,-1.3632318E0,-1.8716391E0,-1.125006E-4,7.1985996E-3,2.1686513E-2,-2.3308851E-1,-1.4211911E-3,2.0725012E-2,3.611628E-3,-1.1240993E0,-1.7983863E0,7.597916E-5,-1.4516841E0,-6.3393236E-4,-2.0607323E-3,-7.030596E-4,-8.767291E-4,-2.244151E-3,1.1603538E0,-1.310547E0,-5.416622E-4,1.231083E-2,5.0235003E-1,-8.4223473E-1,7.3124063E-1,-6.508766E-4,1.4801184E-2,1.8179731E-2,-2.216058E-3,-1.2674525E0,-3.8036183E-4,1.012821E0,-5.998866E-4,2.7144548E-1,8.001438E-1,1.3277812E0,-2.108011E-3,-8.9554145E-4,-5.998476E-4,-2.1520255E-3,-1.2352631E0,-6.6601177E-4,-6.040481E-4,-1.5868144E-3,-1.114901E-3,-2.083974E-4,-1.9152968E-3,-5.1024073E-4,-1.6031376E-3,-3.4493775E-4,-1.7418619E-3,-3.294521E-4,-2.953852E-1,1.3400911E0,-1.460466E-3,-6.0014246E-4,-9.6430414E-4,-5.730424E-4,-2.6471262E-5,-4.2323532E-4],"split_indices":[0,11,11,12,4,10,4,12,2,0,0,11,4,2,0,0,3,11,10,11,10,0,11,4,7,11,11,0,0,0,11,0,3,0,8,11,4,3,10,0,0,0,0,12,0,4,4,0,0,0,2,0,0,0,4,8,0,11,0,0,0,0,0,0,11,0,0,2,4,2,0,0,0,0,0,0,4,0,4,3,0,0,0,0,0,11,0,0,0,0,0,0,0,0,0,0,0,4,0,0,0,0,0,0,0],"split_type":[0,0,0,0,0,0,0,0,0,0,0,0,0,0,0,0,0,0,0,0,0,0,0,0,0,0,0,0,0,0,0,0,0,0,0,0,0,0,0,0,0,0,0,0,0,0,0,0,0,0,0,0,0,0,0,0,0,0,0,0,0,0,0,0,0,0,0,0,0,0,0,0,0,0,0,0,0,0,0,0,0,0,0,0,0,0,0,0,0,0,0,0,0,0,0,0,0,0,0,0,0,0,0,0,0],"sum_hessian":[4.671E3,1.348E3,3.323E3,2.49E2,1.099E3,4.15E2,2.908E3,4.5E1,2.04E2,1E0,1.098E3,1.44E2,2.71E2,5.9E1,2.849E3,4.2E1,3E0,1.83E2,2.1E1,7.8E1,6.6E1,1.18E2,1.53E2,2.2E1,3.7E1,4.9E1,2.8E3,1E0,2E0,3E0,1.8E2,5E0,1.6E1,6E1,1.8E1,5.2E1,1.4E1,1E2,5.3E1,3E0,1.9E1,3.6E1,1E0,5E0,4.4E1,1.22E2,2.678E3,1E0,2E0,6.4E1,1.16E2,1E0,4E0,1E0,1.5E1,1.7E1,1E0,9E0,4.3E1,5E0,9E0,2E0,9.8E1,2.4E1,2.9E1,3E0,2E0,2.3E1,9.9E1,1.1E1,2.667E3,3.9E1,7.7E1,1.3E1,2E0,1E0,1.6E1,6E0,3E0,6E0,1.8E1,2.1E1,8E0,7E0,1.6E1,1.1E1,8.8E1,9E0,2E0,1E0,1E0,1.5E1,1E0,2E0,1E0,5E0,1E0,1.5E1,3E0,3E0,8E0,4E0,1.1E1,1E0,2E0],"tree_param":{"num_deleted":"0","num_feature":"14","num_nodes":"105","size_leaf_vector":"1"}},{"base_weights":[9.751335E-5,3.9321244E-2,-1.5820932E-2,2.6670584E-1,-1.2392819E-2,-3.695618E-2,-1.2793058E-2,-4.2863954E-3,3.2621285E-1,-1.3856613E-3,-6.176831E-4,-2.2155433E-3,-3.364468E-2,-3.3397425E-2,-1.2354793E-2,-6.102896E-4,8.19187E-2,3.556625E-1,6.507873E-2,-1.9680327E-2,-3.8937215E-2,-1.6891364E-2,-4.2509057E-2,2.4549412E-3,-1.2614747E-2,8.91456E-3,-4.8179342E-4,1.0328282E-1,3.5927495E-1,3.2236245E-1,-2.955545E-2,-2.8754275E-2,-1.4703039E-2,-2.1322458E-3,-3.1394746E-2,-1.8506037E-3,-6.0113275E-4,-2.1617967E-3,-3.9036694E-4,1.12053365E-1,-6.1063684E-4,-1.7330123E-2,-1.2393543E-2,-1.0968801E-4,6.9586462E-3,2.0618869E-2,3.2670292E-1,-1.3856613E-3,1.9896012E-2,3.521337E-3,-4.0206008E-2,-3.0562704E-2,-3.4964606E-3,-6.029561E-4,-2.3172148E-2,-2.162473E-2,-3.8492694E-2,-5.213498E-4,1.190047E-2,-3.2876372E-2,-1.3425723E-2,-1.7284034E-2,-6.1834505E-4,1.4079628E-2,1.7282397E-2,-2.1131698E-3,-1.7202878E-2,-2.0589821E-2,-3.6503498E-2,-3.363143E-4,7.4079726E-5,-1.8957409E-3,-5.5307307E-4,-2.9876951E-2,-1.308805E-2,-2.1741812E-3,-1.8672451E-2,-5.736043E-4,-4.1015074E-2,-1.7973363E-2,-1.2661708E-2,-5.7686586E-4,-1.5339206E-3,-1.0870284E-3,-2.0318749E-4,-2.5607316E-2,-5.652221E-4,-1.8844752E-3,-4.974847E-4,-9.992771E-3,-1.783614E-3,-1.1198227E-3,-1.0524721E-2,-1.142339E-3,-4.9643836E-4,-2.105473E-3,-5.8762205E-4,-1.4056985E-3,-5.734694E-4,-6.072655E-4,-1.7780988E-2,-1.3701426E-3,-3.7085274E-4,-7.632116E-4,-6.951932E-5,5.6860968E-6,-5.6207663E-4,-1.4514317E-3,-4.862866E-4],"categories":[],"categories_nodes":[],"categories_segments":[],"categories_sizes":[],"default_left":[0,0,0,0,0,0,0,0,0,0,0,0,0,0,0,0,0,0,0,0,0,0,0,0,0,0,0,0,0,0,0,0,0,0,0,0,0,0,0,0,0,0,0,0,0,0,0,0,0,0,0,0,0,0,0,0,0,0,0,0,0,0,0,0,0,0,0,0,0,0,0,0,0,0,0,0,0,0,0,0,0,0,0,0,0,0,0,0,0,0,0,0,0,0,0,0,0,0,0,0,0,0,0,0,0,0,0,0,0],"id":9,"left_children":[1,3,5,7,9,11,13,15,17,-1,-1,-1,19,21,23,-1,25,27,29,31,33,35,37,39,41,-1,-1,43,45,47,49,51,53,-1,55,-1,-1,-1,-1,57,-1,59,61,-1,-1,-1,63,-1,-1,-1,65,67,69,-1,71,73,75,-1,-1,77,79,81,-1,-1,-1,-1,83,85,87,-1,-1,-1,-1,89,91,-1,93,-1,95,97,99,-1,-1,-1,-1,101,-1,-1,-1,103,-1,-1,105,-1,-1,-1,-1,-1,-1,-1,107,-1,-1,-1,-1,-1,-1,-1,-1],"loss_changes":[2.9177291E0,1.5866171E1,2.1224612E-1,4.032881E0,3.1752884E-4,8.640826E-3,2.5856167E-2,3.2403722E-2,1.5533714E0,0E0,0E0,0E0,2.0740598E-2,8.3057955E-3,1.1003077E-2,0E0,3.7011363E-2,1.3064575E-1,5.451799E-1,3.280647E-3,4.533887E-3,1.8081404E-3,6.209463E-4,8.174619E-2,2.7068257E-3,0E0,0E0,1.5447579E-2,1.7834091E-1,1.6973335E-1,2.0934299E-2,1.1720937E-3,9.521041E-4,0E0,4.2299405E-3,0E0,0E0,0E0,0E0,9.504457E-2,0E0,7.02456E-3,1.3530254E-4,0E0,0E0,0E0,2.658844E-3,0E0,0E0,0E0,3.0169263E-5,7.888172E-4,5.8200367E-5,0E0,1.723133E-3,1.9337069E-3,3.2438338E-3,0E0,0E0,3.7103463E-3,1.19874254E-4,5.697375E-4,0E0,0E0,0E0,0E0,9.051553E-5,2.69596E-4,9.7397715E-5,0E0,0E0,0E0,0E0,1.4873007E-3,1.9377237E-4,0E0,1.3814983E-4,0E0,4.9529597E-5,4.6900078E-4,1.9324012E-5,0E0,0E0,0E0,0E0,2.5379937E-5,0E0,0E0,0E0,2.0551257E-4,0E0,0E0,1.2329046E-4,0E0,0E0,0E0,0E0,0E0,0E0,0E0,2.6129128E-4,0E0,0E0,0E0,0E0,0E0,0E0,0E0,0E0],"parents":[2147483647,0,0,1,1,2,2,3,3,4,4,5,5,6,6,7,7,8,8,12,12,13,13,14,14,16,16,17,17,18,18,19,19,20,20,21,21,22,22,23,23,24,24,27,27,28,28,29,29,30,30,31,31,32,32,34,34,39,39,41,41,42,42,46,46,50,50,51,51,52,52,54,54,55,55,56,56,59,59,60,60,61,61,66,66,67,67,68,68,73,73,74,74,76,76,78,78,79,79,80,80,85,85,89,89,92,92,100,100],"right_children":[2,4,6,8,10,12,14,16,18,-1,-1,-1,20,22,24,-1,26,28,30,32,34,36,38,40,42,-1,-1,44,46,48,50,52,54,-1,56,-1,-1,-1,-1,58,-1,60,62,-1,-1,-1,64,-1,-1,-1,66,68,70,-1,72,74,76,-1,-1,78,80,82,-1,-1,-1,-1,84,86,88,-1,-1,-1,-1,90,92,-1,94,-1,96,98,100,-1,-1,-1,-1,102,-1,-1,-1,104,-1,-1,106,-1,-1,-1,-1,-1,-1,-1,108,-1,-1,-1,-1,-1,-1,-1,-1],"split_conditions":[-6.432542E-1,-5.67E-1,-1.272137E0,-4.1062462E-1,-2.0499468E0,-1.5101128E0,-1.8907913E0,-4.3437406E-1,1.4404309E0,-1.3856613E-3,-6.176831E-4,-2.2155433E-3,-1.7388953E-1,6.814337E-1,-6.1847204E-1,-6.102896E-4,8.001438E-1,-1.2959808E0,-1.7388953E-1,-1.4283078E0,-2.3495318E-1,-2.0499468E0,1.5166337E0,-5.67E-1,-1.135814E0,8.91456E-3,-4.8179342E-4,-1.6150581E0,-8.6186534E-1,-1.5393295E0,-9.222997E-1,1.7236432E0,-1.9910224E-1,-2.1322458E-3,4.3121547E-1,-1.8506037E-3,-6.0113275E-4,-2.1617967E-3,-3.9036694E-4,5.004156E-2,-6.1063684E-4,-1.3632318E0,-1.8716391E0,-1.0968801E-4,6.9586462E-3,2.0618869E-2,-2.3308851E-1,-1.3856613E-3,1.9896012E-2,3.521337E-3,-1.1240993E0,-4.9089968E-1,1.2489935E0,-6.029561E-4,-1.1240993E0,-1.4174626E0,-1.323261E0,-5.213498E-4,1.190047E-2,5.0235003E-1,-8.4223473E-1,7.3124063E-1,-6.1834505E-4,1.4079628E-2,1.7282397E-2,-2.1131698E-3,-1.2674525E0,-1.466825E0,1.012821E0,-3.363143E-4,7.4079726E-5,-1.8957409E-3,-5.5307307E-4,-1.6037714E0,-7.555261E-2,-2.1741812E-3,-1.2959808E0,-5.736043E-4,1.2866297E-1,-1.2352631E0,1.9913901E0,-5.7686586E-4,-1.5339206E-3,-1.0870284E-3,-2.0318749E-4,2.0841928E0,-5.652221E-4,-1.8844752E-3,-4.974847E-4,1.0188732E0,-1.783614E-3,-1.1198227E-3,-1.4074627E0,-1.142339E-3,-4.9643836E-4,-2.105473E-3,-5.8762205E-4,-1.4056985E-3,-5.734694E-4,-6.072655E-4,-5.70979E-1,-1.3701426E-3,-3.7085274E-4,-7.632116E-4,-6.951932E-5,5.6860968E-6,-5.6207663E-4,-1.4514317E-3,-4.862866E-4],"split_indices":[0,11,11,12,4,11,4,12,2,0,0,0,10,2,0,0,3,11,10,11,4,4,7,11,11,0,0,0,11,0,3,8,10,0,10,0,0,0,0,12,0,4,4,0,0,0,2,0,0,0,4,9,0,0,4,11,11,0,0,2,4,2,0,0,0,0,0,11,4,0,0,0,0,8,0,0,11,0,10,11,4,0,0,0,0,7,0,0,0,1,0,0,11,0,0,0,0,0,0,0,9,0,0,0,0,0,0,0,0],"split_type":[0,0,0,0,0,0,0,0,0,0,0,0,0,0,0,0,0,0,0,0,0,0,0,0,0,0,0,0,0,0,0,0,0,0,0,0,0,0,0,0,0,0,0,0,0,0,0,0,0,0,0,0,0,0,0,0,0,0,0,0,0,0,0,0,0,0,0,0,0,0,0,0,0,0,0,0,0,0,0,0,0,0,0,0,0,0,0,0,0,0,0,0,0,0,0,0,0,0,0,0,0,0,0,0,0,0,0,0,0],"sum_hessian":[4.671E3,1.348E3,3.323E3,2.49E2,1.099E3,4.15E2,2.908E3,4.5E1,2.04E2,1E0,1.098E3,1.25E2,2.9E2,5.9E1,2.849E3,4.2E1,3E0,1.83E2,2.1E1,8.1E1,2.09E2,2.2E1,3.7E1,4.9E1,2.8E3,1E0,2E0,3E0,1.8E2,5E0,1.6E1,2.7E1,5.4E1,1.37E2,7.2E1,3E0,1.9E1,3.6E1,1E0,5E0,4.4E1,1.22E2,2.678E3,1E0,2E0,6.4E1,1.16E2,1E0,4E0,1E0,1.5E1,2.5E1,2E0,4.3E1,1.1E1,3.2E1,4E1,3E0,2E0,2.3E1,9.9E1,1.1E1,2.667E3,3.9E1,7.7E1,1.3E1,2E0,1.1E1,1.4E1,1E0,1E0,4E0,7E0,1.5E1,1.7E1,3.1E1,9E0,7E0,1.6E1,1.1E1,8.8E1,9E0,2E0,1E0,1E0,6E0,5E0,1.3E1,1E0,4E0,1.1E1,2E0,1.5E1,5E0,4E0,1.5E1,1E0,3E0,8E0,8.3E1,5E0,5E0,1E0,2E0,2E0,1E0,1.4E1,1E0,4E0],"tree_param":{"num_deleted":"0","num_feature":"14","num_nodes":"109","size_leaf_vector":"1"}},{"base_weights":[1.0506689E-4,3.7416913E-2,-1.5037469E-2,2.5371167E-1,-1.1774999E-2,-3.5157543E-2,-1.2155038E-2,-3.902023E-3,3.1028005E-1,-1.3510197E-3,-5.8682705E-4,-2.8720599E-2,-3.8459748E-2,-3.1810954E-2,-1.1736965E-2,-5.8048475E-4,7.993095E-2,3.381991E-1,6.2671535E-2,-3.95621E-2,-1.5508671E-2,-2.0893458E-3,-3.563901E-2,-1.6153395E-2,-4.0450767E-2,2.5475645E-3,-1.1987764E-2,8.691696E-3,-4.657337E-4,-1.0694582E-4,3.4007058E-1,3.093294E-1,-2.8070737E-2,-2.023548E-3,-2.4432264E-2,-1.2880712E-2,-2.3760214E-2,-3.751423E-2,-1.420728E-2,-1.781206E-3,-5.72579E-4,-2.0566282E-3,-3.806078E-4,1.08347215E-1,-5.807834E-4,-1.6526956E-2,-1.1774884E-2,3.8639587E-1,3.106358E-1,-1.3510197E-3,1.9100172E-2,3.4333037E-3,-1.9204209E-3,-3.6158142E-4,-1.3046883E-3,-1.7800352E-2,-5.734935E-4,-1.8959729E-3,-6.444323E-4,-3.161063E-2,-2.0748505E-3,2.7496648E-5,-7.692377E-4,-5.017993E-4,1.1503787E-2,-3.1368665E-2,-1.27996765E-2,-1.6595732E-2,-5.8743934E-4,6.726692E-3,1.9603787E-2,1.368803E-2,1.661603E-2,-5.405302E-4,-2.5582321E-2,-3.4850072E-2,-1.1604466E-2,-5.4850907E-4,-3.9122734E-2,-1.7239625E-2,-1.2057216E-2,-5.50907E-4,-1.4827899E-3,-1.4868838E-3,-3.2790648E-4,-1.966056E-3,-2.696587E-2,-6.2359835E-4,-9.4923846E-5,-2.006779E-3,-5.729314E-4,-1.3529848E-3,-5.4798176E-4,-5.7726365E-4,-1.7214889E-2,-3.4138553E-2,-6.718897E-3,-1.4151458E-3,-4.6683504E-4,-1.813453E-3,-5.452335E-5,-4.5402846E-4,-2.715718E-5],"categories":[],"categories_nodes":[],"categories_segments":[],"categories_sizes":[],"default_left":[0,0,0,0,0,0,0,0,0,0,0,0,0,0,0,0,0,0,0,0,0,0,0,0,0,0,0,0,0,0,0,0,0,0,0,0,0,0,0,0,0,0,0,0,0,0,0,0,0,0,0,0,0,0,0,0,0,0,0,0,0,0,0,0,0,0,0,0,0,0,0,0,0,0,0,0,0,0,0,0,0,0,0,0,0,0,0,0,0,0,0,0,0,0,0,0,0,0,0,0,0,0,0],"id":10,"left_children":[1,3,5,7,9,11,13,15,17,-1,-1,19,21,23,25,-1,27,29,31,33,35,-1,37,39,41,43,45,-1,-1,-1,47,49,51,-1,53,55,57,59,61,-1,-1,-1,-1,63,-1,65,67,69,71,-1,-1,-1,-1,-1,-1,73,-1,-1,-1,75,-1,-1,-1,-1,-1,77,79,81,-1,-1,-1,-1,-1,-1,83,85,87,-1,89,91,93,-1,-1,-1,-1,-1,95,-1,-1,-1,-1,-1,-1,-1,97,99,101,-1,-1,-1,-1,-1,-1],"loss_changes":[2.640224E0,1.4356282E1,1.9234705E-1,3.6444092E0,3.2782555E-4,7.737994E-3,2.3531675E-2,3.0651199E-2,1.3959694E0,0E0,0E0,2.0155825E-2,1.0634661E-3,7.463284E-3,1.0240853E-2,0E0,3.5140924E-2,1.1792183E-1,5.0109357E-1,9.75132E-5,1.146825E-3,0E0,5.656138E-3,1.697646E-3,5.376786E-4,7.618178E-2,2.512008E-3,0E0,0E0,0E0,1.2950516E-1,1.5698522E-1,1.9637937E-2,0E0,1.1351891E-5,1.636967E-4,1.8202672E-3,2.0035654E-3,2.5172764E-4,0E0,0E0,0E0,0E0,8.877271E-2,0E0,6.4027533E-3,1.4203787E-4,4.3099403E-2,2.5806427E-3,0E0,0E0,0E0,0E0,0E0,0E0,2.6737992E-4,0E0,0E0,0E0,3.5489127E-3,0E0,0E0,0E0,0E0,0E0,3.3669267E-3,1.2178533E-4,5.4737297E-4,0E0,0E0,0E0,0E0,0E0,0E0,1.2118532E-4,7.727146E-4,6.052188E-5,0E0,1.642853E-5,4.434744E-4,3.624987E-5,0E0,0E0,0E0,0E0,0E0,2.9655807E-3,0E0,0E0,0E0,0E0,0E0,0E0,0E0,2.5986542E-4,1.0869969E-3,9.716369E-5,0E0,0E0,0E0,0E0,0E0,0E0],"parents":[2147483647,0,0,1,1,2,2,3,3,4,4,5,5,6,6,7,7,8,8,11,11,12,12,13,13,14,14,16,16,17,17,18,18,19,19,20,20,22,22,23,23,24,24,25,25,26,26,30,30,31,31,32,32,34,34,35,35,36,36,37,37,38,38,43,43,45,45,46,46,47,47,48,48,55,55,59,59,65,65,66,66,67,67,74,74,75,75,76,76,78,78,79,79,80,80,86,86,94,94,95,95,96,96],"right_children":[2,4,6,8,10,12,14,16,18,-1,-1,20,22,24,26,-1,28,30,32,34,36,-1,38,40,42,44,46,-1,-1,-1,48,50,52,-1,54,56,58,60,62,-1,-1,-1,-1,64,-1,66,68,70,72,-1,-1,-1,-1,-1,-1,74,-1,-1,-1,76,-1,-1,-1,-1,-1,78,80,82,-1,-1,-1,-1,-1,-1,84,86,88,-1,90,92,94,-1,-1,-1,-1,-1,96,-1,-1,-1,-1,-1,-1,-1,98,100,102,-1,-1,-1,-1,-1,-1],"split_conditions":[-6.432542E-1,-5.67E-1,-1.272137E0,-4.1062462E-1,-2.0499468E0,-1.4867683E-1,-1.8907913E0,-4.3437406E-1,1.4404309E0,-1.3510197E-3,-5.8682705E-4,-1.466825E0,-6.623391E-1,6.814337E-1,-6.1847204E-1,-5.8048475E-4,8.001438E-1,-1.323261E0,-1.7388953E-1,-1.4857206E0,-1.9910224E-1,-2.0893458E-3,-1.310547E0,-2.0499468E0,1.5166337E0,-5.67E-1,-1.135814E0,8.691696E-3,-4.657337E-4,-1.0694582E-4,-8.6186534E-1,-1.5393295E0,-9.222997E-1,-2.023548E-3,9.350808E-1,-1.4283078E0,-1.1240993E0,1.7908838E-1,-8.753726E-1,-1.781206E-3,-5.72579E-4,-2.0566282E-3,-3.806078E-4,5.004156E-2,-5.807834E-4,-1.3632318E0,-1.8716391E0,-1.2959808E0,-9.695889E-2,-1.3510197E-3,1.9100172E-2,3.4333037E-3,-1.9204209E-3,-3.6158142E-4,-1.3046883E-3,-1.4516841E0,-5.734935E-4,-1.8959729E-3,-6.444323E-4,-1.3771505E0,-2.0748505E-3,2.7496648E-5,-7.692377E-4,-5.017993E-4,1.1503787E-2,5.0235003E-1,-8.4223473E-1,7.3124063E-1,-5.8743934E-4,6.726692E-3,1.9603787E-2,1.368803E-2,1.661603E-2,-5.405302E-4,2.7144548E-1,1.405279E-1,5.31486E-3,-5.4850907E-4,1.2866297E-1,-1.2352631E0,1.9913901E0,-5.50907E-4,-1.4827899E-3,-1.4868838E-3,-3.2790648E-4,-1.966056E-3,-1.4283078E0,-6.2359835E-4,-9.4923846E-5,-2.006779E-3,-5.729314E-4,-1.3529848E-3,-5.4798176E-4,-5.7726365E-4,-5.70979E-1,1.3453785E0,6.8582773E-1,-1.4151458E-3,-4.6683504E-4,-1.813453E-3,-5.452335E-5,-4.5402846E-4,-2.715718E-5],"split_indices":[0,11,11,12,4,10,4,12,2,0,0,11,4,2,0,0,3,11,10,11,10,0,11,4,7,11,11,0,0,0,11,0,3,0,1,11,4,10,5,0,0,0,0,12,0,4,4,11,2,0,0,0,0,0,0,11,0,0,0,11,0,0,0,0,0,2,4,2,0,0,0,0,0,0,4,4,12,0,10,11,4,0,0,0,0,0,11,0,0,0,0,0,0,0,9,0,4,0,0,0,0,0,0],"split_type":[0,0,0,0,0,0,0,0,0,0,0,0,0,0,0,0,0,0,0,0,0,0,0,0,0,0,0,0,0,0,0,0,0,0,0,0,0,0,0,0,0,0,0,0,0,0,0,0,0,0,0,0,0,0,0,0,0,0,0,0,0,0,0,0,0,0,0,0,0,0,0,0,0,0,0,0,0,0,0,0,0,0,0,0,0,0,0,0,0,0,0,0,0,0,0,0,0,0,0,0,0,0,0],"sum_hessian":[4.671E3,1.348E3,3.323E3,2.49E2,1.099E3,4.15E2,2.908E3,4.5E1,2.04E2,1E0,1.098E3,1.44E2,2.71E2,5.9E1,2.849E3,4.2E1,3E0,1.83E2,2.1E1,7.8E1,6.6E1,1.18E2,1.53E2,2.2E1,3.7E1,4.9E1,2.8E3,1E0,2E0,1E0,1.82E2,5E0,1.6E1,7.2E1,6E0,5.2E1,1.4E1,1.4E2,1.3E1,3E0,1.9E1,3.6E1,1E0,5E0,4.4E1,1.22E2,2.678E3,6.6E1,1.16E2,1E0,4E0,1E0,1.5E1,1E0,5E0,9E0,4.3E1,5E0,9E0,6E1,8E1,1E0,1.2E1,3E0,2E0,2.3E1,9.9E1,1.1E1,2.667E3,2E0,6.4E1,4.8E1,6.8E1,6E0,3E0,5.1E1,9E0,7E0,1.6E1,1.1E1,8.8E1,9E0,2E0,2E0,1E0,3E1,2.1E1,8E0,1E0,1.5E1,1E0,3E0,8E0,8.3E1,5E0,1.5E1,6E0,1E0,4E0,1.4E1,1E0,4E0,2E0],"tree_param":{"num_deleted":"0","num_feature":"14","num_nodes":"103","size_leaf_vector":"1"}},{"base_weights":[1.1221165E-4,3.560648E-2,-1.4292687E-2,2.4135983E-1,-1.1188012E-2,-3.3445574E-2,-1.1548825E-2,-3.5407147E-3,2.9513577E-1,-1.3172443E-3,-5.5751245E-4,-2.0049273E-3,-3.0449975E-2,-2.7942931E-2,-1.1093214E-2,-5.5213546E-4,7.79909E-2,3.2159638E-1,6.041351E-2,-1.7887313E-2,-3.5210397E-2,-1.4761541E-2,-3.8889803E-2,2.6286107E-3,-1.1335758E-2,8.474404E-3,-4.5020916E-4,-1.0427218E-4,3.2337654E-1,2.9682112E-1,-2.6578208E-2,-2.6151044E-2,-1.3355099E-2,-1.9270082E-3,-2.843344E-2,-1.7737137E-3,-5.5879646E-4,-1.9738146E-3,-3.7109267E-4,1.04763515E-1,-5.523895E-4,-1.51411425E-2,-5.5807916E-4,3.6746907E-1,2.9536304E-1,-1.3172443E-3,1.8336166E-2,3.3474711E-3,-3.660802E-2,-2.7859751E-2,-2.6252319E-3,-5.4547045E-4,-2.1209702E-2,-1.9627215E-2,-3.482788E-2,-4.8298188E-4,1.1120328E-2,-2.907332E-2,-1.2203295E-2,6.502468E-3,1.8638676E-2,1.2236725E-2,1.546332E-2,-1.9258958E-3,-1.5492526E-2,-1.8713923E-2,-3.3319097E-2,-3.197088E-4,1.228164E-4,-1.7440723E-3,-5.006824E-4,-2.716653E-2,-1.18352E-2,-1.9683687E-3,-1.6818708E-2,-5.1380746E-4,-1.819762E-3,-1.6536057E-2,-1.1481987E-2,-1.0118423E-3,-1.5009726E-4,-1.1590656E-3,-5.191491E-4,-3.4406375E-2,-4.5243028E-4,-9.385572E-3,-1.6155693E-3,-1.0169602E-3,-9.500999E-3,-1.0300496E-3,-4.4581117E-4,-1.3022478E-3,-5.23627E-4,-5.4874405E-4,-1.666781E-2,-7.3017646E-4,-1.8244945E-3,-7.1629026E-4,-6.5840715E-5,6.2229115E-6,-5.0754973E-4,-1.3797672E-3,-4.4816165E-4],"categories":[],"categories_nodes":[],"categories_segments":[],"categories_sizes":[],"default_left":[0,0,0,0,0,0,0,0,0,0,0,0,0,0,0,0,0,0,0,0,0,0,0,0,0,0,0,0,0,0,0,0,0,0,0,0,0,0,0,0,0,0,0,0,0,0,0,0,0,0,0,0,0,0,0,0,0,0,0,0,0,0,0,0,0,0,0,0,0,0,0,0,0,0,0,0,0,0,0,0,0,0,0,0,0,0,0,0,0,0,0,0,0,0,0,0,0,0,0,0,0,0,0],"id":11,"left_children":[1,3,5,7,9,11,13,15,17,-1,-1,-1,19,21,23,-1,25,27,29,31,33,35,37,39,41,-1,-1,-1,43,45,47,49,51,-1,53,-1,-1,-1,-1,55,-1,57,-1,59,61,-1,-1,-1,63,65,67,-1,69,71,73,-1,-1,75,77,-1,-1,-1,-1,-1,79,81,83,-1,-1,-1,-1,85,87,-1,89,-1,-1,91,93,-1,-1,-1,-1,95,-1,97,-1,-1,99,-1,-1,-1,-1,-1,101,-1,-1,-1,-1,-1,-1,-1,-1],"loss_changes":[2.389262E0,1.2991039E1,1.7429954E-1,3.2934828E0,3.3584237E-4,7.0697367E-3,2.1418303E-2,2.8997116E-2,1.2538052E0,0E0,0E0,0E0,1.6773015E-2,1.0680933E-2,9.455055E-3,0E0,3.3365317E-2,1.06695175E-1,4.6033007E-1,2.7218945E-3,3.6429465E-3,2.3514526E-3,4.8214942E-4,7.0999295E-2,1.675576E-3,0E0,0E0,0E0,1.1750221E-1,1.4520139E-1,1.8397987E-2,1.052428E-3,8.251602E-4,0E0,3.4271218E-3,0E0,0E0,0E0,0E0,8.291488E-2,0E0,4.5159515E-3,0E0,3.5899162E-2,6.6690445E-3,0E0,0E0,0E0,4.8514456E-5,6.746538E-4,7.316253E-5,0E0,1.4875443E-3,1.6171122E-3,2.689749E-3,0E0,0E0,2.378624E-3,1.2265891E-4,0E0,0E0,0E0,0E0,0E0,1.17028016E-4,2.0591961E-4,8.450076E-5,0E0,0E0,0E0,0E0,1.1604261E-3,1.6405829E-4,0E0,1.15211355E-4,0E0,0E0,4.191317E-4,5.1121227E-5,0E0,0E0,0E0,0E0,4.4751912E-5,0E0,1.8044328E-4,0E0,0E0,1.01367244E-4,0E0,0E0,0E0,0E0,0E0,2.5780848E-4,0E0,0E0,0E0,0E0,0E0,0E0,0E0,0E0],"parents":[2147483647,0,0,1,1,2,2,3,3,4,4,5,5,6,6,7,7,8,8,12,12,13,13,14,14,16,16,17,17,18,18,19,19,20,20,21,21,22,22,23,23,24,24,28,28,29,29,30,30,31,31,32,32,34,34,39,39,41,41,43,43,44,44,48,48,49,49,50,50,52,52,53,53,54,54,57,57,58,58,64,64,65,65,66,66,71,71,72,72,74,74,77,77,78,78,83,83,85,85,88,88,94,94],"right_children":[2,4,6,8,10,12,14,16,18,-1,-1,-1,20,22,24,-1,26,28,30,32,34,36,38,40,42,-1,-1,-1,44,46,48,50,52,-1,54,-1,-1,-1,-1,56,-1,58,-1,60,62,-1,-1,-1,64,66,68,-1,70,72,74,-1,-1,76,78,-1,-1,-1,-1,-1,80,82,84,-1,-1,-1,-1,86,88,-1,90,-1,-1,92,94,-1,-1,-1,-1,96,-1,98,-1,-1,100,-1,-1,-1,-1,-1,102,-1,-1,-1,-1,-1,-1,-1,-1],"split_conditions":[-6.432542E-1,-5.67E-1,-1.272137E0,-4.1062462E-1,-2.0499468E0,-1.5101128E0,-1.8458886E0,-4.3437406E-1,1.4404309E0,-1.3172443E-3,-5.5751245E-4,-2.0049273E-3,-1.7388953E-1,7.3124063E-1,-6.1847204E-1,-5.5213546E-4,8.001438E-1,-1.323261E0,-1.7388953E-1,-1.4283078E0,-2.3495318E-1,-2.0499468E0,2.0841928E0,-5.67E-1,-1.135814E0,8.474404E-3,-4.5020916E-4,-1.0427218E-4,-8.6186534E-1,-1.5393295E0,-9.222997E-1,1.7236432E0,-1.9910224E-1,-1.9270082E-3,4.3121547E-1,-1.7737137E-3,-5.5879646E-4,-1.9738146E-3,-3.7109267E-4,5.004156E-2,-5.523895E-4,-1.3632318E0,-5.5807916E-4,-1.2959808E0,4.8242205E-1,-1.3172443E-3,1.8336166E-2,3.3474711E-3,-1.1240993E0,-4.9089968E-1,1.2489935E0,-5.4547045E-4,-1.1240993E0,-1.4174626E0,-1.323261E0,-4.8298188E-4,1.1120328E-2,5.0235003E-1,-8.4223473E-1,6.502468E-3,1.8638676E-2,1.2236725E-2,1.546332E-2,-1.9258958E-3,-1.2674525E0,-1.466825E0,1.012821E0,-3.197088E-4,1.228164E-4,-1.7440723E-3,-5.006824E-4,-1.6037714E0,-7.555261E-2,-1.9683687E-3,-1.2959808E0,-5.1380746E-4,-1.819762E-3,-1.2352631E0,1.9913901E0,-1.0118423E-3,-1.5009726E-4,-1.1590656E-3,-5.191491E-4,5.061485E-1,-4.5243028E-4,1.0188732E0,-1.6155693E-3,-1.0169602E-3,-1.4074627E0,-1.0300496E-3,-4.4581117E-4,-1.3022478E-3,-5.23627E-4,-5.4874405E-4,-5.70979E-1,-7.3017646E-4,-1.8244945E-3,-7.1629026E-4,-6.5840715E-5,6.2229115E-6,-5.0754973E-4,-1.3797672E-3,-4.4816165E-4],"split_indices":[0,11,11,12,4,11,4,12,2,0,0,0,10,2,0,0,3,11,10,11,4,4,7,11,11,0,0,0,11,0,3,8,10,0,10,0,0,0,0,12,0,4,0,11,12,0,0,0,4,9,0,0,4,11,11,0,0,2,4,0,0,0,0,0,0,11,4,0,0,0,0,8,0,0,11,0,0,11,4,0,0,0,0,3,0,1,0,0,11,0,0,0,0,0,9,0,0,0,0,0,0,0,0],"split_type":[0,0,0,0,0,0,0,0,0,0,0,0,0,0,0,0,0,0,0,0,0,0,0,0,0,0,0,0,0,0,0,0,0,0,0,0,0,0,0,0,0,0,0,0,0,0,0,0,0,0,0,0,0,0,0,0,0,0,0,0,0,0,0,0,0,0,0,0,0,0,0,0,0,0,0,0,0,0,0,0,0,0,0,0,0,0,0,0,0,0,0,0,0,0,0,0,0,0,0,0,0,0,0],"sum_hessian":[4.671E3,1.348E3,3.323E3,2.49E2,1.099E3,4.15E2,2.908E3,4.5E1,2.04E2,1E0,1.098E3,1.25E2,2.9E2,7.7E1,2.831E3,4.2E1,3E0,1.83E2,2.1E1,8.1E1,2.09E2,3.6E1,4.1E1,4.9E1,2.782E3,1E0,2E0,1E0,1.82E2,5E0,1.6E1,2.7E1,5.4E1,1.37E2,7.2E1,4E0,3.2E1,4E1,1E0,5E0,4.4E1,1.18E2,2.664E3,6.6E1,1.16E2,1E0,4E0,1E0,1.5E1,2.5E1,2E0,4.3E1,1.1E1,3.2E1,4E1,3E0,2E0,1.9E1,9.9E1,2E0,6.4E1,2.9E1,8.7E1,1.3E1,2E0,1.1E1,1.4E1,1E0,1E0,4E0,7E0,1.5E1,1.7E1,3.1E1,9E0,6E0,1.3E1,1.1E1,8.8E1,1E0,1E0,6E0,5E0,1.3E1,1E0,4E0,1.1E1,2E0,1.5E1,5E0,4E0,3E0,8E0,8.3E1,5E0,2E0,1.1E1,2E0,2E0,1E0,1.4E1,1E0,4E0],"tree_param":{"num_deleted":"0","num_feature":"14","num_nodes":"103","size_leaf_vector":"1"}},{"base_weights":[1.18364616E-4,3.388221E-2,-1.3584266E-2,2.2960179E-1,-1.0630316E-2,-3.1818885E-2,-1.0971964E-2,-3.201242E-3,2.807205E-1,-1.2843132E-3,-5.296622E-4,-1.9054763E-3,-2.8985757E-2,-2.6605751E-2,-1.0537499E-2,-5.2517065E-4,7.60974E-2,3.0580318E-1,5.817822E-2,-1.7086513E-2,-3.3494104E-2,-1.4086504E-2,-3.700114E-2,2.6988785E-3,-1.07715195E-2,8.262544E-3,-4.352022E-4,-1.01665406E-4,3.0749646E-1,2.8481653E-1,-2.5234023E-2,-2.5017858E-2,-1.2738073E-2,-1.8313559E-3,-2.7112594E-2,-1.7027652E-3,-5.3170323E-4,-1.8775308E-3,-3.618154E-4,1.0129822E-1,-5.253838E-4,-1.4439012E-2,-5.301857E-4,3.52823E-1,2.8251746E-1,-1.2843132E-3,1.7602718E-2,3.2637843E-3,-3.497061E-2,-2.6646968E-2,-2.559601E-3,-5.188167E-4,-2.033628E-2,-1.876452E-2,-3.317049E-2,-4.6487013E-4,1.0749649E-2,-2.7736332E-2,-1.1635157E-2,1.0336021E-2,1.8250145E-2,1.3089164E-2,1.5949814E-2,-1.8364791E-3,-1.5105214E-2,-1.7918078E-2,-3.1853616E-2,-3.1171608E-4,1.19746015E-4,-1.6743096E-3,-4.7877748E-4,-2.5958061E-2,-1.132779E-2,-1.8730259E-3,-1.6125357E-2,-4.9178716E-4,-3.470546E-2,-1.586141E-2,-1.0934593E-2,-9.865462E-4,-1.4634487E-4,-2.2187827E-2,-4.975179E-4,-1.7242403E-3,-1.5996654E-2,-9.072719E-3,-3.0830448E-2,-9.830615E-4,-9.057283E-3,-9.871309E-4,-4.2797867E-4,-1.789815E-3,-5.131141E-4,-1.2534136E-3,-5.003547E-4,-5.2163354E-4,-1.6139075E-2,-1.1864349E-3,-3.235653E-4,-9.0972707E-4,-2.3507467E-4,-6.924139E-4,-6.3646025E-5,-1.7061478E-3,-7.857347E-4,6.0673806E-6,-4.8386407E-4,-1.345273E-3,-4.3023526E-4],"categories":[],"categories_nodes":[],"categories_segments":[],"categories_sizes":[],"default_left":[0,0,0,0,0,0,0,0,0,0,0,0,0,0,0,0,0,0,0,0,0,0,0,0,0,0,0,0,0,0,0,0,0,0,0,0,0,0,0,0,0,0,0,0,0,0,0,0,0,0,0,0,0,0,0,0,0,0,0,0,0,0,0,0,0,0,0,0,0,0,0,0,0,0,0,0,0,0,0,0,0,0,0,0,0,0,0,0,0,0,0,0,0,0,0,0,0,0,0,0,0,0,0,0,0,0,0,0,0],"id":12,"left_children":[1,3,5,7,9,11,13,15,17,-1,-1,-1,19,21,23,-1,25,27,29,31,33,35,37,39,41,-1,-1,-1,43,45,47,49,51,-1,53,-1,-1,-1,-1,55,-1,57,-1,59,61,-1,-1,-1,63,65,67,-1,69,71,73,-1,-1,75,77,-1,-1,-1,-1,-1,79,81,83,-1,-1,-1,-1,85,87,-1,89,-1,91,93,95,-1,-1,97,-1,-1,99,101,103,-1,105,-1,-1,-1,-1,-1,-1,-1,107,-1,-1,-1,-1,-1,-1,-1,-1,-1,-1,-1,-1],"loss_changes":[2.161977E0,1.1754891E1,1.5798742E-1,2.9760475E0,3.418699E-4,6.30939E-3,1.947856E-2,2.7435683E-2,1.1265087E0,0E0,0E0,0E0,1.5038669E-2,9.62989E-3,8.80143E-3,0E0,3.167972E-2,9.653473E-2,4.2308414E-1,2.5094151E-3,3.2055378E-3,2.1886728E-3,4.1518733E-4,6.617229E-2,1.5596151E-3,0E0,0E0,0E0,1.07515335E-1,1.3430813E-1,1.7264076E-2,9.562317E-4,7.759575E-4,0E0,3.0693114E-3,0E0,0E0,0E0,0E0,7.7443734E-2,0E0,4.1140504E-3,0E0,3.309679E-2,9.524345E-3,0E0,0E0,0E0,4.272908E-6,6.108992E-4,6.955015E-5,0E0,1.3773828E-3,1.4713341E-3,2.3940206E-3,0E0,0E0,2.1536741E-3,1.2263842E-4,0E0,0E0,0E0,0E0,0E0,1.1124968E-4,1.8746522E-4,7.419847E-5,0E0,0E0,0E0,0E0,1.0366347E-3,1.6250298E-4,0E0,1.0468578E-4,0E0,5.9399754E-6,3.9593806E-4,6.411597E-5,0E0,0E0,1.5964033E-5,0E0,0E0,1.37604075E-5,1.6861418E-4,6.0993247E-5,0E0,9.222608E-5,0E0,0E0,0E0,0E0,0E0,0E0,0E0,2.551939E-4,0E0,0E0,0E0,0E0,0E0,0E0,0E0,0E0,0E0,0E0,0E0,0E0],"parents":[2147483647,0,0,1,1,2,2,3,3,4,4,5,5,6,6,7,7,8,8,12,12,13,13,14,14,16,16,17,17,18,18,19,19,20,20,21,21,22,22,23,23,24,24,28,28,29,29,30,30,31,31,32,32,34,34,39,39,41,41,43,43,44,44,48,48,49,49,50,50,52,52,53,53,54,54,57,57,58,58,64,64,65,65,66,66,71,71,72,72,74,74,76,76,77,77,78,78,81,81,84,84,85,85,86,86,88,88,96,96],"right_children":[2,4,6,8,10,12,14,16,18,-1,-1,-1,20,22,24,-1,26,28,30,32,34,36,38,40,42,-1,-1,-1,44,46,48,50,52,-1,54,-1,-1,-1,-1,56,-1,58,-1,60,62,-1,-1,-1,64,66,68,-1,70,72,74,-1,-1,76,78,-1,-1,-1,-1,-1,80,82,84,-1,-1,-1,-1,86,88,-1,90,-1,92,94,96,-1,-1,98,-1,-1,100,102,104,-1,106,-1,-1,-1,-1,-1,-1,-1,108,-1,-1,-1,-1,-1,-1,-1,-1,-1,-1,-1,-1],"split_conditions":[-6.432542E-1,-5.67E-1,-1.272137E0,-4.1062462E-1,-2.0499468E0,-1.5101128E0,-1.8458886E0,-4.3437406E-1,1.4404309E0,-1.2843132E-3,-5.296622E-4,-1.9054763E-3,-1.7388953E-1,7.3124063E-1,-6.1847204E-1,-5.2517065E-4,8.001438E-1,-1.323261E0,-1.7388953E-1,-1.4283078E0,-2.3495318E-1,-2.0499468E0,2.0841928E0,-5.67E-1,-1.135814E0,8.262544E-3,-4.352022E-4,-1.01665406E-4,-8.9072084E-1,-1.5393295E0,-9.222997E-1,1.7236432E0,-1.9910224E-1,-1.8313559E-3,4.3121547E-1,-1.7027652E-3,-5.3170323E-4,-1.8775308E-3,-3.618154E-4,5.004156E-2,-5.253838E-4,-1.3632318E0,-5.301857E-4,-1.1995667E0,4.72732E-1,-1.2843132E-3,1.7602718E-2,3.2637843E-3,-1.1240993E0,-4.9089968E-1,1.2489935E0,-5.188167E-4,-1.1240993E0,-1.4174626E0,-1.323261E0,-4.6487013E-4,1.0749649E-2,5.0235003E-1,-8.4223473E-1,1.0336021E-2,1.8250145E-2,1.3089164E-2,1.5949814E-2,-1.8364791E-3,-1.2674525E0,-1.466825E0,1.00162E0,-3.1171608E-4,1.19746015E-4,-1.6743096E-3,-4.7877748E-4,-1.6037714E0,-7.555261E-2,-1.8730259E-3,-1.2959808E0,-4.9178716E-4,1.2866297E-1,-1.2352631E0,1.9913901E0,-9.865462E-4,-1.4634487E-4,2.0841928E0,-4.975179E-4,-1.7242403E-3,1.2894913E0,1.0188732E0,1.012821E0,-9.830615E-4,-1.4074627E0,-9.871309E-4,-4.2797867E-4,-1.789815E-3,-5.131141E-4,-1.2534136E-3,-5.003547E-4,-5.2163354E-4,-5.70979E-1,-1.1864349E-3,-3.235653E-4,-9.0972707E-4,-2.3507467E-4,-6.924139E-4,-6.3646025E-5,-1.7061478E-3,-7.857347E-4,6.0673806E-6,-4.8386407E-4,-1.345273E-3,-4.3023526E-4],"split_indices":[0,11,11,12,4,11,4,12,2,0,0,0,10,2,0,0,3,11,10,11,4,4,7,11,11,0,0,0,11,0,3,8,10,0,10,0,0,0,0,12,0,4,0,11,2,0,0,0,4,9,0,0,4,11,11,0,0,2,4,0,0,0,0,0,0,11,4,0,0,0,0,8,0,0,11,0,10,11,4,0,0,7,0,0,0,1,4,0,11,0,0,0,0,0,0,0,9,0,0,0,0,0,0,0,0,0,0,0,0],"split_type":[0,0,0,0,0,0,0,0,0,0,0,0,0,0,0,0,0,0,0,0,0,0,0,0,0,0,0,0,0,0,0,0,0,0,0,0,0,0,0,0,0,0,0,0,0,0,0,0,0,0,0,0,0,0,0,0,0,0,0,0,0,0,0,0,0,0,0,0,0,0,0,0,0,0,0,0,0,0,0,0,0,0,0,0,0,0,0,0,0,0,0,0,0,0,0,0,0,0,0,0,0,0,0,0,0,0,0,0,0],"sum_hessian":[4.671E3,1.348E3,3.323E3,2.49E2,1.099E3,4.15E2,2.908E3,4.5E1,2.04E2,1E0,1.098E3,1.25E2,2.9E2,7.7E1,2.831E3,4.2E1,3E0,1.83E2,2.1E1,8.1E1,2.09E2,3.6E1,4.1E1,4.9E1,2.782E3,1E0,2E0,1E0,1.82E2,5E0,1.6E1,2.7E1,5.4E1,1.37E2,7.2E1,4E0,3.2E1,4E1,1E0,5E0,4.4E1,1.18E2,2.664E3,6E1,1.22E2,1E0,4E0,1E0,1.5E1,2.5E1,2E0,4.3E1,1.1E1,3.2E1,4E1,3E0,2E0,1.9E1,9.9E1,6E0,5.4E1,8.3E1,3.9E1,1.3E1,2E0,1.1E1,1.4E1,1E0,1E0,4E0,7E0,1.5E1,1.7E1,3.1E1,9E0,6E0,1.3E1,1.1E1,8.8E1,1E0,1E0,6E0,5E0,1.1E1,3E0,4E0,1.1E1,2E0,1.5E1,5E0,4E0,1.2E1,1E0,3E0,8E0,8.3E1,5E0,5E0,1E0,2E0,1E0,2E0,2E0,8E0,3E0,1E0,1.4E1,1E0,4E0],"tree_param":{"num_deleted":"0","num_feature":"14","num_nodes":"109","size_leaf_vector":"1"}},{"base_weights":[1.2487463E-4,3.2247122E-2,-1.29115395E-2,2.1844746E-1,-1.0100449E-2,-3.0274754E-2,-1.0424083E-2,-2.8824385E-3,2.6704612E-1,-1.2522053E-3,-5.032032E-4,-1.7589147E-3,-2.704084E-2,-2.533282E-2,-1.00097805E-2,-4.9952284E-4,7.4249364E-2,2.9082564E-1,5.6024436E-2,-1.11891525E-2,-3.104625E-2,-1.3442569E-2,-3.5204403E-2,2.7591242E-3,-1.0235593E-2,8.05598E-3,-4.206954E-4,-9.912383E-5,2.924365E-1,2.7329546E-1,-2.3955004E-2,-1.5877552E-2,-4.934654E-4,-3.3974554E-2,-2.031324E-2,-1.6346545E-3,-5.059237E-4,-1.7859441E-3,-3.5277E-4,9.794745E-2,-4.996983E-4,-1.3774587E-2,-5.036863E-4,3.326213E-1,2.6692528E-1,-1.2522053E-3,1.689861E-2,3.1821895E-3,-1.6703833E-3,-4.741606E-4,-2.309826E-2,-1.8060472E-3,-2.9651111E-2,-1.1976902E-2,-3.0551633E-2,-4.4743746E-4,1.0391328E-2,-2.6489252E-2,-1.1093908E-2,5.9411856E-3,1.6868582E-2,1.2643722E-2,1.6304435E-2,-1.3372685E-3,-3.0392315E-4,-1.6994808E-3,-1.3587982E-2,-1.9812612E-2,-4.397335E-4,-1.6393485E-3,-3.4778746E-4,-4.707106E-4,-1.656734E-3,-1.5214487E-2,-1.0413674E-2,1.6290223E-3,-1.6259901E-2,-2.2781894E-2,-4.992308E-5,-1.2064105E-3,-4.7811665E-4,-4.958624E-4,-1.562804E-2,1.4083461E-6,1.2076832E-4,-3.7866665E-4,-1.8313942E-2,-2.2547133E-4,-1.2767251E-3,-1.3116412E-3,-4.1302593E-4,-9.68737E-4,-2.4568924E-4],"categories":[],"categories_nodes":[],"categories_segments":[],"categories_sizes":[],"default_left":[0,0,0,0,0,0,0,0,0,0,0,0,0,0,0,0,0,0,0,0,0,0,0,0,0,0,0,0,0,0,0,0,0,0,0,0,0,0,0,0,0,0,0,0,0,0,0,0,0,0,0,0,0,0,0,0,0,0,0,0,0,0,0,0,0,0,0,0,0,0,0,0,0,0,0,0,0,0,0,0,0,0,0,0,0,0,0,0,0,0,0,0,0],"id":13,"left_children":[1,3,5,7,9,11,13,15,17,-1,-1,-1,19,21,23,-1,25,27,29,31,33,35,37,39,41,-1,-1,-1,43,45,47,49,-1,51,53,-1,-1,-1,-1,55,-1,57,-1,59,61,-1,-1,-1,-1,-1,63,-1,65,67,69,-1,-1,71,73,-1,-1,-1,-1,-1,-1,-1,75,77,-1,-1,-1,-1,-1,79,81,83,85,87,-1,-1,-1,-1,89,-1,-1,-1,91,-1,-1,-1,-1,-1,-1],"loss_changes":[1.9568582E0,1.063925E1,1.4324874E-1,2.6898546E0,3.4606457E-4,5.6454837E-3,1.771453E-2,2.5961481E-2,1.0123959E0,0E0,0E0,0E0,1.5843198E-2,8.682057E-3,8.19397E-3,0E0,3.0079557E-2,8.7368965E-2,3.888455E-1,1.7126137E-4,5.690068E-3,2.0368476E-3,3.5623834E-4,6.1676145E-2,1.4554858E-3,0E0,0E0,0E0,9.881973E-2,1.24238014E-1,1.62029E-2,2.4267077E-4,0E0,3.951937E-4,3.560217E-3,0E0,0E0,0E0,0E0,7.233372E-2,0E0,3.7621167E-3,0E0,2.7958393E-2,1.4801979E-2,0E0,0E0,0E0,0E0,0E0,8.572149E-5,0E0,3.580168E-3,4.99001E-4,8.2683377E-4,0E0,0E0,1.9574817E-3,1.2185797E-4,0E0,0E0,0E0,0E0,0E0,0E0,0E0,5.957084E-4,3.6830478E-4,0E0,0E0,0E0,0E0,0E0,3.7385896E-4,7.539429E-5,3.7084365E-6,7.541315E-5,1.8663541E-4,0E0,0E0,0E0,0E0,2.5208923E-4,0E0,0E0,0E0,3.27304E-5,0E0,0E0,0E0,0E0,0E0,0E0],"parents":[2147483647,0,0,1,1,2,2,3,3,4,4,5,5,6,6,7,7,8,8,12,12,13,13,14,14,16,16,17,17,18,18,19,19,20,20,21,21,22,22,23,23,24,24,28,28,29,29,30,30,31,31,33,33,34,34,39,39,41,41,43,43,44,44,50,50,52,52,53,53,54,54,57,57,58,58,66,66,67,67,73,73,74,74,75,75,76,76,77,77,82,82,86,86],"right_children":[2,4,6,8,10,12,14,16,18,-1,-1,-1,20,22,24,-1,26,28,30,32,34,36,38,40,42,-1,-1,-1,44,46,48,50,-1,52,54,-1,-1,-1,-1,56,-1,58,-1,60,62,-1,-1,-1,-1,-1,64,-1,66,68,70,-1,-1,72,74,-1,-1,-1,-1,-1,-1,-1,76,78,-1,-1,-1,-1,-1,80,82,84,86,88,-1,-1,-1,-1,90,-1,-1,-1,92,-1,-1,-1,-1,-1,-1],"split_conditions":[-6.432542E-1,-5.67E-1,-1.272137E0,-4.1062462E-1,-2.0499468E0,-1.466825E0,-1.8458886E0,-4.3437406E-1,1.4404309E0,-1.2522053E-3,-5.032032E-4,-1.7589147E-3,-1.9910224E-1,7.3124063E-1,-6.1847204E-1,-4.9952284E-4,8.001438E-1,-1.323261E0,-1.7388953E-1,-1.4283078E0,1.542414E-1,-2.0499468E0,2.0841928E0,-5.67E-1,-1.135814E0,8.05598E-3,-4.206954E-4,-9.912383E-5,-8.6186534E-1,-1.5393295E0,-9.222997E-1,-1.4516841E0,-4.934654E-4,-6.9662E-1,1.7908838E-1,-1.6346545E-3,-5.059237E-4,-1.7859441E-3,-3.5277E-4,5.004156E-2,-4.996983E-4,-1.3632318E0,-5.036863E-4,-1.2959808E0,3.594665E-1,-1.2522053E-3,1.689861E-2,3.1821895E-3,-1.6703833E-3,-4.741606E-4,2.7144548E-1,-1.8060472E-3,-1.3399379E0,-1.4283078E0,-1.2959808E0,-4.4743746E-4,1.0391328E-2,5.0235003E-1,-8.4223473E-1,5.9411856E-3,1.6868582E-2,1.2643722E-2,1.6304435E-2,-1.3372685E-3,-3.0392315E-4,-1.6994808E-3,-8.753726E-1,1.4226639E0,-4.397335E-4,-1.6393485E-3,-3.4778746E-4,-4.707106E-4,-1.656734E-3,-1.2352631E0,1.9913901E0,1.2894913E0,5.316768E-1,9.350808E-1,-4.992308E-5,-1.2064105E-3,-4.7811665E-4,-4.958624E-4,-5.70979E-1,1.4083461E-6,1.2076832E-4,-3.7866665E-4,9.746791E-1,-2.2547133E-4,-1.2767251E-3,-1.3116412E-3,-4.1302593E-4,-9.68737E-4,-2.4568924E-4],"split_indices":[0,11,11,12,4,11,4,12,2,0,0,0,10,2,0,0,3,11,10,11,4,4,7,11,11,0,0,0,11,0,3,11,0,4,10,0,0,0,0,12,0,4,0,11,9,0,0,0,0,0,4,0,11,11,11,0,0,2,4,0,0,0,0,0,0,0,5,4,0,0,0,0,0,11,4,0,5,1,0,0,0,0,9,0,0,0,9,0,0,0,0,0,0],"split_type":[0,0,0,0,0,0,0,0,0,0,0,0,0,0,0,0,0,0,0,0,0,0,0,0,0,0,0,0,0,0,0,0,0,0,0,0,0,0,0,0,0,0,0,0,0,0,0,0,0,0,0,0,0,0,0,0,0,0,0,0,0,0,0,0,0,0,0,0,0,0,0,0,0,0,0,0,0,0,0,0,0,0,0,0,0,0,0,0,0,0,0,0,0],"sum_hessian":[4.671E3,1.348E3,3.323E3,2.49E2,1.099E3,4.15E2,2.908E3,4.5E1,2.04E2,1E0,1.098E3,1.61E2,2.54E2,7.7E1,2.831E3,4.2E1,3E0,1.83E2,2.1E1,5.2E1,2.02E2,3.6E1,4.1E1,4.9E1,2.782E3,1E0,2E0,1E0,1.82E2,5E0,1.6E1,9E0,4.3E1,1.57E2,4.5E1,4E0,3.2E1,4E1,1E0,5E0,4.4E1,1.18E2,2.664E3,6.6E1,1.16E2,1E0,4E0,1E0,1.5E1,6E0,3E0,1E2,5.7E1,2.6E1,1.9E1,3E0,2E0,1.9E1,9.9E1,2E0,6.4E1,9.8E1,1.8E1,2E0,1E0,4.4E1,1.3E1,6E0,2E1,1.7E1,2E0,6E0,1.3E1,1.1E1,8.8E1,2E0,1.1E1,5E0,1E0,3E0,8E0,8.3E1,5E0,1E0,1E0,3E0,8E0,1E0,4E0,1E0,4E0,7E0,1E0],"tree_param":{"num_deleted":"0","num_feature":"14","num_nodes":"93","size_leaf_vector":"1"}},{"base_weights":[1.3136666E-4,3.068977E-2,-1.2270384E-2,2.078289E-1,-9.597021E-3,-2.8793043E-2,-9.903352E-3,-2.58319E-3,2.540295E-1,-1.2209002E-3,-4.7806586E-4,-1.723711E-3,-2.6234206E-2,-2.412104E-2,-9.508265E-3,-4.7512748E-4,7.244572E-2,2.765651E-1,5.4003138E-2,-1.548448E-2,-3.0306794E-2,-1.2828294E-2,-3.3495102E-2,2.8100528E-3,-9.726163E-3,7.85458E-3,-4.0667222E-4,-9.664577E-5,2.780975E-1,2.622384E-1,-2.2668324E-2,-2.260759E-2,-1.1576633E-2,-1.6545663E-3,-2.4627723E-2,-1.5692683E-3,-4.8139403E-4,-1.6988248E-3,-3.4395076E-4,9.4707385E-2,-4.7526855E-4,-1.3136552E-2,-4.7851144E-4,3.3221507E-1,2.601325E-1,-1.2209002E-3,1.6222665E-2,3.1026348E-3,-3.184168E-2,-2.413802E-2,-1.8079976E-3,-4.6935282E-4,-1.8640362E-2,-1.7041842E-2,-3.0132756E-2,-4.3065855E-4,1.004495E-2,-2.5271162E-2,-1.0578264E-2,9.326215E-3,1.7565783E-2,1.1339714E-2,1.4266488E-2,-1.6736605E-3,-1.3613995E-2,-1.6112443E-2,-2.894928E-2,-2.9632504E-4,1.6072523E-4,-1.5350953E-3,-4.3859263E-4,-2.3638392E-2,-1.0231472E-2,-1.7017898E-3,-1.4629758E-2,-4.5053737E-4,-3.1596288E-2,-1.4594141E-2,-9.91794E-3,-9.2012295E-4,-1.00926685E-4,-1.978651E-2,-4.5703127E-4,-2.9947361E-2,-3.7440352E-4,-8.371924E-3,-2.8029554E-2,-8.936433E-4,-8.159243E-3,-8.8887115E-4,-3.9633038E-4,-1.6307434E-3,-4.588679E-4,-1.1611702E-3,-4.5686713E-4,-4.713644E-4,-1.5134082E-2,-1.0637119E-3,-2.7150335E-4,-6.4299157E-4,-1.5861815E-3,-6.442968E-4,-5.3363543E-5,-1.5591535E-3,-6.963378E-4,1.6909E-5,-4.3741413E-4,-1.2788501E-3,-3.9650485E-4],"categories":[],"categories_nodes":[],"categories_segments":[],"categories_sizes":[],"default_left":[0,0,0,0,0,0,0,0,0,0,0,0,0,0,0,0,0,0,0,0,0,0,0,0,0,0,0,0,0,0,0,0,0,0,0,0,0,0,0,0,0,0,0,0,0,0,0,0,0,0,0,0,0,0,0,0,0,0,0,0,0,0,0,0,0,0,0,0,0,0,0,0,0,0,0,0,0,0,0,0,0,0,0,0,0,0,0,0,0,0,0,0,0,0,0,0,0,0,0,0,0,0,0,0,0,0,0,0,0],"id":14,"left_children":[1,3,5,7,9,11,13,15,17,-1,-1,-1,19,21,23,-1,25,27,29,31,33,35,37,39,41,-1,-1,-1,43,45,47,49,51,-1,53,-1,-1,-1,-1,55,-1,57,-1,59,61,-1,-1,-1,63,65,67,-1,69,71,73,-1,-1,75,77,-1,-1,-1,-1,-1,79,81,83,-1,-1,-1,-1,85,87,-1,89,-1,91,93,95,-1,-1,97,-1,99,-1,101,103,-1,105,-1,-1,-1,-1,-1,-1,-1,107,-1,-1,-1,-1,-1,-1,-1,-1,-1,-1,-1,-1],"loss_changes":[1.7709603E0,9.628953E0,1.2971544E-1,2.4309492E0,3.4862757E-4,5.143076E-3,1.6111106E-2,2.4569409E-2,9.0914536E-1,0E0,0E0,0E0,1.22704655E-2,7.827308E-3,7.6287985E-3,0E0,2.8560473E-2,7.9063416E-2,3.5719E-1,2.020834E-3,2.5058687E-3,1.8952666E-3,3.044121E-4,5.7487957E-2,1.3542473E-3,0E0,0E0,0E0,9.1498375E-2,1.14928216E-1,1.5187858E-2,8.4766373E-4,6.7568384E-4,0E0,2.5350004E-3,0E0,0E0,0E0,0E0,6.7561045E-2,0E0,3.426889E-3,0E0,5.1347733E-2,5.457306E-2,0E0,0E0,0E0,2.011843E-5,5.3749885E-4,8.1106344E-5,0E0,1.1590407E-3,1.2406679E-3,1.9829236E-3,0E0,0E0,1.772277E-3,1.2043398E-4,0E0,0E0,0E0,0E0,0E0,1.2942741E-4,1.2651784E-4,9.7052194E-5,0E0,0E0,0E0,0E0,8.3793886E-4,1.3919582E-4,0E0,7.0078066E-5,0E0,2.03792E-5,3.5285763E-4,8.510519E-5,0E0,0E0,3.3989316E-5,0E0,1.6967766E-5,0E0,1.5111367E-4,9.940192E-5,0E0,8.304382E-5,0E0,0E0,0E0,0E0,0E0,0E0,0E0,2.4855568E-4,0E0,0E0,0E0,0E0,0E0,0E0,0E0,0E0,0E0,0E0,0E0,0E0],"parents":[2147483647,0,0,1,1,2,2,3,3,4,4,5,5,6,6,7,7,8,8,12,12,13,13,14,14,16,16,17,17,18,18,19,19,20,20,21,21,22,22,23,23,24,24,28,28,29,29,30,30,31,31,32,32,34,34,39,39,41,41,43,43,44,44,48,48,49,49,50,50,52,52,53,53,54,54,57,57,58,58,64,64,65,65,66,66,71,71,72,72,74,74,76,76,77,77,78,78,81,81,83,83,85,85,86,86,88,88,96,96],"right_children":[2,4,6,8,10,12,14,16,18,-1,-1,-1,20,22,24,-1,26,28,30,32,34,36,38,40,42,-1,-1,-1,44,46,48,50,52,-1,54,-1,-1,-1,-1,56,-1,58,-1,60,62,-1,-1,-1,64,66,68,-1,70,72,74,-1,-1,76,78,-1,-1,-1,-1,-1,80,82,84,-1,-1,-1,-1,86,88,-1,90,-1,92,94,96,-1,-1,98,-1,100,-1,102,104,-1,106,-1,-1,-1,-1,-1,-1,-1,108,-1,-1,-1,-1,-1,-1,-1,-1,-1,-1,-1,-1],"split_conditions":[-6.432542E-1,-5.67E-1,-1.272137E0,-4.1062462E-1,-2.0499468E0,-1.5101128E0,-1.8458886E0,-4.3437406E-1,1.4404309E0,-1.2209002E-3,-4.7806586E-4,-1.723711E-3,-1.7388953E-1,7.3124063E-1,-6.1847204E-1,-4.7512748E-4,8.001438E-1,-1.323261E0,-1.7388953E-1,-1.4283078E0,-2.3495318E-1,-2.0499468E0,2.0841928E0,-5.67E-1,-1.135814E0,7.85458E-3,-4.0667222E-4,-9.664577E-5,-9.601643E-1,-1.5393295E0,-9.222997E-1,1.7236432E0,-1.9910224E-1,-1.6545663E-3,4.3121547E-1,-1.5692683E-3,-4.8139403E-4,-1.6988248E-3,-3.4395076E-4,5.004156E-2,-4.7526855E-4,-1.3632318E0,-4.7851144E-4,-1.1995667E0,7.2744095E-1,-1.2209002E-3,1.6222665E-2,3.1026348E-3,-1.1240993E0,-4.9089968E-1,1.2489935E0,-4.6935282E-4,-1.1240993E0,-1.4174626E0,-1.323261E0,-4.3065855E-4,1.004495E-2,5.0235003E-1,-8.4223473E-1,9.326215E-3,1.7565783E-2,1.1339714E-2,1.4266488E-2,-1.6736605E-3,-1.2674525E0,-1.466825E0,1.012821E0,-2.9632504E-4,1.6072523E-4,-1.5350953E-3,-4.3859263E-4,-1.6037714E0,-7.555261E-2,-1.7017898E-3,-1.2959808E0,-4.5053737E-4,1.2866297E-1,-1.2352631E0,1.9913901E0,-9.2012295E-4,-1.00926685E-4,2.0841928E0,-4.5703127E-4,5.061485E-1,-3.7440352E-4,1.0188732E0,1.012821E0,-8.936433E-4,-1.4074627E0,-8.8887115E-4,-3.9633038E-4,-1.6307434E-3,-4.588679E-4,-1.1611702E-3,-4.5686713E-4,-4.713644E-4,-5.70979E-1,-1.0637119E-3,-2.7150335E-4,-6.4299157E-4,-1.5861815E-3,-6.442968E-4,-5.3363543E-5,-1.5591535E-3,-6.963378E-4,1.6909E-5,-4.3741413E-4,-1.2788501E-3,-3.9650485E-4],"split_indices":[0,11,11,12,4,11,4,12,2,0,0,0,10,2,0,0,3,11,10,11,4,4,7,11,11,0,0,0,11,0,3,8,10,0,10,0,0,0,0,12,0,4,0,11,12,0,0,0,4,9,0,0,4,11,11,0,0,2,4,0,0,0,0,0,0,11,4,0,0,0,0,8,0,0,11,0,10,11,4,0,0,7,0,3,0,1,4,0,11,0,0,0,0,0,0,0,9,0,0,0,0,0,0,0,0,0,0,0,0],"split_type":[0,0,0,0,0,0,0,0,0,0,0,0,0,0,0,0,0,0,0,0,0,0,0,0,0,0,0,0,0,0,0,0,0,0,0,0,0,0,0,0,0,0,0,0,0,0,0,0,0,0,0,0,0,0,0,0,0,0,0,0,0,0,0,0,0,0,0,0,0,0,0,0,0,0,0,0,0,0,0,0,0,0,0,0,0,0,0,0,0,0,0,0,0,0,0,0,0,0,0,0,0,0,0,0,0,0,0,0,0],"sum_hessian":[4.671E3,1.348E3,3.323E3,2.49E2,1.099E3,4.15E2,2.908E3,4.5E1,2.04E2,1E0,1.098E3,1.25E2,2.9E2,7.7E1,2.831E3,4.2E1,3E0,1.83E2,2.1E1,8.1E1,2.09E2,3.6E1,4.1E1,4.9E1,2.782E3,1E0,2E0,1E0,1.82E2,5E0,1.6E1,2.7E1,5.4E1,1.37E2,7.2E1,4E0,3.2E1,4E1,1E0,5E0,4.4E1,1.18E2,2.664E3,4.1E1,1.41E2,1E0,4E0,1E0,1.5E1,2.5E1,2E0,4.3E1,1.1E1,3.2E1,4E1,3E0,2E0,1.9E1,9.9E1,6E0,3.5E1,6.5E1,7.6E1,1.3E1,2E0,1.1E1,1.4E1,1E0,1E0,4E0,7E0,1.5E1,1.7E1,3.1E1,9E0,6E0,1.3E1,1.1E1,8.8E1,1E0,1E0,6E0,5E0,1.3E1,1E0,4E0,1.1E1,2E0,1.5E1,5E0,4E0,1.2E1,1E0,3E0,8E0,8.3E1,5E0,5E0,1E0,2E0,1.1E1,2E0,2E0,8E0,3E0,1E0,1.4E1,1E0,4E0],"tree_param":{"num_deleted":"0","num_feature":"14","num_nodes":"109","size_leaf_vector":"1"}},{"base_weights":[1.362999E-4,2.920946E-2,-1.1662685E-2,1.9773658E-1,-9.118714E-3,-2.7395716E-2,-9.408783E-3,-2.3024487E-3,2.4165882E-1,-1.1903777E-3,-4.5418428E-4,-1.6382094E-3,-2.4977079E-2,-2.2967469E-2,-9.032022E-3,-4.5192358E-4,7.068541E-2,2.6302165E-1,5.200342E-2,-1.4795311E-2,-2.8833877E-2,-1.2242303E-2,-3.1868983E-2,2.8523304E-3,-9.242293E-3,7.6582157E-3,-3.9311647E-4,-9.4229545E-5,2.6447952E-1,2.516268E-1,-2.1510912E-2,-2.1639047E-2,-1.10422205E-2,-3.144875E-2,-2.349571E-2,-1.5064976E-3,-4.5805375E-4,-1.6159551E-3,-3.3535203E-4,9.15744E-2,-4.5203321E-4,-1.2532706E-2,-4.5459493E-4,3.0053928E-1,2.4054383E-1,-1.1903777E-3,1.557376E-2,3.0250691E-3,-1.5209009E-3,-2.310019E-2,-1.7627975E-3,-4.4641853E-4,-1.7872818E-2,-1.594066E-3,-2.0434318E-2,-1.6319063E-2,-2.869897E-2,-4.1450886E-4,9.710118E-3,-2.4134612E-2,-1.0086997E-2,5.432272E-3,1.5232295E-2,1.1343002E-2,1.4887147E-2,-1.5456176E-2,-2.7675388E-2,-2.8891696E-4,1.5670713E-4,-1.4736914E-3,-4.1940418E-4,-2.4235904E-2,-6.019706E-3,-2.2641044E-2,-9.792907E-3,-1.6193591E-3,-1.4026789E-2,-4.3122866E-4,-3.0165732E-2,-1.3999272E-2,-9.446163E-3,-1.898793E-2,-4.379884E-4,-1.4304611E-3,-3.6504344E-4,-1.3288892E-3,-3.1316286E-4,4.2737276E-5,-4.9421523E-4,-8.09286E-3,-2.6816035E-2,-8.638552E-4,-7.7775633E-3,-8.518348E-4,-3.804772E-4,-1.5554784E-3,-4.4739625E-4,-1.1176264E-3,-4.3656197E-4,-4.4807672E-4,-1.4656603E-2,-1.0840029E-3,-4.0858702E-4,-6.228203E-4,-5.1584717E-5,-1.4898578E-3,-6.7022507E-4,1.6486272E-5,-4.1700155E-4,-1.2468789E-3,-3.8064466E-4],"categories":[],"categories_nodes":[],"categories_segments":[],"categories_sizes":[],"default_left":[0,0,0,0,0,0,0,0,0,0,0,0,0,0,0,0,0,0,0,0,0,0,0,0,0,0,0,0,0,0,0,0,0,0,0,0,0,0,0,0,0,0,0,0,0,0,0,0,0,0,0,0,0,0,0,0,0,0,0,0,0,0,0,0,0,0,0,0,0,0,0,0,0,0,0,0,0,0,0,0,0,0,0,0,0,0,0,0,0,0,0,0,0,0,0,0,0,0,0,0,0,0,0,0,0,0,0,0,0,0,0],"id":15,"left_children":[1,3,5,7,9,11,13,15,17,-1,-1,-1,19,21,23,-1,25,27,29,31,33,35,37,39,41,-1,-1,-1,43,45,47,49,51,53,55,-1,-1,-1,-1,57,-1,59,-1,61,63,-1,-1,-1,-1,65,67,-1,69,-1,71,73,75,-1,-1,77,79,-1,-1,-1,-1,81,83,-1,-1,-1,-1,85,87,89,91,-1,93,-1,95,97,99,101,-1,-1,-1,-1,-1,-1,-1,103,105,-1,107,-1,-1,-1,-1,-1,-1,-1,109,-1,-1,-1,-1,-1,-1,-1,-1,-1,-1],"loss_changes":[1.6029944E0,8.715448E0,1.1761367E-1,2.1970968E0,3.497228E-4,4.58315E-3,1.4652848E-2,2.325469E-2,8.168955E-1,0E0,0E0,0E0,1.1000678E-2,7.056523E-3,7.1033537E-3,0E0,2.7118353E-2,7.1558E-2,3.2826668E-1,1.8672403E-3,2.1924078E-3,1.763267E-3,2.589263E-4,5.3586442E-2,1.263231E-3,0E0,0E0,0E0,8.565807E-2,1.06321275E-1,1.4258699E-2,7.724557E-4,6.345622E-4,6.0349703E-6,2.2576228E-3,0E0,0E0,0E0,0E0,6.310336E-2,0E0,3.1331666E-3,0E0,2.127552E-2,2.2464275E-2,0E0,0E0,0E0,0E0,4.8154034E-4,7.710174E-5,0E0,1.0731614E-3,0E0,2.924942E-4,1.1398001E-3,1.7643906E-3,0E0,0E0,1.6106907E-3,1.1847261E-4,0E0,0E0,0E0,0E0,1.17470976E-4,7.652398E-5,0E0,0E0,0E0,0E0,8.607493E-5,8.814955E-5,7.5479783E-4,1.3712433E-4,0E0,6.351154E-5,0E0,2.000481E-6,3.3289753E-4,9.3391165E-5,2.6666094E-5,0E0,0E0,0E0,0E0,0E0,0E0,0E0,1.4120736E-4,8.036103E-5,0E0,7.5711345E-5,0E0,0E0,0E0,0E0,0E0,0E0,0E0,2.4465017E-4,0E0,0E0,0E0,0E0,0E0,0E0,0E0,0E0,0E0,0E0],"parents":[2147483647,0,0,1,1,2,2,3,3,4,4,5,5,6,6,7,7,8,8,12,12,13,13,14,14,16,16,17,17,18,18,19,19,20,20,21,21,22,22,23,23,24,24,28,28,29,29,30,30,31,31,32,32,33,33,34,34,39,39,41,41,43,43,44,44,49,49,50,50,52,52,54,54,55,55,56,56,59,59,60,60,65,65,66,66,71,71,72,72,73,73,74,74,76,76,78,78,79,79,80,80,81,81,89,89,90,90,92,92,100,100],"right_children":[2,4,6,8,10,12,14,16,18,-1,-1,-1,20,22,24,-1,26,28,30,32,34,36,38,40,42,-1,-1,-1,44,46,48,50,52,54,56,-1,-1,-1,-1,58,-1,60,-1,62,64,-1,-1,-1,-1,66,68,-1,70,-1,72,74,76,-1,-1,78,80,-1,-1,-1,-1,82,84,-1,-1,-1,-1,86,88,90,92,-1,94,-1,96,98,100,102,-1,-1,-1,-1,-1,-1,-1,104,106,-1,108,-1,-1,-1,-1,-1,-1,-1,110,-1,-1,-1,-1,-1,-1,-1,-1,-1,-1],"split_conditions":[-6.432542E-1,-5.67E-1,-1.272137E0,-4.1062462E-1,-2.0499468E0,-1.5101128E0,-1.8458886E0,-4.3437406E-1,1.4404309E0,-1.1903777E-3,-4.5418428E-4,-1.6382094E-3,-1.7388953E-1,7.3124063E-1,-6.1847204E-1,-4.5192358E-4,8.001438E-1,-1.323261E0,-1.7388953E-1,-1.4283078E0,-2.3495318E-1,-2.0499468E0,2.0841928E0,-5.67E-1,-1.135814E0,7.6582157E-3,-3.9311647E-4,-9.4229545E-5,-8.5269517E-1,-1.5393295E0,-9.222997E-1,1.7236432E0,-1.9910224E-1,2.9219314E-1,4.3121547E-1,-1.5064976E-3,-4.5805375E-4,-1.6159551E-3,-3.3535203E-4,5.004156E-2,-4.5203321E-4,-1.3632318E0,-4.5459493E-4,-1.2959808E0,3.594665E-1,-1.1903777E-3,1.557376E-2,3.0250691E-3,-1.5209009E-3,-4.9089968E-1,1.2489935E0,-4.4641853E-4,-1.1240993E0,-1.594066E-3,1.282901E0,-1.4174626E0,-1.323261E0,-4.1450886E-4,9.710118E-3,5.0235003E-1,-8.4223473E-1,5.432272E-3,1.5232295E-2,1.1343002E-2,1.4887147E-2,-1.466825E0,1.012821E0,-2.8891696E-4,1.5670713E-4,-1.4736914E-3,-4.1940418E-4,1.2475815E0,1.2894913E0,-1.6037714E0,-7.555261E-2,-1.6193591E-3,-1.2959808E0,-4.3122866E-4,1.2866297E-1,-1.2352631E0,1.9913901E0,-5.0510615E-1,-4.379884E-4,-1.4304611E-3,-3.6504344E-4,-1.3288892E-3,-3.1316286E-4,4.2737276E-5,-4.9421523E-4,1.0188732E0,1.012821E0,-8.638552E-4,-1.4074627E0,-8.518348E-4,-3.804772E-4,-1.5554784E-3,-4.4739625E-4,-1.1176264E-3,-4.3656197E-4,-4.4807672E-4,-5.70979E-1,-1.0840029E-3,-4.0858702E-4,-6.228203E-4,-5.1584717E-5,-1.4898578E-3,-6.7022507E-4,1.6486272E-5,-4.1700155E-4,-1.2468789E-3,-3.8064466E-4],"split_indices":[0,11,11,12,4,11,4,12,2,0,0,0,10,2,0,0,3,11,10,11,4,4,7,11,11,0,0,0,11,0,3,8,10,12,10,0,0,0,0,12,0,4,0,11,9,0,0,0,0,9,0,0,4,0,0,11,11,0,0,2,4,0,0,0,0,11,4,0,0,0,0,3,0,8,0,0,11,0,10,11,4,4,0,0,0,0,0,0,0,1,4,0,11,0,0,0,0,0,0,0,9,0,0,0,0,0,0,0,0,0,0],"split_type":[0,0,0,0,0,0,0,0,0,0,0,0,0,0,0,0,0,0,0,0,0,0,0,0,0,0,0,0,0,0,0,0,0,0,0,0,0,0,0,0,0,0,0,0,0,0,0,0,0,0,0,0,0,0,0,0,0,0,0,0,0,0,0,0,0,0,0,0,0,0,0,0,0,0,0,0,0,0,0,0,0,0,0,0,0,0,0,0,0,0,0,0,0,0,0,0,0,0,0,0,0,0,0,0,0,0,0,0,0,0,0],"sum_hessian":[4.671E3,1.348E3,3.323E3,2.49E2,1.099E3,4.15E2,2.908E3,4.5E1,2.04E2,1E0,1.098E3,1.25E2,2.9E2,7.7E1,2.831E3,4.2E1,3E0,1.83E2,2.1E1,8.1E1,2.09E2,3.6E1,4.1E1,4.9E1,2.782E3,1E0,2E0,1E0,1.82E2,5E0,1.6E1,2.7E1,5.4E1,1.37E2,7.2E1,4E0,3.2E1,4E1,1E0,5E0,4.4E1,1.18E2,2.664E3,6.8E1,1.14E2,1E0,4E0,1E0,1.5E1,2.5E1,2E0,4.3E1,1.1E1,1.3E2,7E0,3.2E1,4E1,3E0,2E0,1.9E1,9.9E1,2E0,6.6E1,9.6E1,1.8E1,1.1E1,1.4E1,1E0,1E0,4E0,7E0,5E0,2E0,1.5E1,1.7E1,3.1E1,9E0,6E0,1.3E1,1.1E1,8.8E1,6E0,5E0,1.3E1,1E0,4E0,1E0,1E0,1E0,4E0,1.1E1,2E0,1.5E1,5E0,4E0,1.2E1,1E0,3E0,8E0,8.3E1,5E0,4E0,2E0,2E0,2E0,8E0,3E0,1E0,1.4E1,1E0,4E0],"tree_param":{"num_deleted":"0","num_feature":"14","num_nodes":"111","size_leaf_vector":"1"}},{"base_weights":[1.3971329E-4,2.7799286E-2,-1.10855885E-2,1.8812776E-1,-8.664274E-3,-2.607034E-2,-8.938892E-3,-2.0392148E-3,2.2988167E-1,-1.1606183E-3,-4.3149578E-4,-2.9284319E-2,-2.2520456E-2,-2.1869298E-2,-8.5796015E-3,-4.2985295E-4,6.896742E-2,2.501249E-1,5.0125413E-2,-1.5569492E-3,-2.6362408E-2,-4.238487E-4,-2.615389E-2,-1.1683284E-2,-3.0321993E-2,2.8865857E-3,-8.782523E-3,7.4667605E-3,-3.8001264E-4,2.391597E-1,3.238473E-1,2.4144268E-1,-2.0346886E-2,-1.2940127E-2,-2.8460454E-2,-1.552477E-3,-2.0191494E-2,-1.4462378E-3,-4.3584505E-4,-1.5371281E-3,-3.2696826E-4,8.854494E-2,-4.2993375E-4,-1.1957027E-2,-4.318738E-4,-9.187386E-5,2.4064948E-1,1.6527979E-2,4.7400543E-3,-1.1606183E-3,1.4950809E-2,2.9494425E-3,-2.8992172E-2,-1.4405644E-2,1.5278943E-4,-3.0948475E-2,-1.8585917E-2,-1.2930844E-2,-2.6221292E-2,-3.9896477E-4,9.386447E-3,-2.3049586E-2,-9.6189445E-3,2.8863147E-1,2.2576562E-1,-1.5253414E-3,-1.2259711E-2,-1.825176E-2,-4.2507888E-4,-4.3096865E-4,-1.5590421E-3,-1.1770652E-3,-9.44902E-3,-2.3029838E-2,-8.711556E-3,-1.5332834E-3,-1.4631769E-2,-4.127474E-4,-1.4400253E-3,-1.3428823E-2,-8.997175E-3,8.413708E-3,1.5386522E-2,1.006044E-2,1.2274336E-2,-8.590973E-4,-6.0380997E-5,-9.798523E-4,-2.5450112E-4,-4.7343727E-3,-7.86432E-4,-1.2273387E-3,-2.3443504E-4,-9.387799E-3,-2.4762126E-3,-8.853424E-4,-4.7332185E-4,-1.0757153E-3,-4.1715917E-4,-4.2593954E-4,-1.4195026E-2,-3.1767902E-4,-4.9865248E-5,-1.3913947E-2,-7.464394E-3,1.9896487E-4,-2.977241E-4,-1.2157069E-3,-3.6541882E-4,-3.5155322E-3,-9.117136E-4,-2.572513E-3,-3.9442928E-4,-3.053338E-4,4.1668864E-5,1.6074162E-5,-2.0901264E-4],"categories":[],"categories_nodes":[],"categories_segments":[],"categories_sizes":[],"default_left":[0,0,0,0,0,0,0,0,0,0,0,0,0,0,0,0,0,0,0,0,0,0,0,0,0,0,0,0,0,0,0,0,0,0,0,0,0,0,0,0,0,0,0,0,0,0,0,0,0,0,0,0,0,0,0,0,0,0,0,0,0,0,0,0,0,0,0,0,0,0,0,0,0,0,0,0,0,0,0,0,0,0,0,0,0,0,0,0,0,0,0,0,0,0,0,0,0,0,0,0,0,0,0,0,0,0,0,0,0,0,0,0,0,0,0,0,0],"id":16,"left_children":[1,3,5,7,9,11,13,15,17,-1,-1,19,21,23,25,-1,27,29,31,-1,33,-1,35,37,39,41,43,-1,-1,45,47,49,51,53,55,-1,57,-1,-1,-1,-1,59,-1,61,-1,-1,63,-1,-1,-1,-1,-1,65,67,-1,69,71,73,75,-1,-1,77,79,81,83,-1,85,87,-1,-1,-1,-1,89,91,93,-1,95,-1,-1,97,99,-1,-1,-1,-1,-1,-1,-1,-1,101,-1,-1,-1,103,105,-1,-1,-1,-1,-1,107,-1,-1,109,111,-1,-1,-1,-1,113,-1,115,-1,-1,-1,-1,-1],"loss_changes":[1.4509038E0,7.888082E0,1.0669246E-1,1.9855232E0,3.495291E-4,4.086733E-3,1.3326928E-2,2.2012835E-2,7.334261E-1,0E0,0E0,3.4423172E-4,1.0085568E-2,6.361481E-3,6.6146553E-3,0E0,2.5749283E-2,7.129097E-2,3.015291E-1,0E0,2.166167E-3,0E0,4.0434226E-3,1.6402239E-3,2.1905452E-4,4.9951795E-2,1.1781305E-3,0E0,0E0,5.9324265E-2,9.481907E-4,9.836355E-2,1.3370176E-2,3.7221238E-4,1.3165288E-3,0E0,2.9444564E-3,0E0,0E0,0E0,0E0,5.893991E-2,0E0,2.86459E-3,0E0,0E0,5.1243782E-2,0E0,0E0,0E0,0E0,0E0,3.149826E-5,1.4003157E-4,0E0,4.2557716E-5,5.925414E-4,1.3333545E-3,1.6116351E-3,0E0,0E0,1.4639096E-3,1.16065145E-4,2.8671265E-2,1.307869E-2,0E0,1.4245373E-4,2.419483E-5,0E0,0E0,0E0,0E0,1.623843E-4,1.6313093E-4,9.060209E-5,0E0,3.8868748E-5,0E0,0E0,3.1394046E-4,1.0038074E-4,0E0,0E0,0E0,0E0,0E0,0E0,0E0,0E0,2.9970091E-5,0E0,0E0,0E0,1.0507554E-4,1.1351066E-4,0E0,0E0,0E0,0E0,0E0,2.4042372E-4,0E0,0E0,2.0544394E-4,1.9133207E-5,0E0,0E0,0E0,0E0,3.8895112E-5,0E0,1.5302257E-5,0E0,0E0,0E0,0E0,0E0],"parents":[2147483647,0,0,1,1,2,2,3,3,4,4,5,5,6,6,7,7,8,8,11,11,12,12,13,13,14,14,16,16,17,17,18,18,20,20,22,22,23,23,24,24,25,25,26,26,29,29,30,30,31,31,32,32,33,33,34,34,36,36,41,41,43,43,46,46,52,52,53,53,55,55,56,56,57,57,58,58,61,61,62,62,63,63,64,64,66,66,67,67,72,72,73,73,74,74,76,76,79,79,80,80,89,89,93,93,94,94,100,100,103,103,104,104,109,109,111,111],"right_children":[2,4,6,8,10,12,14,16,18,-1,-1,20,22,24,26,-1,28,30,32,-1,34,-1,36,38,40,42,44,-1,-1,46,48,50,52,54,56,-1,58,-1,-1,-1,-1,60,-1,62,-1,-1,64,-1,-1,-1,-1,-1,66,68,-1,70,72,74,76,-1,-1,78,80,82,84,-1,86,88,-1,-1,-1,-1,90,92,94,-1,96,-1,-1,98,100,-1,-1,-1,-1,-1,-1,-1,-1,102,-1,-1,-1,104,106,-1,-1,-1,-1,-1,108,-1,-1,110,112,-1,-1,-1,-1,114,-1,116,-1,-1,-1,-1,-1],"split_conditions":[-6.432542E-1,-5.67E-1,-1.272137E0,-4.1062462E-1,-2.0499468E0,-1.4174626E0,-1.8458886E0,-4.3437406E-1,1.4404309E0,-1.1606183E-3,-4.3149578E-4,-1.5101128E0,-1.9910224E-1,7.3124063E-1,-6.1847204E-1,-4.2985295E-4,8.001438E-1,9.71543E-1,-1.7388953E-1,-1.5569492E-3,-4.9089968E-1,-4.238487E-4,-6.9662E-1,-2.0499468E0,2.0841928E0,-5.67E-1,-1.135814E0,7.4667605E-3,-3.8001264E-4,-1.323261E0,1.4458027E0,-1.5393295E0,-9.222997E-1,1.0045407E0,6.8582773E-1,-1.552477E-3,4.3121547E-1,-1.4462378E-3,-4.3584505E-4,-1.5371281E-3,-3.2696826E-4,5.004156E-2,-4.2993375E-4,-1.3632318E0,-4.318738E-4,-9.187386E-5,-9.601643E-1,1.6527979E-2,4.7400543E-3,-1.1606183E-3,1.4950809E-2,2.9494425E-3,-1.1240993E0,-1.466825E0,1.5278943E-4,-6.52931E-1,-1.466825E0,1.1603538E0,-1.323261E0,-3.9896477E-4,9.386447E-3,5.0235003E-1,-8.4223473E-1,-1.1995667E0,7.2744095E-1,-1.5253414E-3,-1.2674525E0,2.0841928E0,-4.2507888E-4,-4.3096865E-4,-1.5590421E-3,-1.1770652E-3,3.02267E-1,8.001438E-1,7.484232E-1,-1.5332834E-3,-1.2959808E0,-4.127474E-4,-1.4400253E-3,-1.2352631E0,1.9913901E0,8.413708E-3,1.5386522E-2,1.006044E-2,1.2274336E-2,-8.590973E-4,-6.0380997E-5,-9.798523E-4,-2.5450112E-4,1.303454E0,-7.86432E-4,-1.2273387E-3,-2.3443504E-4,-2.3495318E-1,-4.372953E-1,-8.853424E-4,-4.7332185E-4,-1.0757153E-3,-4.1715917E-4,-4.2593954E-4,-5.70979E-1,-3.1767902E-4,-4.9865248E-5,1.2894913E0,-1.4074627E0,1.9896487E-4,-2.977241E-4,-1.2157069E-3,-3.6541882E-4,1.282901E0,-9.117136E-4,1.2523892E0,-3.9442928E-4,-3.053338E-4,4.1668864E-5,1.6074162E-5,-2.0901264E-4],"split_indices":[0,11,11,12,4,11,4,12,2,0,0,11,10,2,0,0,3,2,10,0,9,0,4,4,7,11,11,0,0,11,4,0,3,8,4,0,10,0,0,0,0,12,0,4,0,0,11,0,0,0,0,0,4,11,0,10,11,0,11,0,0,2,4,11,12,0,0,7,0,0,0,0,9,3,9,0,11,0,0,11,4,0,0,0,0,0,0,0,0,0,0,0,0,4,4,0,0,0,0,0,9,0,0,0,11,0,0,0,0,0,0,0,0,0,0,0,0],"split_type":[0,0,0,0,0,0,0,0,0,0,0,0,0,0,0,0,0,0,0,0,0,0,0,0,0,0,0,0,0,0,0,0,0,0,0,0,0,0,0,0,0,0,0,0,0,0,0,0,0,0,0,0,0,0,0,0,0,0,0,0,0,0,0,0,0,0,0,0,0,0,0,0,0,0,0,0,0,0,0,0,0,0,0,0,0,0,0,0,0,0,0,0,0,0,0,0,0,0,0,0,0,0,0,0,0,0,0,0,0,0,0,0,0,0,0,0,0],"sum_hessian":[4.671E3,1.348E3,3.323E3,2.49E2,1.099E3,4.15E2,2.908E3,4.5E1,2.04E2,1E0,1.098E3,2.14E2,2.01E2,7.7E1,2.831E3,4.2E1,3E0,1.83E2,2.1E1,1.25E2,8.9E1,4.2E1,1.59E2,3.6E1,4.1E1,4.9E1,2.782E3,1E0,2E0,1.63E2,2E1,5E0,1.6E1,1.3E1,7.6E1,8.5E1,7.4E1,4E0,3.2E1,4E1,1E0,5E0,4.4E1,1.18E2,2.664E3,1E0,1.62E2,1.9E1,1E0,1E0,4E0,1E0,1.5E1,1.2E1,1E0,5.9E1,1.7E1,3.5E1,3.9E1,3E0,2E0,1.9E1,9.9E1,3.4E1,1.28E2,1.3E1,2E0,6E0,6E0,1E0,5.8E1,1E1,7E0,9E0,2.6E1,2.7E1,1.2E1,6E0,1.3E1,1.1E1,8.8E1,6E0,2.8E1,6.2E1,6.6E1,1E0,1E0,5E0,1E0,5E0,2E0,8E0,1E0,2.3E1,3E0,6E0,6E0,3E0,8E0,8.3E1,5E0,3E0,2E0,5E0,1.8E1,1E0,2E0,1E0,4E0,2E0,3E0,2E0,1.6E1,1E0,1E0,1E0,1E0],"tree_param":{"num_deleted":"0","num_feature":"14","num_nodes":"117","size_leaf_vector":"1"}},{"base_weights":[1.4773641E-4,2.6473572E-2,-1.0536289E-2,1.7907442E-1,-8.232507E-3,-2.4804264E-2,-8.492283E-3,-1.7925382E-3,2.1878567E-1,-1.1316028E-3,-4.0994055E-4,-2.0250037E-2,-2.704101E-2,-2.0823862E-2,-8.149643E-3,-4.0886013E-4,6.729073E-2,2.379845E-1,4.8268903E-2,-2.773491E-2,-1.1071803E-2,-1.4707933E-3,-2.50536E-2,-1.1149988E-2,-2.8850278E-2,2.9134057E-3,-8.345475E-3,7.2800913E-3,-3.6734555E-4,2.2748247E-1,1.5433385E-2,2.3166892E-1,-1.9299857E-2,-1.4580591E-3,-2.143984E-2,-1.6104516E-2,-4.3214878E-4,-2.6917364E-2,-1.3024828E-2,-1.3883883E-3,-4.147132E-4,-1.4621462E-3,-3.1879405E-4,8.5615605E-2,-4.0891484E-4,-1.1404157E-2,-4.1028825E-4,-8.957703E-5,2.2890006E-1,-1.1316028E-3,1.4352776E-2,2.8757062E-3,-2.7695363E-2,-2.3051525E-2,1.489697E-4,-3.9295174E-4,-1.5147416E-3,-2.2926005E-2,-1.4948865E-3,3.1282392E-3,-1.471218E-2,-3.8400362E-4,9.073566E-3,-2.1989744E-2,-9.172997E-3,2.610002E-1,1.04588205E-2,-1.454522E-3,-1.1953219E-2,-2.4813862E-4,-2.3871897E-2,-2.5915768E-2,-1.417793E-2,4.062718E-5,1.9399077E-4,-1.898112E-2,-4.5528842E-4,-3.9505825E-4,-2.746334E-2,-1.2881788E-2,-8.569868E-3,4.9707396E-3,1.3249791E-2,-8.376199E-4,-5.887151E-5,-2.462748E-2,-3.1345375E-4,-1.4104733E-3,-1.7257314E-2,-1.0891196E-3,-3.6792547E-4,-1.002362E-3,-2.0799832E-4,-1.4172243E-3,-4.002107E-4,-1.035376E-3,-3.9861884E-4,-4.048962E-4,-1.3748796E-2,-1.2726878E-3,-3.264907E-4,-2.193898E-3,-1.0025305E-3,-1.1853141E-3,-3.508021E-4,1.5672296E-5,-1.8021464E-4],"categories":[],"categories_nodes":[],"categories_segments":[],"categories_sizes":[],"default_left":[0,0,0,0,0,0,0,0,0,0,0,0,0,0,0,0,0,0,0,0,0,0,0,0,0,0,0,0,0,0,0,0,0,0,0,0,0,0,0,0,0,0,0,0,0,0,0,0,0,0,0,0,0,0,0,0,0,0,0,0,0,0,0,0,0,0,0,0,0,0,0,0,0,0,0,0,0,0,0,0,0,0,0,0,0,0,0,0,0,0,0,0,0,0,0,0,0,0,0,0,0,0,0,0,0,0,0],"id":17,"left_children":[1,3,5,7,9,11,13,15,17,-1,-1,19,21,23,25,-1,27,29,31,33,35,-1,37,39,41,43,45,-1,-1,47,-1,49,51,-1,53,55,-1,57,59,-1,-1,-1,-1,61,-1,63,-1,