{"learner":{"attributes":{"scikit_learn":"{\"_estimator_type\": \"classifier\"}"},"feature_names":["pl_rade","pl_bmasse","pl_orbsmax","pl_orbeccen","st_lum","st_mass","sy_snum","sy_pnum","pl_dens","st_teff","st_rad","pl_temp","atm_retention_prob","radiation_viability","hz_position"],"feature_types":["float","float","float","float","float","float","float","float","float","float","float","float","float","float","float"],"gradient_booster":{"model":{"gbtree_model_param":{"num_parallel_tree":"1","num_trees":"200"},"iteration_indptr":[0,1,2,3,4,5,6,7,8,9,10,11,12,13,14,15,16,17,18,19,20,21,22,23,24,25,26,27,28,29,30,31,32,33,34,35,36,37,38,39,40,41,42,43,44,45,46,47,48,49,50,51,52,53,54,55,56,57,58,59,60,61,62,63,64,65,66,67,68,69,70,71,72,73,74,75,76,77,78,79,80,81,82,83,84,85,86,87,88,89,90,91,92,93,94,95,96,97,98,99,100,101,102,103,104,105,106,107,108,109,110,111,112,113,114,115,116,117,118,119,120,121,122,123,124,125,126,127,128,129,130,131,132,133,134,135,136,137,138,139,140,141,142,143,144,145,146,147,148,149,150,151,152,153,154,155,156,157,158,159,160,161,162,163,164,165,166,167,168,169,170,171,172,173,174,175,176,177,178,179,180,181,182,183,184,185,186,187,188,189,190,191,192,193,194,195,196,197,198,199,200],"tree_info":[0,0,0,0,0,0,0,0,0,0,0,0,0,0,0,0,0,0,0,0,0,0,0,0,0,0,0,0,0,0,0,0,0,0,0,0,0,0,0,0,0,0,0,0,0,0,0,0,0,0,0,0,0,0,0,0,0,0,0,0,0,0,0,0,0,0,0,0,0,0,0,0,0,0,0,0,0,0,0,0,0,0,0,0,0,0,0,0,0,0,0,0,0,0,0,0,0,0,0,0,0,0,0,0,0,0,0,0,0,0,0,0,0,0,0,0,0,0,0,0,0,0,0,0,0,0,0,0,0,0,0,0,0,0,0,0,0,0,0,0,0,0,0,0,0,0,0,0,0,0,0,0,0,0,0,0,0,0,0,0,0,0,0,0,0,0,0,0,0,0,0,0,0,0,0,0,0,0,0,0,0,0,0,0,0,0,0,0,0,0,0,0,0,0,0,0,0,0,0,0],"trees":[{"base_weights":[-8.888066E-10,5.06437E-1,-1.4263641E-2,1.1900675E-1,8.4721404E-1,1.0634763E-1,-1.7343542E-2,3.8274902E-1,-3.439429E-3,-1.1806776E-2,9.3101114E-1,6.7500263E-1,3.8233522E-2,-2.1947363E-2,7.566237E-3,1.0692812E-1,8.7926E-1,9.730372E-2,-1.1440637E-3,-1.1329477E-3,1.2320668E-1,-1.0581015E-3,9.4344026E-1,-1.120225E-3,8.909084E-1,-1.722901E-3,5.7163036E-1,1.4794809E-2,-2.2581518E-2,-2.2811135E-2,1.9412318E-1,-1.1354627E-3,2.7736104E-1,4.8328415E-2,-1.031649E-3,-1.1301319E-3,3.7783864E-1,2.442686E-2,-9.552305E-4,9.508413E-1,-1.002992E-3,9.5417386E-1,-1.031649E-3,1.7727381E-1,-1.753158E-2,8.904502E-1,-1.1161114E-3,-1.1448201E-3,1.9022787E-1,-2.2759916E-2,-1.0657569E-2,1.4960598E-2,-1.1461481E-3,3.8809922E-1,-2.0006448E-2,4.9931195E-1,-1.1135258E-3,4.5095745E-2,-1.0825945E-3,6.9190603E-1,9.622095E-1,4.8472054E-2,-7.641844E-4,-1.1303561E-3,5.0032276E-1,-1.1453567E-3,1.0028368E-1,-9.552305E-4,4.8090383E-2,7.4351966E-1,-1.1369573E-3,-6.0932073E-3,-2.2832932E-2,-1.1447255E-3,1.0394694E-1,-1.1004255E-3,3.1804964E-1,-9.184961E-3,5.477587E-1,2.2994016E-1,-1.1446056E-3,-1.0859462E-3,8.350361E-1,8.348723E-1,-1.002992E-3,4.849667E-2,7.614778E-1,-1.091692E-3,4.681815E-2,-1.123351E-3,4.2747006E-2,9.2504615E-1,-1.031649E-3,1.02790885E-1,-1.1407657E-3,-1.1462547E-3,-2.0185256E-2,8.1231827E-1,-1.1294195E-3,2.442686E-2,-5.731383E-4,3.8165957E-1,-1.8189766E-2,6.651783E-1,-1.1340821E-3,3.256915E-2,-9.552305E-4,-7.641844E-4,9.010331E-1,-7.641844E-4,8.868601E-1,-1.002992E-3,4.7225263E-2,-5.731383E-4,4.7533352E-2,3.9082978E-2,-1.1053382E-3,-1.1455971E-3,1.1244029E-2,4.4412475E-2,-5.731383E-4,3.256915E-2,-7.641844E-4,-1.1405738E-3,4.1007314E-2,7.0206964E-1,-1.0985151E-3,4.6899572E-2,-5.731383E-4,-5.731383E-4,9.152909E-1,2.4143897E-1,-1.1373907E-3,3.1804964E-1,-1.0643996E-3,5.2590996E-1,8.452571E-1,4.7277797E-2,-5.731383E-4,-1.031649E-3,4.7936702E-1,-5.731383E-4,2.442686E-2,9.405875E-1,3.2648555E-4,-1.0581015E-3,8.9197546E-1,6.946352E-1,-8.597074E-4,1.8165956E-1,4.8388448E-2,-1.132125E-3,2.660638E-1,-8.597074E-4,9.044514E-1,4.0711436E-2,-5.731383E-4,-8.597074E-4,2.442686E-2,3.256915E-2,-9.170213E-4,9.129594E-1,-7.641844E-4,9.21625E-1,-7.641844E-4,9.304526E-1,-7.641844E-4,4.6972338E-2,-7.641844E-4],"categories":[],"categories_nodes":[],"categories_segments":[],"categories_sizes":[],"default_left":[0,0,0,0,0,0,0,0,0,0,0,0,0,0,0,0,0,0,0,0,0,0,0,0,0,0,0,0,0,0,0,0,0,0,0,0,0,0,0,0,0,0,0,0,0,0,0,0,0,0,0,0,0,0,0,0,0,0,0,0,0,0,0,0,0,0,0,0,0,0,0,0,0,0,0,0,0,0,0,0,0,0,0,0,0,0,0,0,0,0,0,0,0,0,0,0,0,0,0,0,0,0,0,0,0,0,0,0,0,0,0,0,0,0,0,0,0,0,0,0,0,0,0,0,0,0,0,0,0,0,0,0,0,0,0,0,0,0,0,0,0,0,0,0,0,0,0,0,0,0,0,0,0,0,0,0,0,0,0,0,0,0,0,0,0,0,0,0,0],"id":0,"left_children":[1,3,5,7,9,11,13,15,17,19,21,23,25,27,29,31,33,35,-1,-1,37,-1,39,-1,41,43,45,47,49,51,53,-1,55,-1,-1,-1,57,-1,-1,59,-1,61,-1,63,65,67,-1,-1,69,71,73,75,-1,77,79,81,-1,-1,-1,83,85,-1,-1,-1,87,-1,89,-1,-1,91,-1,93,95,-1,97,-1,99,101,103,105,-1,-1,107,109,-1,-1,111,-1,-1,-1,-1,113,-1,115,-1,-1,117,119,-1,-1,-1,121,123,125,-1,-1,-1,-1,127,-1,129,-1,-1,-1,-1,-1,-1,-1,131,-1,-1,-1,-1,-1,133,135,-1,-1,-1,-1,137,139,-1,141,-1,143,145,-1,-1,-1,147,-1,-1,149,151,-1,153,155,-1,157,-1,-1,159,-1,161,-1,-1,-1,-1,-1,-1,163,-1,165,-1,167,-1,-1,-1],"loss_changes":[5.076265E2,2.5405176E2,2.5391125E1,2.9130716E1,7.3722046E1,6.589848E1,7.643259E0,3.907314E1,1.2107027E0,1.3758925E-1,1.1061707E1,2.7424477E1,3.2417496E1,1.3109932E0,5.8925365E1,4.093776E0,8.03389E0,3.3723323E0,0E0,0E0,3.7326795E-1,0E0,6.58667E0,0E0,8.035683E0,4.009965E0,2.009245E1,6.3190875E0,1.17385864E-1,3.811264E-2,6.0484215E1,0E0,5.331399E0,0E0,0E0,0E0,6.3004327E0,0E0,0E0,2.0247192E0,0E0,1.9389343E0,0E0,7.4370127E0,8.2688266E-1,4.4967194E0,0E0,0E0,1.9930666E1,6.61602E-2,1.1481475E0,3.0953294E-1,0E0,4.846569E1,5.050985E-1,8.064578E0,0E0,0E0,0E0,4.291807E0,6.149292E-1,0E0,0E0,0E0,1.0038422E1,0E0,5.2993813E0,0E0,0E0,6.538645E0,0E0,4.3750954E-1,1.2771606E-2,0E0,7.099435E0,0E0,1.7413333E-1,7.812275E-1,3.6519638E1,8.521093E-1,0E0,0E0,1.5850906E0,1.5604725E0,0E0,0E0,5.311531E0,0E0,0E0,0E0,0E0,9.226723E-1,0E0,2.7305312E0,0E0,0E0,1.5734166E-1,7.607908E-1,0E0,0E0,0E0,5.4528E-1,6.0031228E-2,1.14735565E1,0E0,0E0,0E0,0E0,8.875866E-1,0E0,8.5331345E-1,0E0,0E0,0E0,0E0,0E0,0E0,0E0,1.1557305E0,0E0,0E0,0E0,0E0,0E0,2.829056E-1,1.0376511E1,0E0,0E0,0E0,0E0,9.083843E-1,1.1946219E0,0E0,1.7413333E-1,0E0,4.2499485E1,9.531128E0,0E0,0E0,0E0,1.0808821E0,0E0,0E0,2.072731E0,5.3704774E-1,0E0,2.5449677E0,6.00446E-1,0E0,3.135188E-1,0E0,0E0,7.7905136E-1,0E0,1.7354889E0,0E0,0E0,0E0,0E0,0E0,0E0,1.7676392E0,0E0,1.8006744E0,0E0,1.8346558E0,0E0,0E0,0E0],"parents":[2147483647,0,0,1,1,2,2,3,3,4,4,5,5,6,6,7,7,8,8,9,9,10,10,11,11,12,12,13,13,14,14,15,15,16,16,17,17,20,20,22,22,24,24,25,25,26,26,27,27,28,28,29,29,30,30,32,32,36,36,39,39,41,41,43,43,44,44,45,45,48,48,49,49,50,50,51,51,53,53,54,54,55,55,59,59,60,60,64,64,66,66,69,69,71,71,72,72,74,74,76,76,77,77,78,78,79,79,82,82,83,83,86,86,91,91,93,93,96,96,97,97,101,101,102,102,103,103,108,108,110,110,118,118,124,124,125,125,130,130,131,131,133,133,135,135,136,136,140,140,143,143,144,144,146,146,147,147,149,149,152,152,154,154,161,161,163,163,165,165],"right_children":[2,4,6,8,10,12,14,16,18,20,22,24,26,28,30,32,34,36,-1,-1,38,-1,40,-1,42,44,46,48,50,52,54,-1,56,-1,-1,-1,58,-1,-1,60,-1,62,-1,64,66,68,-1,-1,70,72,74,76,-1,78,80,82,-1,-1,-1,84,86,-1,-1,-1,88,-1,90,-1,-1,92,-1,94,96,-1,98,-1,100,102,104,106,-1,-1,108,110,-1,-1,112,-1,-1,-1,-1,114,-1,116,-1,-1,118,120,-1,-1,-1,122,124,126,-1,-1,-1,-1,128,-1,130,-1,-1,-1,-1,-1,-1,-1,132,-1,-1,-1,-1,-1,134,136,-1,-1,-1,-1,138,140,-1,142,-1,144,146,-1,-1,-1,148,-1,-1,150,152,-1,154,156,-1,158,-1,-1,160,-1,162,-1,-1,-1,-1,-1,-1,164,-1,166,-1,168,-1,-1,-1],"split_conditions":[-1.8887215E0,-5.1363163E-2,-1.6828369E0,-7.449615E-1,4.291011E-1,-1.9850543E0,1.0845606E0,-1.7332324E0,-4.8840576E-1,4.1270602E-1,-1.337692E0,-8.8247293E-1,-8.399053E-1,-1.574687E0,8.2112294E-1,-1.2049301E0,-1.6381539E0,-2.1273004E-1,-1.1440637E-3,-1.1329477E-3,-9.506384E-1,-1.0581015E-3,9.2753816E-1,-1.120225E-3,-7.8047745E-2,-1.9215198E0,-7.449615E-1,6.935228E-1,1.0128387E0,-1.0655897E0,9.8530924E-1,-1.1354627E-3,-7.8047745E-2,4.8328415E-2,-1.031649E-3,-1.1301319E-3,-1.5648733E-1,2.442686E-2,-9.552305E-4,4.9942082E-1,-1.002992E-3,8.522739E-1,-1.031649E-3,-3.5397857E-1,-1.0132283E0,-1.6819935E0,-1.1161114E-3,-1.1448201E-3,-9.166027E-1,-1.5500139E0,1.1433612E0,-1.1040002E0,-1.1461481E-3,4.7529268E-1,-1.489298E0,-1.2986027E0,-1.1135258E-3,4.5095745E-2,-1.0825945E-3,-7.95019E-1,1.7766092E0,4.8472054E-2,-7.641844E-4,-1.1303561E-3,-1.132732E0,-1.1453567E-3,3.7415975E-1,-9.552305E-4,4.8090383E-2,1.1053724E0,-1.1369573E-3,-1.3015941E0,8.604196E-1,-1.1447255E-3,7.430509E-1,-1.1004255E-3,-8.8151896E-1,-1.0398335E0,5.9771415E-2,1.004662E0,-1.1446056E-3,-1.0859462E-3,-1.5400186E0,-1.3700413E0,-1.002992E-3,4.849667E-2,-2.0345058E0,-1.091692E-3,4.681815E-2,-1.123351E-3,4.2747006E-2,-9.159425E-1,-1.031649E-3,1.0281333E0,-1.1407657E-3,-1.1462547E-3,1.1715115E0,-4.8604876E-1,-1.1294195E-3,2.442686E-2,-5.731383E-4,-8.491383E-1,4.527873E-1,1.3250201E0,-1.1340821E-3,3.256915E-2,-9.552305E-4,-7.641844E-4,8.522739E-1,-7.641844E-4,-9.159425E-1,-1.002992E-3,4.7225263E-2,-5.731383E-4,4.7533352E-2,3.9082978E-2,-1.1053382E-3,-1.1455971E-3,6.6548306E-1,4.4412475E-2,-5.731383E-4,3.256915E-2,-7.641844E-4,-1.1405738E-3,-8.3310485E-1,-3.400849E-1,-1.0985151E-3,4.6899572E-2,-5.731383E-4,-5.731383E-4,1.4087844E0,6.348432E-1,-1.1373907E-3,-8.578167E-1,-1.0643996E-3,-9.43569E-1,-1.0023274E0,4.7277797E-2,-5.731383E-4,-1.031649E-3,1.2975557E0,-5.731383E-4,2.442686E-2,1.9133997E0,-3.6507595E-1,-1.0581015E-3,8.979706E-1,-4.9345127E-1,-8.597074E-4,-9.466608E-1,4.8388448E-2,-1.132125E-3,-4.2282638E-1,-8.597074E-4,1.4978677E-1,4.0711436E-2,-5.731383E-4,-8.597074E-4,2.442686E-2,3.256915E-2,-9.170213E-4,1.5831286E0,-7.641844E-4,6.832883E-1,-7.641844E-4,8.7793654E-1,-7.641844E-4,4.6972338E-2,-7.641844E-4],"split_indices":[9,12,9,1,14,5,12,10,1,14,11,2,10,9,2,0,4,2,0,0,0,0,8,0,2,5,1,14,12,11,14,0,2,0,0,0,2,0,0,14,0,8,0,2,4,0,0,0,1,9,2,9,0,14,9,2,0,0,0,2,14,0,0,0,11,0,7,0,0,14,0,11,12,0,14,0,0,10,10,2,0,0,1,2,0,0,4,0,0,0,0,3,0,14,0,0,2,0,0,0,0,1,14,2,0,0,0,0,8,0,3,0,0,0,0,0,0,0,14,0,0,0,0,0,0,10,0,0,0,0,3,3,0,0,0,5,1,0,0,0,2,0,0,12,10,0,2,0,0,4,0,0,5,0,5,0,0,0,0,0,0,7,0,8,0,14,0,0,0],"split_type":[0,0,0,0,0,0,0,0,0,0,0,0,0,0,0,0,0,0,0,0,0,0,0,0,0,0,0,0,0,0,0,0,0,0,0,0,0,0,0,0,0,0,0,0,0,0,0,0,0,0,0,0,0,0,0,0,0,0,0,0,0,0,0,0,0,0,0,0,0,0,0,0,0,0,0,0,0,0,0,0,0,0,0,0,0,0,0,0,0,0,0,0,0,0,0,0,0,0,0,0,0,0,0,0,0,0,0,0,0,0,0,0,0,0,0,0,0,0,0,0,0,0,0,0,0,0,0,0,0,0,0,0,0,0,0,0,0,0,0,0,0,0,0,0,0,0,0,0,0,0,0,0,0,0,0,0,0,0,0,0,0,0,0,0,0,0,0,0,0],"sum_hessian":[7.0271E4,1.924E3,6.8347E4,9.01E2,1.023E3,1.701E3,6.6646E4,2.85E2,6.16E2,9.1E1,9.32E2,1.81E2,1.52E3,5.625E4,1.0396E4,1.84E2,1.01E2,9.9E1,5.17E2,8.5E1,6E0,1.2E1,9.2E2,4.3E1,1.38E2,1.415E3,1.05E2,9.54E2,5.5296E4,8.941E3,1.455E3,1.05E2,7.9E1,9.2E1,9E0,7E1,2.9E1,1E0,5E0,9.13E2,7E0,1.29E2,9E0,1.14E2,1.301E3,6.8E1,3.7E1,7.86E2,1.68E2,5.448E4,8.16E2,2.6E1,8.915E3,7.63E2,6.92E2,4.5E1,3.4E1,1.2E1,1.7E1,4.1E1,8.72E2,1.27E2,2E0,7.1E1,4.3E1,1.245E3,5.6E1,5E0,6.3E1,4.6E1,1.22E2,2.38E2,5.4242E4,7.38E2,7.8E1,2.4E1,2E0,2.19E2,5.44E2,7E0,6.85E2,1.8E1,2.7E1,3.4E1,7E0,8.36E2,3.6E1,2E1,2.3E1,4.9E1,7E0,3.7E1,9E0,3.1E1,2.07E2,5.241E4,1.832E3,1.1E1,6.7E1,1E0,1E0,4E0,2.15E2,4.51E2,9.3E1,2E0,5E0,2E0,2.5E1,2E0,3.2E1,7E0,2.9E1,1E0,3.6E1,4E0,2.7E1,1.686E3,1.46E2,1E1,1E0,2E0,2E0,2E2,1.5E1,4.28E2,2.3E1,2.4E1,1E0,1E0,3.1E1,1.8E1,1.28E2,2E0,1.3E1,1.94E2,2.34E2,3E1,1E0,9E0,9E0,1E0,1E0,1.08E2,8.6E1,1.2E1,2.22E2,6E0,3E0,4E0,1.04E2,8E1,6E0,3E0,2.19E2,5E0,1E0,3E0,1E0,2E0,4E0,2.17E2,2E0,2.15E2,2E0,2.13E2,2E0,2.11E2,2E0],"tree_param":{"num_deleted":"0","num_feature":"15","num_nodes":"169","size_leaf_vector":"1"}},{"base_weights":[1.2407474E-5,4.8126614E-1,-1.3541954E-2,1.13201946E-1,8.0500895E-1,1.0113404E-1,-1.6470293E-2,3.639246E-1,-3.1998085E-3,-1.0973625E-2,8.8460743E-1,6.415028E-1,3.640804E-2,-2.0847207E-2,7.2117574E-3,1.0180997E-1,8.357607E-1,9.286737E-2,-1.0869709E-3,-1.0769591E-3,1.20399445E-1,-1.009266E-3,8.964182E-1,-1.0654866E-3,8.466988E-1,-1.576674E-3,5.43483E-1,1.4100772E-2,-2.1450395E-2,-2.1668162E-2,1.8457235E-1,-1.0792251E-3,2.6403502E-1,4.5937978E-2,-9.852247E-4,-1.0744211E-3,3.6041382E-1,2.381619E-2,-9.1542926E-4,9.0345144E-1,-9.591111E-4,9.068363E-1,-9.878994E-4,1.6879793E-1,-1.662391E-2,8.4661084E-1,-1.0617744E-3,-1.0876518E-3,1.8098152E-1,-2.1620603E-2,-1.0073815E-2,1.5055284E-2,-1.088847E-3,3.6895043E-1,-1.8962158E-2,4.7531325E-1,-1.0594403E-3,4.3014403E-2,-1.0314721E-3,6.5836704E-1,9.142076E-1,4.6067383E-2,-7.297961E-4,-1.0746232E-3,4.7634587E-1,-1.0881347E-3,9.599975E-2,-9.1542926E-4,4.5723435E-2,7.073209E-1,-1.0805716E-3,-5.6344173E-3,-2.1690642E-2,-1.0875667E-3,9.929023E-2,-1.0486598E-3,3.1027418E-1,-8.482741E-3,5.206318E-1,2.223949E-1,-1.0874588E-3,-1.0345067E-3,7.949115E-1,7.9442495E-1,-9.591111E-4,4.6074733E-2,7.2465324E-1,-1.0397066E-3,4.4574782E-2,-1.0683069E-3,4.0876828E-2,8.800297E-1,-9.852247E-4,9.883815E-2,-1.0840016E-3,-1.0889431E-3,-1.9156372E-2,7.7535564E-1,-1.073779E-3,-5.4562767E-4,2.381619E-2,3.6893758E-1,-1.7180052E-2,6.3223654E-1,-1.0779812E-3,3.1483512E-2,-9.1542926E-4,-7.387116E-4,8.577633E-1,8.439208E-1,-7.418957E-4,-9.591111E-4,4.4942714E-2,-5.5880984E-4,4.522092E-2,3.751966E-2,-1.052045E-3,-1.0883512E-3,1.0934275E-2,4.239373E-2,-5.5880984E-4,3.1483512E-2,-7.387116E-4,-1.0838287E-3,4.0381283E-2,6.673029E-1,-1.0458779E-3,4.4648394E-2,-5.5880984E-4,-5.5880984E-4,8.709919E-1,2.3138002E-1,-1.080962E-3,3.100984E-1,-1.0149812E-3,5.0014E-1,8.0317295E-1,-5.5403373E-4,4.4990163E-2,4.5937812E-1,-9.878039E-4,-5.5880984E-4,2.381619E-2,8.942183E-1,6.609668E-4,-1.009266E-3,8.4756976E-1,-8.803404E-4,3.9015125E-2,1.7729004E-1,4.5992073E-2,-1.0762176E-3,2.5728238E-1,8.594293E-1,-8.298565E-4,-8.274684E-4,2.381619E-2,3.1483512E-2,-8.803404E-4,8.716167E-1,-8.298565E-4,8.841459E-1,-8.298565E-4,4.46348E-2,-7.387116E-4],"categories":[],"categories_nodes":[],"categories_segments":[],"categories_sizes":[],"default_left":[0,0,0,0,0,0,0,0,0,0,0,0,0,0,0,0,0,0,0,0,0,0,0,0,0,0,0,0,0,0,0,0,0,0,0,0,0,0,0,0,0,0,0,0,0,0,0,0,0,0,0,0,0,0,0,0,0,0,0,0,0,0,0,0,0,0,0,0,0,0,0,0,0,0,0,0,0,0,0,0,0,0,0,0,0,0,0,0,0,0,0,0,0,0,0,0,0,0,0,0,0,0,0,0,0,0,0,0,0,0,0,0,0,0,0,0,0,0,0,0,0,0,0,0,0,0,0,0,0,0,0,0,0,0,0,0,0,0,0,0,0,0,0,0,0,0,0,0,0,0,0,0,0,0,0,0,0,0,0,0,0,0,0,0,0],"id":1,"left_children":[1,3,5,7,9,11,13,15,17,19,21,23,25,27,29,31,33,35,-1,-1,37,-1,39,-1,41,43,45,47,49,51,53,-1,55,-1,-1,-1,57,-1,-1,59,-1,61,-1,63,65,67,-1,-1,69,71,73,75,-1,77,79,81,-1,-1,-1,83,85,-1,-1,-1,87,-1,89,-1,-1,91,-1,93,95,-1,97,-1,99,101,103,105,-1,-1,107,109,-1,-1,111,-1,-1,-1,-1,113,-1,115,-1,-1,117,119,-1,-1,-1,121,123,125,-1,-1,-1,-1,127,129,-1,-1,-1,-1,-1,-1,-1,-1,131,-1,-1,-1,-1,-1,133,135,-1,-1,-1,-1,137,139,-1,141,-1,143,145,-1,-1,147,-1,-1,-1,149,151,-1,153,-1,-1,155,-1,-1,157,159,-1,-1,-1,-1,-1,161,-1,163,-1,-1,-1],"loss_changes":[4.5839688E2,2.2928827E2,2.2953619E1,2.6325634E1,6.651959E1,5.950564E1,6.9083996E0,3.5286003E1,1.1009253E0,1.3029203E-1,9.988342E0,2.4771225E1,2.9296988E1,1.1860828E0,5.3259094E1,3.7089686E0,7.2603683E0,3.0672932E0,0E0,0E0,3.5430783E-1,0E0,5.948242E0,0E0,7.260727E0,3.6329584E0,1.8163256E1,5.7179985E0,1.06861115E-1,3.604889E-2,5.464674E1,0E0,4.8309984E0,0E0,0E0,0E0,5.731958E0,0E0,0E0,1.8075562E0,0E0,1.751709E0,0E0,6.740431E0,7.556199E-1,4.0664635E0,0E0,0E0,1.8036203E1,6.0876846E-2,1.045551E0,2.936872E-1,0E0,4.3743095E1,4.7099477E-1,7.3084497E0,0E0,0E0,0E0,3.8870468E0,5.38147E-1,0E0,0E0,0E0,9.09959E0,0E0,4.8444448E0,0E0,0E0,5.918833E0,0E0,4.0278482E-1,1.1709213E-2,0E0,6.466653E0,0E0,1.6519675E-1,7.2849756E-1,3.2992203E1,7.95789E-1,0E0,0E0,1.4375973E0,1.4144535E0,0E0,0E0,4.8115864E0,0E0,0E0,0E0,0E0,8.3605003E-1,0E0,2.5152385E0,0E0,0E0,1.442315E-1,6.939368E-1,0E0,0E0,0E0,5.0953376E-1,5.6781724E-2,1.036644E1,0E0,0E0,0E0,0E0,8.053379E-1,7.7363014E-1,0E0,0E0,0E0,0E0,0E0,0E0,0E0,0E0,1.0599161E0,0E0,0E0,0E0,0E0,0E0,2.6816177E-1,9.341919E0,0E0,0E0,0E0,0E0,8.2320976E-1,1.0969877E0,0E0,1.6553548E-1,0E0,3.8382015E1,8.607422E0,0E0,0E0,1.5444999E0,0E0,0E0,0E0,1.839241E0,5.0084865E-1,0E0,2.2996826E0,0E0,0E0,2.9770553E-1,0E0,0E0,7.276441E-1,2.3632965E0,0E0,0E0,0E0,0E0,0E0,2.429596E0,0E0,1.6579437E0,0E0,0E0,0E0],"parents":[2147483647,0,0,1,1,2,2,3,3,4,4,5,5,6,6,7,7,8,8,9,9,10,10,11,11,12,12,13,13,14,14,15,15,16,16,17,17,20,20,22,22,24,24,25,25,26,26,27,27,28,28,29,29,30,30,32,32,36,36,39,39,41,41,43,43,44,44,45,45,48,48,49,49,50,50,51,51,53,53,54,54,55,55,59,59,60,60,64,64,66,66,69,69,71,71,72,72,74,74,76,76,77,77,78,78,79,79,82,82,83,83,86,86,91,91,93,93,96,96,97,97,101,101,102,102,103,103,108,108,109,109,118,118,124,124,125,125,130,130,131,131,133,133,135,135,136,136,139,139,143,143,144,144,146,146,149,149,152,152,153,153,159,159,161,161],"right_children":[2,4,6,8,10,12,14,16,18,20,22,24,26,28,30,32,34,36,-1,-1,38,-1,40,-1,42,44,46,48,50,52,54,-1,56,-1,-1,-1,58,-1,-1,60,-1,62,-1,64,66,68,-1,-1,70,72,74,76,-1,78,80,82,-1,-1,-1,84,86,-1,-1,-1,88,-1,90,-1,-1,92,-1,94,96,-1,98,-1,100,102,104,106,-1,-1,108,110,-1,-1,112,-1,-1,-1,-1,114,-1,116,-1,-1,118,120,-1,-1,-1,122,124,126,-1,-1,-1,-1,128,130,-1,-1,-1,-1,-1,-1,-1,-1,132,-1,-1,-1,-1,-1,134,136,-1,-1,-1,-1,138,140,-1,142,-1,144,146,-1,-1,148,-1,-1,-1,150,152,-1,154,-1,-1,156,-1,-1,158,160,-1,-1,-1,-1,-1,162,-1,164,-1,-1,-1],"split_conditions":[-1.8887215E0,-5.1363163E-2,-1.6828369E0,-7.449615E-1,4.291011E-1,-1.9850543E0,1.0845606E0,-1.7332324E0,-4.8840576E-1,4.1270602E-1,-1.337692E0,-8.8247293E-1,-8.399053E-1,-1.574687E0,8.2112294E-1,-1.2049301E0,-1.6381539E0,-2.1273004E-1,-1.0869709E-3,-1.0769591E-3,-9.506384E-1,-1.009266E-3,9.2753816E-1,-1.0654866E-3,8.522739E-1,-1.9215198E0,-7.449615E-1,6.935228E-1,1.0128387E0,-1.0655897E0,9.8530924E-1,-1.0792251E-3,-7.8047745E-2,4.5937978E-2,-9.852247E-4,-1.0744211E-3,-1.5648733E-1,2.381619E-2,-9.1542926E-4,4.9942082E-1,-9.591111E-4,-7.8047745E-2,-9.878994E-4,-3.5397857E-1,-1.0132283E0,-1.6819935E0,-1.0617744E-3,-1.0876518E-3,-9.166027E-1,-1.5500139E0,1.1433612E0,2.4006681E0,-1.088847E-3,4.7529268E-1,-1.489298E0,-1.2986027E0,-1.0594403E-3,4.3014403E-2,-1.0314721E-3,-7.95019E-1,1.7766092E0,4.6067383E-2,-7.297961E-4,-1.0746232E-3,-1.132732E0,-1.0881347E-3,3.7415975E-1,-9.1542926E-4,4.5723435E-2,1.1053724E0,-1.0805716E-3,-1.3015941E0,8.604196E-1,-1.0875667E-3,7.430509E-1,-1.0486598E-3,-8.96457E-1,-1.0398335E0,5.9771415E-2,1.004662E0,-1.0874588E-3,-1.0345067E-3,-1.5400186E0,1.4087844E0,-9.591111E-4,4.6074733E-2,-2.0345058E0,-1.0397066E-3,4.4574782E-2,-1.0683069E-3,4.0876828E-2,-9.159425E-1,-9.852247E-4,1.0281333E0,-1.0840016E-3,-1.0889431E-3,1.1715115E0,-4.8604876E-1,-1.073779E-3,-5.4562767E-4,2.381619E-2,-8.491383E-1,4.527873E-1,1.3250201E0,-1.0779812E-3,3.1483512E-2,-9.1542926E-4,-7.387116E-4,8.522739E-1,-9.159425E-1,-7.418957E-4,-9.591111E-4,4.4942714E-2,-5.5880984E-4,4.522092E-2,3.751966E-2,-1.052045E-3,-1.0883512E-3,6.6548306E-1,4.239373E-2,-5.5880984E-4,3.1483512E-2,-7.387116E-4,-1.0838287E-3,-8.3310485E-1,-3.400849E-1,-1.0458779E-3,4.4648394E-2,-5.5880984E-4,-5.5880984E-4,-1.3700413E0,1.755598E-1,-1.080962E-3,-8.578167E-1,-1.0149812E-3,-9.43569E-1,-1.0023274E0,-5.5403373E-4,4.4990163E-2,-1.7310856E-2,-9.878039E-4,-5.5880984E-4,2.381619E-2,1.9133997E0,-3.6507595E-1,-1.009266E-3,1.4978677E-1,-8.803404E-4,3.9015125E-2,-9.466608E-1,4.5992073E-2,-1.0762176E-3,-4.2282638E-1,1.5831286E0,-8.298565E-4,-8.274684E-4,2.381619E-2,3.1483512E-2,-8.803404E-4,8.7793654E-1,-8.298565E-4,6.832883E-1,-8.298565E-4,4.46348E-2,-7.387116E-4],"split_indices":[9,12,9,1,14,5,12,10,1,14,11,2,10,9,2,0,4,2,0,0,0,0,8,0,8,5,1,14,12,11,14,0,2,0,0,0,2,0,0,14,0,2,0,2,4,0,0,0,1,9,2,12,0,14,9,2,0,0,0,2,14,0,0,0,11,0,7,0,0,14,0,11,12,0,14,0,0,10,10,2,0,0,1,3,0,0,4,0,0,0,0,3,0,14,0,0,2,0,0,0,0,1,14,2,0,0,0,0,8,3,0,0,0,0,0,0,0,0,14,0,0,0,0,0,0,10,0,0,0,0,2,4,0,0,0,5,1,0,0,4,0,0,0,12,10,0,5,0,0,4,0,0,5,7,0,0,0,0,0,14,0,8,0,0,0],"split_type":[0,0,0,0,0,0,0,0,0,0,0,0,0,0,0,0,0,0,0,0,0,0,0,0,0,0,0,0,0,0,0,0,0,0,0,0,0,0,0,0,0,0,0,0,0,0,0,0,0,0,0,0,0,0,0,0,0,0,0,0,0,0,0,0,0,0,0,0,0,0,0,0,0,0,0,0,0,0,0,0,0,0,0,0,0,0,0,0,0,0,0,0,0,0,0,0,0,0,0,0,0,0,0,0,0,0,0,0,0,0,0,0,0,0,0,0,0,0,0,0,0,0,0,0,0,0,0,0,0,0,0,0,0,0,0,0,0,0,0,0,0,0,0,0,0,0,0,0,0,0,0,0,0,0,0,0,0,0,0,0,0,0,0,0,0],"sum_hessian":[7.0271E4,1.924E3,6.8347E4,9.01E2,1.023E3,1.701E3,6.6646E4,2.85E2,6.16E2,9.1E1,9.32E2,1.81E2,1.52E3,5.625E4,1.0396E4,1.84E2,1.01E2,9.9E1,5.17E2,8.5E1,6E0,1.2E1,9.2E2,4.3E1,1.38E2,1.415E3,1.05E2,9.54E2,5.5296E4,8.941E3,1.455E3,1.05E2,7.9E1,9.2E1,9E0,7E1,2.9E1,1E0,5E0,9.13E2,7E0,1.29E2,9E0,1.14E2,1.301E3,6.8E1,3.7E1,7.86E2,1.68E2,5.448E4,8.16E2,2.6E1,8.915E3,7.63E2,6.92E2,4.5E1,3.4E1,1.2E1,1.7E1,4.1E1,8.72E2,1.27E2,2E0,7.1E1,4.3E1,1.245E3,5.6E1,5E0,6.3E1,4.6E1,1.22E2,2.38E2,5.4242E4,7.38E2,7.8E1,2.4E1,2E0,2.19E2,5.44E2,7E0,6.85E2,1.8E1,2.7E1,3.4E1,7E0,8.36E2,3.6E1,2E1,2.3E1,4.9E1,7E0,3.7E1,9E0,3.1E1,2.07E2,5.241E4,1.832E3,1.1E1,6.7E1,1E0,1E0,4E0,2.15E2,4.51E2,9.3E1,2E0,5E0,2E0,2.5E1,3.2E1,2E0,7E0,2.9E1,1E0,3.6E1,4E0,2.7E1,1.686E3,1.46E2,1E1,1E0,2E0,2E0,2E2,1.5E1,4.28E2,2.3E1,2.4E1,1E0,1E0,3.1E1,1.8E1,1.28E2,2E0,1.3E1,1.94E2,2.34E2,1E0,3E1,9E0,9E0,1E0,1E0,1.08E2,8.6E1,1.2E1,2.22E2,4E0,5E0,4E0,1.04E2,8E1,6E0,2.19E2,3E0,3E0,1E0,2E0,4E0,2.16E2,3E0,2.13E2,3E0,2.11E2,2E0],"tree_param":{"num_deleted":"0","num_feature":"15","num_nodes":"165","size_leaf_vector":"1"}},{"base_weights":[2.3669709E-5,4.5734674E-1,-1.2856692E-2,1.0768037E-1,7.64907E-1,9.617617E-2,-1.564093E-2,3.4602603E-1,-2.9752778E-3,-1.0187728E-2,8.405167E-1,6.096655E-1,3.466977E-2,-1.9802172E-2,6.8741855E-3,9.693664E-2,7.944134E-1,8.863308E-2,-1.0327273E-3,-1.0237372E-3,1.1765101E-1,-9.626845E-4,8.517398E-1,-1.0134231E-3,8.0468297E-1,-1.4405096E-3,5.1672155E-1,1.34392E-2,-2.0375904E-2,-2.0582391E-2,1.7549358E-1,-1.0257729E-3,2.5134897E-1,4.3665778E-2,-9.408896E-4,-1.0214568E-3,3.4379256E-1,2.3220785E-2,-8.772864E-4,8.5842353E-1,-9.1715E-4,8.618432E-1,-9.434439E-4,1.6072725E-1,-1.5762975E-2,8.049297E-1,-1.0100827E-3,-1.0333383E-3,1.721845E-1,-2.0538302E-2,-9.521564E-3,1.5125552E-2,-1.0344108E-3,3.5074988E-1,-1.797151E-2,4.524675E-1,-1.0079817E-3,4.102912E-2,-9.827637E-4,6.2645286E-1,8.686003E-1,4.378201E-2,-7.054696E-4,-1.0216384E-3,4.53518E-1,-1.0337717E-3,9.189815E-2,-8.772864E-4,4.3472987E-2,6.7288417E-1,-1.0269823E-3,-5.2046482E-3,-2.0605486E-2,-1.0332619E-3,9.484168E-2,-9.983241E-4,3.025173E-1,5.9599304E-1,1.3866512E-1,2.1509616E-1,-1.0331651E-3,-9.855037E-4,7.5671417E-1,7.5593615E-1,-9.1715E-4,4.3773748E-2,6.896093E-1,-9.901968E-4,4.2438906E-2,-1.0159598E-3,3.9088465E-2,8.372035E-1,-9.408896E-4,9.503585E-2,-1.0300621E-3,-1.0344969E-3,-1.817947E-2,7.400741E-1,-1.0208796E-3,-5.31987E-4,2.3220785E-2,3.600168E-2,6.8584085E-1,4.687299E-1,-2.2697363E-2,3.043406E-2,-8.772864E-4,-7.1408786E-4,8.165708E-1,8.030544E-1,-7.171658E-4,-9.1715E-4,4.277048E-2,-5.448396E-4,4.3020982E-2,3.6018874E-2,-1.0013215E-3,-1.0339658E-3,1.0632908E-2,4.046674E-2,-5.448396E-4,4.5115525E-1,-9.6531265E-5,5.4768604E-1,8.468912E-1,7.053836E-1,-1.012631E-3,-1.0297018E-3,-2.605062E-2,4.250527E-2,-5.448396E-4,-5.448396E-4,8.288309E-1,2.2176613E-1,-1.027333E-3,-5.355659E-4,3.043406E-2,-1.0112708E-3,1.0055995E-1,8.501403E-1,-1.0184015E-3,-8.366948E-4,8.726041E-1,8.27623E-1,-2.6049301E-2,-3.105279E-2,-1.0170744E-3,-5.4018287E-4,4.281322E-2,4.4022268E-1,-9.4335264E-4,2.3220785E-2,-8.8822714E-4,1.7302327E-1,4.371437E-2,-5.1792973E-4,4.3963533E-2,-7.89864E-4,8.615705E-1,-9.621444E-4,-2.8633166E-3,-1.0127494E-3,-5.475677E-2,-8.451268E-4,3.73895E-2,-7.964383E-4,2.3220785E-2,4.367508E-2,-5.332873E-4,-4.7721947E-3,-2.7585912E-2,-4.51046E-2,-9.3406247E-4,-5.1952846E-4,-2.8633166E-3],"categories":[],"categories_nodes":[],"categories_segments":[],"categories_sizes":[],"default_left":[0,0,0,0,0,0,0,0,0,0,0,0,0,0,0,0,0,0,0,0,0,0,0,0,0,0,0,0,0,0,0,0,0,0,0,0,0,0,0,0,0,0,0,0,0,0,0,0,0,0,0,0,0,0,0,0,0,0,0,0,0,0,0,0,0,0,0,0,0,0,0,0,0,0,0,0,0,0,0,0,0,0,0,0,0,0,0,0,0,0,0,0,0,0,0,0,0,0,0,0,0,0,0,0,0,0,0,0,0,0,0,0,0,0,0,0,0,0,0,0,0,0,0,0,0,0,0,0,0,0,0,0,0,0,0,0,0,0,0,0,0,0,0,0,0,0,0,0,0,0,0,0,0,0,0,0,0,0,0,0,0,0,0,0,0,0,0,0,0,0,0,0,0,0,0],"id":2,"left_children":[1,3,5,7,9,11,13,15,17,19,21,23,25,27,29,31,33,35,-1,-1,37,-1,39,-1,41,43,45,47,49,51,53,-1,55,-1,-1,-1,57,-1,-1,59,-1,61,-1,63,65,67,-1,-1,69,71,73,75,-1,77,79,81,-1,-1,-1,83,85,-1,-1,-1,87,-1,89,-1,-1,91,-1,93,95,-1,97,-1,99,101,103,105,-1,-1,107,109,-1,-1,111,-1,-1,-1,-1,113,-1,115,-1,-1,117,119,-1,-1,-1,121,123,125,127,-1,-1,-1,129,131,-1,-1,-1,-1,-1,-1,-1,-1,133,-1,-1,135,137,139,141,143,-1,-1,145,-1,-1,-1,147,149,-1,-1,-1,-1,151,153,-1,-1,155,157,159,161,-1,-1,-1,163,-1,-1,-1,165,-1,-1,-1,-1,167,-1,-1,-1,169,-1,-1,-1,-1,-1,-1,-1,171,173,-1,-1,-1],"loss_changes":[4.1394217E2,2.0693884E2,2.0750137E1,2.3790646E1,6.0019653E1,5.3732925E1,6.2443504E0,3.186591E1,1.0011046E0,1.2339616E-1,9.019226E0,2.2374664E1,2.6476831E1,1.0730724E0,4.8138725E1,3.3603268E0,6.5613403E0,2.789849E0,0E0,0E0,3.3631867E-1,0E0,5.371704E0,0E0,6.559616E0,3.2913947E0,1.6419296E1,5.1740828E0,9.7278595E-2,3.410268E-2,4.93734E1,0E0,4.377554E0,0E0,0E0,0E0,5.214777E0,0E0,0E0,1.6135864E0,0E0,1.5834656E0,0E0,6.1090937E0,6.905026E-1,3.6773872E0,0E0,0E0,1.63218E1,5.6016922E-2,9.521228E-1,2.7833956E-1,0E0,3.9654778E1,4.392119E-1,6.623205E0,0E0,0E0,0E0,3.5204563E0,4.7045898E-1,0E0,0E0,0E0,8.248561E0,0E0,4.428569E0,0E0,0E0,5.3577747E0,0E0,3.7082142E-1,1.0738373E-2,0E0,5.8902626E0,0E0,1.5704012E-1,1.778646E1,2.190053E1,7.4319476E-1,0E0,0E0,1.3038406E0,1.2818184E0,0E0,0E0,4.3587E0,0E0,0E0,0E0,0E0,7.575817E-1,0E0,2.31693E0,0E0,0E0,1.3224447E-1,6.3297224E-1,0E0,0E0,0E0,7.493586E-1,6.3223877E0,1.5636423E1,1.4171898E-3,0E0,0E0,0E0,7.3073196E-1,7.0139885E-1,0E0,0E0,0E0,0E0,0E0,0E0,0E0,0E0,9.7226375E-1,0E0,0E0,2.975437E-1,9.7260684E-2,2.870964E1,3.1012802E0,8.157864E0,0E0,0E0,2.309814E-3,0E0,0E0,0E0,7.463398E-1,1.0070959E0,0E0,0E0,0E0,0E0,3.526745E-1,1.630928E0,0E0,0E0,8.0376434E-1,2.2469025E0,1.872695E-3,1.2456302E-2,0E0,0E0,0E0,1.4186069E0,0E0,0E0,0E0,2.826935E-1,0E0,0E0,0E0,0E0,7.898216E-1,0E0,0E0,0E0,1.5055157E-2,0E0,0E0,0E0,0E0,0E0,0E0,0E0,8.7336823E-4,6.715185E-4,0E0,0E0,0E0],"parents":[2147483647,0,0,1,1,2,2,3,3,4,4,5,5,6,6,7,7,8,8,9,9,10,10,11,11,12,12,13,13,14,14,15,15,16,16,17,17,20,20,22,22,24,24,25,25,26,26,27,27,28,28,29,29,30,30,32,32,36,36,39,39,41,41,43,43,44,44,45,45,48,48,49,49,50,50,51,51,53,53,54,54,55,55,59,59,60,60,64,64,66,66,69,69,71,71,72,72,74,74,76,76,77,77,78,78,79,79,82,82,83,83,86,86,91,91,93,93,96,96,97,97,101,101,102,102,103,103,104,104,108,108,109,109,118,118,121,121,122,122,123,123,124,124,125,125,128,128,132,132,133,133,138,138,139,139,142,142,143,143,144,144,145,145,149,149,153,153,158,158,162,162,170,170,171,171],"right_children":[2,4,6,8,10,12,14,16,18,20,22,24,26,28,30,32,34,36,-1,-1,38,-1,40,-1,42,44,46,48,50,52,54,-1,56,-1,-1,-1,58,-1,-1,60,-1,62,-1,64,66,68,-1,-1,70,72,74,76,-1,78,80,82,-1,-1,-1,84,86,-1,-1,-1,88,-1,90,-1,-1,92,-1,94,96,-1,98,-1,100,102,104,106,-1,-1,108,110,-1,-1,112,-1,-1,-1,-1,114,-1,116,-1,-1,118,120,-1,-1,-1,122,124,126,128,-1,-1,-1,130,132,-1,-1,-1,-1,-1,-1,-1,-1,134,-1,-1,136,138,140,142,144,-1,-1,146,-1,-1,-1,148,150,-1,-1,-1,-1,152,154,-1,-1,156,158,160,162,-1,-1,-1,164,-1,-1,-1,166,-1,-1,-1,-1,168,-1,-1,-1,170,-1,-1,-1,-1,-1,-1,-1,172,174,-1,-1,-1],"split_conditions":[-1.8887215E0,-5.1363163E-2,-1.6828369E0,-7.449615E-1,4.291011E-1,-1.9850543E0,1.0845606E0,-1.7332324E0,-4.8840576E-1,4.1270602E-1,-1.337692E0,-8.8247293E-1,-8.399053E-1,-1.574687E0,8.2112294E-1,-1.2049301E0,-1.6381539E0,-2.1273004E-1,-1.0327273E-3,-1.0237372E-3,-9.506384E-1,-9.626845E-4,9.2753816E-1,-1.0134231E-3,8.522739E-1,-1.9215198E0,-7.449615E-1,6.935228E-1,1.0128387E0,-1.0655897E0,9.8530924E-1,-1.0257729E-3,-7.8047745E-2,4.3665778E-2,-9.408896E-4,-1.0214568E-3,-1.5648733E-1,2.3220785E-2,-8.772864E-4,4.9942082E-1,-9.1715E-4,-7.8047745E-2,-9.434439E-4,-3.5397857E-1,-1.0132283E0,-1.6819935E0,-1.0100827E-3,-1.0333383E-3,-9.166027E-1,-1.5500139E0,1.1433612E0,2.4006681E0,-1.0344108E-3,-3.6801136E-1,-1.489298E0,-1.2986027E0,-1.0079817E-3,4.102912E-2,-9.827637E-4,-7.95019E-1,1.7766092E0,4.378201E-2,-7.054696E-4,-1.0216384E-3,-1.132732E0,-1.0337717E-3,3.7415975E-1,-8.772864E-4,4.3472987E-2,1.1053724E0,-1.0269823E-3,-1.3015941E0,8.604196E-1,-1.0332619E-3,7.430509E-1,-9.983241E-4,-8.96457E-1,4.7529268E-1,-3.7533775E-1,1.004662E0,-1.0331651E-3,-9.855037E-4,-1.5400186E0,1.4087844E0,-9.1715E-4,4.3773748E-2,-2.0345058E0,-9.901968E-4,4.2438906E-2,-1.0159598E-3,3.9088465E-2,-9.159425E-1,-9.408896E-4,1.0281333E0,-1.0300621E-3,-1.0344969E-3,1.1715115E0,-4.8604876E-1,-1.0208796E-3,-5.31987E-4,2.3220785E-2,-1.0398335E0,-4.1687626E-1,5.9771415E-2,4.9942082E-1,3.043406E-2,-8.772864E-4,-7.1408786E-4,8.522739E-1,-9.159425E-1,-7.171658E-4,-9.1715E-4,4.277048E-2,-5.448396E-4,4.3020982E-2,3.6018874E-2,-1.0013215E-3,-1.0339658E-3,6.6548306E-1,4.046674E-2,-5.448396E-4,-8.0149055E-1,-4.5798033E-1,-9.43569E-1,-9.805173E-2,5.20377E-1,-1.012631E-3,-1.0297018E-3,-1.6514778E-1,4.250527E-2,-5.448396E-4,-5.448396E-4,-1.3700413E0,1.755598E-1,-1.027333E-3,-5.355659E-4,3.043406E-2,-1.0112708E-3,-4.5023388E-1,1.9133997E0,-1.0184015E-3,-8.366948E-4,1.1164117E0,9.3352455E-1,-3.93208E-1,-2.9010287E-1,-1.0170744E-3,-5.4018287E-4,4.281322E-2,-1.7310856E-2,-9.4335264E-4,2.3220785E-2,-8.8822714E-4,-9.466608E-1,4.371437E-2,-5.1792973E-4,4.3963533E-2,-7.89864E-4,1.4978677E-1,-9.621444E-4,-2.8633166E-3,-1.0127494E-3,6.6548306E-1,-8.451268E-4,3.73895E-2,-7.964383E-4,2.3220785E-2,4.367508E-2,-5.332873E-4,-4.7721947E-3,-2.9737964E-1,-1.0280085E0,-9.3406247E-4,-5.1952846E-4,-2.8633166E-3],"split_indices":[9,12,9,1,14,5,12,10,1,14,11,2,10,9,2,0,4,2,0,0,0,0,8,0,8,5,1,14,12,11,14,0,2,0,0,0,2,0,0,14,0,2,0,2,4,0,0,0,1,9,2,12,0,5,9,2,0,0,0,2,14,0,0,0,11,0,7,0,0,14,0,11,12,0,14,0,0,14,4,2,0,0,1,3,0,0,4,0,0,0,0,3,0,14,0,0,2,0,0,0,0,10,9,10,14,0,0,0,8,3,0,0,0,0,0,0,0,0,14,0,0,0,5,5,4,8,0,0,10,0,0,0,2,4,0,0,0,0,5,12,0,0,2,2,4,10,0,0,0,4,0,0,0,4,0,0,0,0,5,0,0,0,14,0,0,0,0,0,0,0,9,0,0,0,0],"split_type":[0,0,0,0,0,0,0,0,0,0,0,0,0,0,0,0,0,0,0,0,0,0,0,0,0,0,0,0,0,0,0,0,0,0,0,0,0,0,0,0,0,0,0,0,0,0,0,0,0,0,0,0,0,0,0,0,0,0,0,0,0,0,0,0,0,0,0,0,0,0,0,0,0,0,0,0,0,0,0,0,0,0,0,0,0,0,0,0,0,0,0,0,0,0,0,0,0,0,0,0,0,0,0,0,0,0,0,0,0,0,0,0,0,0,0,0,0,0,0,0,0,0,0,0,0,0,0,0,0,0,0,0,0,0,0,0,0,0,0,0,0,0,0,0,0,0,0,0,0,0,0,0,0,0,0,0,0,0,0,0,0,0,0,0,0,0,0,0,0,0,0,0,0,0,0],"sum_hessian":[7.0271E4,1.924E3,6.8347E4,9.01E2,1.023E3,1.701E3,6.6646E4,2.85E2,6.16E2,9.1E1,9.32E2,1.81E2,1.52E3,5.625E4,1.0396E4,1.84E2,1.01E2,9.9E1,5.17E2,8.5E1,6E0,1.2E1,9.2E2,4.3E1,1.38E2,1.415E3,1.05E2,9.54E2,5.5296E4,8.941E3,1.455E3,1.05E2,7.9E1,9.2E1,9E0,7E1,2.9E1,1E0,5E0,9.13E2,7E0,1.29E2,9E0,1.14E2,1.301E3,6.8E1,3.7E1,7.86E2,1.68E2,5.448E4,8.16E2,2.6E1,8.915E3,7.63E2,6.92E2,4.5E1,3.4E1,1.2E1,1.7E1,4.1E1,8.72E2,1.27E2,2E0,7.1E1,4.3E1,1.245E3,5.6E1,5E0,6.3E1,4.6E1,1.22E2,2.38E2,5.4242E4,7.38E2,7.8E1,2.4E1,2E0,3.53E2,4.1E2,7E0,6.85E2,1.8E1,2.7E1,3.4E1,7E0,8.36E2,3.6E1,2E1,2.3E1,4.9E1,7E0,3.7E1,9E0,3.1E1,2.07E2,5.241E4,1.832E3,1.1E1,6.7E1,1E0,1E0,4.9E1,3.04E2,1.34E2,2.76E2,2E0,5E0,2E0,2.5E1,3.2E1,2E0,7E0,2.9E1,1E0,3.6E1,4E0,2.7E1,1.686E3,1.46E2,1E1,1E0,3E0,4.6E1,1.66E2,1.38E2,9E1,4.4E1,1.74E2,1.02E2,2.4E1,1E0,1E0,3.1E1,1.8E1,1.28E2,1E0,2E0,3.9E1,7E0,1.08E2,5.8E1,4E0,1.34E2,7.7E1,1.3E1,5.2E1,5E1,1E0,3E1,9E0,9E0,1E0,6E0,4E0,1.04E2,1E0,1.33E2,3E0,7.4E1,1.2E1,1E0,3.7E1,1.5E1,4E0,5E0,3E0,1E0,7.3E1,1E0,5E0,1E1,2E0,8E0,1E0,1E0],"tree_param":{"num_deleted":"0","num_feature":"15","num_nodes":"175","size_leaf_vector":"1"}},{"base_weights":[3.3893306E-5,4.3461663E-1,-1.2205994E-2,1.0242823E-1,7.268035E-1,9.1461465E-2,-1.4853221E-2,3.2900777E-1,-2.7649382E-3,-9.446605E-3,7.986236E-1,5.794081E-1,3.3014555E-2,-1.8809507E-2,6.5529337E-3,9.229645E-2,7.5511163E-1,8.459168E-2,-9.811906E-4,-9.731456E-4,1.1496039E-1,-9.1825286E-4,8.092884E-1,-9.639035E-4,7.647519E-1,-1.3137759E-3,4.9127778E-1,1.2808575E-2,-1.9355223E-2,-1.9550962E-2,1.6686508E-1,-9.749681E-4,2.3927219E-1,4.1505966E-2,-8.985496E-4,-9.7110326E-4,3.279378E-1,2.2640266E-2,-8.4073277E-4,8.156399E-1,-8.770247E-4,8.190859E-1,-9.0327504E-4,1.5304242E-1,-1.494638E-2,7.653005E-1,-9.609076E-4,-9.81737E-4,1.6381496E-1,-1.9510167E-2,-8.999135E-3,1.5172626E-2,-9.826961E-4,3.3345363E-1,-1.7031776E-2,4.3071938E-1,-9.590226E-4,3.913547E-2,-9.3635544E-4,5.960849E-1,8.2526845E-1,4.1610014E-2,-6.743335E-4,-9.712659E-4,4.3178415E-1,-9.821246E-4,8.797118E-2,-8.4073277E-4,4.13333E-2,6.401237E-1,-9.760507E-4,-4.802209E-3,-1.9574612E-2,-9.816687E-4,9.059202E-2,-9.512887E-4,2.9510173E-1,5.666424E-1,1.3179357E-1,2.0803595E-1,-9.815822E-4,-9.38822E-4,7.203515E-1,7.193111E-1,-8.770247E-4,4.1587677E-2,6.5626E-1,-9.430446E-4,4.0405378E-2,-9.661778E-4,3.7378345E-2,7.9646116E-1,-8.985496E-4,9.137836E-2,-9.788066E-4,-9.827731E-4,-1.7252201E-2,7.0639724E-1,-9.705862E-4,2.2640266E-2,-5.0763524E-4,3.522599E-2,6.51902E-1,4.4557127E-1,-2.1606352E-2,2.9419592E-2,-8.4073277E-4,-6.9028494E-4,7.7735615E-1,-6.96157E-4,7.641714E-1,-8.770247E-4,4.070324E-2,-5.312186E-4,4.0928073E-2,3.457812E-2,-9.530435E-4,-9.822983E-4,1.0336457E-2,3.862734E-2,-5.312186E-4,4.360721E-1,3.6194004E-4,5.206917E-1,8.048532E-1,6.705377E-1,-9.6312456E-4,-9.785108E-4,-2.4856038E-2,4.046502E-2,-5.312186E-4,-5.312186E-4,7.8871584E-1,2.1255155E-1,-9.7636454E-4,-5.2217674E-4,2.9419592E-2,-9.619713E-4,9.8323524E-2,8.0824006E-1,-9.6834445E-4,-8.0322707E-4,8.292957E-1,7.867848E-1,-2.5020083E-2,-2.9690752E-2,-9.672178E-4,4.0741615E-2,-5.223334E-4,-9.01408E-4,4.218761E-1,2.2640266E-2,-8.5016026E-4,1.6885698E-1,4.1549467E-2,-5.049815E-4,4.178176E-2,-7.6024415E-4,8.190671E-1,-9.1773784E-4,-2.7917337E-3,-9.634445E-4,-5.2587003E-2,6.113796E-1,-7.612033E-4,-7.6657184E-4,2.2640266E-2,4.1520834E-2,-5.199551E-4,-4.573353E-3,-2.6599063E-2,-5.033667E-4,3.58316E-2,-4.3976985E-2,-8.9254853E-4,-5.0654024E-4,-2.7917337E-3],"categories":[],"categories_nodes":[],"categories_segments":[],"categories_sizes":[],"default_left":[0,0,0,0,0,0,0,0,0,0,0,0,0,0,0,0,0,0,0,0,0,0,0,0,0,0,0,0,0,0,0,0,0,0,0,0,0,0,0,0,0,0,0,0,0,0,0,0,0,0,0,0,0,0,0,0,0,0,0,0,0,0,0,0,0,0,0,0,0,0,0,0,0,0,0,0,0,0,0,0,0,0,0,0,0,0,0,0,0,0,0,0,0,0,0,0,0,0,0,0,0,0,0,0,0,0,0,0,0,0,0,0,0,0,0,0,0,0,0,0,0,0,0,0,0,0,0,0,0,0,0,0,0,0,0,0,0,0,0,0,0,0,0,0,0,0,0,0,0,0,0,0,0,0,0,0,0,0,0,0,0,0,0,0,0,0,0,0,0,0,0,0,0,0,0,0,0],"id":3,"left_children":[1,3,5,7,9,11,13,15,17,19,21,23,25,27,29,31,33,35,-1,-1,37,-1,39,-1,41,43,45,47,49,51,53,-1,55,-1,-1,-1,57,-1,-1,59,-1,61,-1,63,65,67,-1,-1,69,71,73,75,-1,77,79,81,-1,-1,-1,83,85,-1,-1,-1,87,-1,89,-1,-1,91,-1,93,95,-1,97,-1,99,101,103,105,-1,-1,107,109,-1,-1,111,-1,-1,-1,-1,113,-1,115,-1,-1,117,119,-1,-1,-1,121,123,125,127,-1,-1,-1,129,-1,131,-1,-1,-1,-1,-1,-1,-1,133,-1,-1,135,137,139,141,143,-1,-1,145,-1,-1,-1,147,149,-1,-1,-1,-1,151,153,-1,-1,155,157,159,161,-1,-1,-1,-1,163,-1,-1,165,-1,-1,-1,-1,167,-1,-1,-1,169,171,-1,-1,-1,-1,-1,-1,173,-1,-1,175,-1,-1,-1],"loss_changes":[3.737992E2,1.867681E2,1.8758198E1,2.1499737E1,5.4154297E1,4.852017E1,5.6443806E0,2.8777296E1,9.10337E-1,1.16878524E-1,8.144043E0,2.0209957E1,2.3928122E1,9.708309E-1,4.351233E1,3.0444508E0,5.9296E0,2.5375032E0,0E0,0E0,3.1925046E-1,0E0,4.851013E0,0E0,5.9269714E0,2.9819434E0,1.4842779E1,4.681903E0,8.855629E-2,3.2266855E-2,4.4610405E1,0E0,3.9666643E0,0E0,0E0,0E0,4.744259E0,0E0,0E0,1.4403076E0,0E0,1.4306488E0,0E0,5.536892E0,6.310005E-1,3.32555E0,0E0,0E0,1.477034E1,5.1546097E-2,8.6704373E-1,2.64089E-1,0E0,3.585231E1,4.0959066E-1,6.0021944E0,0E0,0E0,0E0,3.1884365E0,4.1101074E-1,0E0,0E0,0E0,7.477126E0,0E0,4.048401E0,0E0,0E0,4.849901E0,0E0,3.4139928E-1,9.843826E-3,0E0,5.365242E0,0E0,1.4901632E-1,1.6016197E1,1.9792486E1,6.9407964E-1,0E0,0E0,1.1825428E0,1.1618996E0,0E0,0E0,3.94845E0,0E0,0E0,0E0,0E0,6.864948E-1,0E0,2.1342652E0,0E0,0E0,1.21255696E-1,5.773759E-1,0E0,0E0,0E0,6.985981E-1,5.701889E0,1.41301365E1,1.3464242E-3,0E0,0E0,0E0,6.6305447E-1,0E0,6.359348E-1,0E0,0E0,0E0,0E0,0E0,0E0,0E0,8.918689E-1,0E0,0E0,2.7819753E-1,9.214018E-2,2.5949585E1,2.802391E0,7.3776283E0,0E0,0E0,2.1703318E-3,0E0,0E0,0E0,6.763935E-1,9.246595E-1,0E0,0E0,0E0,0E0,3.3474892E-1,1.445137E0,0E0,0E0,7.268219E-1,2.0318832E0,1.850619E-3,1.1633653E-2,0E0,0E0,0E0,0E0,8.376279E-1,0E0,0E0,2.684421E-1,0E0,0E0,0E0,0E0,7.1469116E-1,0E0,0E0,0E0,1.3733663E-2,4.6507597E-1,0E0,0E0,0E0,0E0,0E0,0E0,8.8722864E-4,0E0,0E0,6.38362E-4,0E0,0E0,0E0],"parents":[2147483647,0,0,1,1,2,2,3,3,4,4,5,5,6,6,7,7,8,8,9,9,10,10,11,11,12,12,13,13,14,14,15,15,16,16,17,17,20,20,22,22,24,24,25,25,26,26,27,27,28,28,29,29,30,30,32,32,36,36,39,39,41,41,43,43,44,44,45,45,48,48,49,49,50,50,51,51,53,53,54,54,55,55,59,59,60,60,64,64,66,66,69,69,71,71,72,72,74,74,76,76,77,77,78,78,79,79,82,82,83,83,86,86,91,91,93,93,96,96,97,97,101,101,102,102,103,103,104,104,108,108,110,110,118,118,121,121,122,122,123,123,124,124,125,125,128,128,132,132,133,133,138,138,139,139,142,142,143,143,144,144,145,145,150,150,153,153,158,158,162,162,163,163,170,170,173,173],"right_children":[2,4,6,8,10,12,14,16,18,20,22,24,26,28,30,32,34,36,-1,-1,38,-1,40,-1,42,44,46,48,50,52,54,-1,56,-1,-1,-1,58,-1,-1,60,-1,62,-1,64,66,68,-1,-1,70,72,74,76,-1,78,80,82,-1,-1,-1,84,86,-1,-1,-1,88,-1,90,-1,-1,92,-1,94,96,-1,98,-1,100,102,104,106,-1,-1,108,110,-1,-1,112,-1,-1,-1,-1,114,-1,116,-1,-1,118,120,-1,-1,-1,122,124,126,128,-1,-1,-1,130,-1,132,-1,-1,-1,-1,-1,-1,-1,134,-1,-1,136,138,140,142,144,-1,-1,146,-1,-1,-1,148,150,-1,-1,-1,-1,152,154,-1,-1,156,158,160,162,-1,-1,-1,-1,164,-1,-1,166,-1,-1,-1,-1,168,-1,-1,-1,170,172,-1,-1,-1,-1,-1,-1,174,-1,-1,176,-1,-1,-1],"split_conditions":[-1.8887215E0,-5.1363163E-2,-1.6828369E0,-7.449615E-1,4.291011E-1,-1.9850543E0,1.0845606E0,-1.7332324E0,-4.8840576E-1,4.1270602E-1,-1.337692E0,-8.8247293E-1,-8.399053E-1,-1.574687E0,8.2112294E-1,-1.2049301E0,-1.6381539E0,-2.1273004E-1,-9.811906E-4,-9.731456E-4,-9.506384E-1,-9.1825286E-4,9.2753816E-1,-9.639035E-4,-7.8047745E-2,-1.9215198E0,-7.449615E-1,6.935228E-1,1.0128387E0,-1.0655897E0,9.8530924E-1,-9.749681E-4,-7.8047745E-2,4.1505966E-2,-8.985496E-4,-9.7110326E-4,-1.5648733E-1,2.2640266E-2,-8.4073277E-4,4.9942082E-1,-8.770247E-4,8.522739E-1,-9.0327504E-4,-3.5397857E-1,-1.0132283E0,-1.6819935E0,-9.609076E-4,-9.81737E-4,-9.166027E-1,-1.5500139E0,1.1433612E0,-1.1040002E0,-9.826961E-4,-3.6801136E-1,-1.489298E0,-1.2986027E0,-9.590226E-4,3.913547E-2,-9.3635544E-4,-7.95019E-1,1.7766092E0,4.1610014E-2,-6.743335E-4,-9.712659E-4,-1.132732E0,-9.821246E-4,3.7415975E-1,-8.4073277E-4,4.13333E-2,1.1053724E0,-9.760507E-4,-1.3015941E0,8.604196E-1,-9.816687E-4,7.430509E-1,-9.512887E-4,-8.8151896E-1,4.7529268E-1,-3.7533775E-1,1.004662E0,-9.815822E-4,-9.38822E-4,-1.5400186E0,-1.3700413E0,-8.770247E-4,4.1587677E-2,-2.0345058E0,-9.430446E-4,4.0405378E-2,-9.661778E-4,3.7378345E-2,-9.159425E-1,-8.985496E-4,1.0281333E0,-9.788066E-4,-9.827731E-4,1.1715115E0,-4.8604876E-1,-9.705862E-4,2.2640266E-2,-5.0763524E-4,-1.0398335E0,-4.1687626E-1,5.9771415E-2,4.9942082E-1,2.9419592E-2,-8.4073277E-4,-6.9028494E-4,8.522739E-1,-6.96157E-4,-9.159425E-1,-8.770247E-4,4.070324E-2,-5.312186E-4,4.0928073E-2,3.457812E-2,-9.530435E-4,-9.822983E-4,6.6548306E-1,3.862734E-2,-5.312186E-4,-8.0149055E-1,-4.5798033E-1,-9.43569E-1,-9.805173E-2,5.20377E-1,-9.6312456E-4,-9.785108E-4,-1.6514778E-1,4.046502E-2,-5.312186E-4,-5.312186E-4,1.4087844E0,6.348432E-1,-9.7636454E-4,-5.2217674E-4,2.9419592E-2,-9.619713E-4,-4.5023388E-1,1.9133997E0,-9.6834445E-4,-8.0322707E-4,1.1164117E0,9.3352455E-1,-3.93208E-1,-2.9010287E-1,-9.672178E-4,4.0741615E-2,-5.223334E-4,-9.01408E-4,1.5831286E0,2.2640266E-2,-8.5016026E-4,-9.466608E-1,4.1549467E-2,-5.049815E-4,4.178176E-2,-7.6024415E-4,1.4978677E-1,-9.1773784E-4,-2.7917337E-3,-9.634445E-4,6.6548306E-1,-1.1692324E0,-7.612033E-4,-7.6657184E-4,2.2640266E-2,4.1520834E-2,-5.199551E-4,-4.573353E-3,-2.9737964E-1,-5.033667E-4,3.58316E-2,-1.0280085E0,-8.9254853E-4,-5.0654024E-4,-2.7917337E-3],"split_indices":[9,12,9,1,14,5,12,10,1,14,11,2,10,9,2,0,4,2,0,0,0,0,8,0,2,5,1,14,12,11,14,0,2,0,0,0,2,0,0,14,0,8,0,2,4,0,0,0,1,9,2,9,0,5,9,2,0,0,0,2,14,0,0,0,11,0,7,0,0,14,0,11,12,0,14,0,0,14,4,2,0,0,1,2,0,0,4,0,0,0,0,3,0,14,0,0,2,0,0,0,0,10,9,10,14,0,0,0,8,0,3,0,0,0,0,0,0,0,14,0,0,0,5,5,4,8,0,0,10,0,0,0,3,3,0,0,0,0,5,12,0,0,2,2,4,10,0,0,0,0,7,0,0,4,0,0,0,0,5,0,0,0,14,0,0,0,0,0,0,0,9,0,0,0,0,0,0],"split_type":[0,0,0,0,0,0,0,0,0,0,0,0,0,0,0,0,0,0,0,0,0,0,0,0,0,0,0,0,0,0,0,0,0,0,0,0,0,0,0,0,0,0,0,0,0,0,0,0,0,0,0,0,0,0,0,0,0,0,0,0,0,0,0,0,0,0,0,0,0,0,0,0,0,0,0,0,0,0,0,0,0,0,0,0,0,0,0,0,0,0,0,0,0,0,0,0,0,0,0,0,0,0,0,0,0,0,0,0,0,0,0,0,0,0,0,0,0,0,0,0,0,0,0,0,0,0,0,0,0,0,0,0,0,0,0,0,0,0,0,0,0,0,0,0,0,0,0,0,0,0,0,0,0,0,0,0,0,0,0,0,0,0,0,0,0,0,0,0,0,0,0,0,0,0,0,0,0],"sum_hessian":[7.0271E4,1.924E3,6.8347E4,9.01E2,1.023E3,1.701E3,6.6646E4,2.85E2,6.16E2,9.1E1,9.32E2,1.81E2,1.52E3,5.625E4,1.0396E4,1.84E2,1.01E2,9.9E1,5.17E2,8.5E1,6E0,1.2E1,9.2E2,4.3E1,1.38E2,1.415E3,1.05E2,9.54E2,5.5296E4,8.941E3,1.455E3,1.05E2,7.9E1,9.2E1,9E0,7E1,2.9E1,1E0,5E0,9.13E2,7E0,1.29E2,9E0,1.14E2,1.301E3,6.8E1,3.7E1,7.86E2,1.68E2,5.448E4,8.16E2,2.6E1,8.915E3,7.63E2,6.92E2,4.5E1,3.4E1,1.2E1,1.7E1,4.1E1,8.72E2,1.27E2,2E0,7.1E1,4.3E1,1.245E3,5.6E1,5E0,6.3E1,4.6E1,1.22E2,2.38E2,5.4242E4,7.38E2,7.8E1,2.4E1,2E0,3.53E2,4.1E2,7E0,6.85E2,1.8E1,2.7E1,3.4E1,7E0,8.36E2,3.6E1,2E1,2.3E1,4.9E1,7E0,3.7E1,9E0,3.1E1,2.07E2,5.241E4,1.832E3,1.1E1,6.7E1,1E0,1E0,4.9E1,3.04E2,1.34E2,2.76E2,2E0,5E0,2E0,2.5E1,2E0,3.2E1,7E0,2.9E1,1E0,3.6E1,4E0,2.7E1,1.686E3,1.46E2,1E1,1E0,3E0,4.6E1,1.66E2,1.38E2,9E1,4.4E1,1.74E2,1.02E2,2.4E1,1E0,1E0,3.1E1,1.8E1,1.28E2,1E0,2E0,3.9E1,7E0,1.08E2,5.8E1,4E0,1.34E2,7.7E1,1.3E1,5.2E1,5E1,3E1,1E0,9E0,9E0,1E0,6E0,4E0,1.04E2,1E0,1.33E2,3E0,7.4E1,1.2E1,1E0,3.7E1,1.5E1,6E0,3E0,3E0,1E0,7.3E1,1E0,5E0,1E1,1E0,5E0,2E0,8E0,1E0,1E0],"tree_param":{"num_deleted":"0","num_feature":"15","num_nodes":"177","size_leaf_vector":"1"}},{"base_weights":[4.3094817E-5,4.130166E-1,-1.1588175E-2,9.743234E-2,6.905986E-1,8.6978E-2,-1.4105138E-2,3.1282654E-1,-2.5679437E-3,-8.7479E-3,7.588186E-1,5.506524E-1,3.1438418E-2,-1.7866595E-2,6.2468653E-3,8.787823E-2,7.177541E-1,8.073438E-2,-9.322258E-4,-9.25054E-4,1.1232658E-1,-8.7587204E-4,7.689528E-1,-9.1680366E-4,7.268023E-1,-1.1958831E-3,4.6708682E-1,1.2207456E-2,-1.8385662E-2,-1.8571155E-2,1.5866204E-1,-9.266796E-4,2.2777541E-1,3.945298E-2,-8.5811486E-4,-9.23232E-4,3.1281424E-1,2.2074258E-2,-8.0570224E-4,7.749887E-1,-8.386549E-4,7.784465E-1,-8.626277E-4,1.4572501E-1,-1.4171848E-2,7.2762233E-1,-9.1412663E-4,-9.327125E-4,1.5585215E-1,-1.8533496E-2,-8.50494E-3,1.5198487E-2,-9.335668E-4,3.1701204E-1,-1.6140364E-2,4.1001612E-1,-9.124415E-4,3.732922E-2,-8.921387E-4,5.671881E-1,7.8409827E-1,3.9545767E-2,-6.518557E-4,-9.2337717E-4,4.110918E-1,-9.3305774E-4,8.421143E-2,-8.0570224E-4,3.9298926E-2,6.089579E-1,-9.276449E-4,-4.4255024E-3,-1.8595316E-2,-9.3265175E-4,8.6532354E-2,-9.0563E-4,2.877247E-1,5.387415E-1,1.2526204E-1,2.012065E-1,-9.325747E-4,-8.943515E-4,6.857355E-1,6.8445957E-1,-8.386549E-4,3.951078E-2,6.245234E-1,-8.981377E-4,3.8469285E-2,-9.1883505E-4,3.5743043E-2,7.5770116E-1,-8.5811486E-4,8.786023E-2,-9.3010155E-4,-9.3363546E-4,-1.6372293E-2,6.74252E-1,-9.2277053E-4,-4.949051E-4,2.2074258E-2,3.44592E-2,6.1964434E-1,4.2355618E-1,-2.0568177E-2,2.8438939E-2,-8.0570224E-4,-6.6727545E-4,7.4002427E-1,-6.7295175E-4,7.2716546E-1,-8.386549E-4,3.873592E-2,-5.179381E-4,3.8936976E-2,3.3194996E-2,-9.070932E-4,-9.332125E-4,1.0042012E-2,3.6871552E-2,-5.179381E-4,4.2149284E-1,7.869937E-4,4.950311E-1,7.6490176E-1,6.374123E-1,-9.1603847E-4,-9.2986476E-4,-2.371707E-2,3.85227E-2,-5.179381E-4,-5.179381E-4,7.505368E-1,2.0369586E-1,-9.2792464E-4,-5.091223E-4,2.8438939E-2,-9.150752E-4,9.613111E-2,7.6840985E-1,-9.207478E-4,-7.71098E-4,7.8813666E-1,7.4796146E-1,-2.4034042E-2,-2.8389754E-2,-9.198052E-4,3.877024E-2,-5.09275E-4,4.0429676E-1,-8.637306E-4,2.2074258E-2,-8.137249E-4,1.6478886E-1,3.9491776E-2,-4.9235695E-4,3.9708264E-2,-7.3173497E-4,7.786604E-1,-8.7538065E-4,-2.7219404E-3,-9.1653987E-4,-5.0505415E-2,-7.766675E-4,3.433862E-2,-7.378254E-4,2.2074258E-2,3.9472844E-2,-5.0695625E-4,-4.3827966E-3,-2.5650095E-2,-4.2877562E-2,-8.528798E-4,-4.9387675E-4,-2.7219404E-3],"categories":[],"categories_nodes":[],"categories_segments":[],"categories_sizes":[],"default_left":[0,0,0,0,0,0,0,0,0,0,0,0,0,0,0,0,0,0,0,0,0,0,0,0,0,0,0,0,0,0,0,0,0,0,0,0,0,0,0,0,0,0,0,0,0,0,0,0,0,0,0,0,0,0,0,0,0,0,0,0,0,0,0,0,0,0,0,0,0,0,0,0,0,0,0,0,0,0,0,0,0,0,0,0,0,0,0,0,0,0,0,0,0,0,0,0,0,0,0,0,0,0,0,0,0,0,0,0,0,0,0,0,0,0,0,0,0,0,0,0,0,0,0,0,0,0,0,0,0,0,0,0,0,0,0,0,0,0,0,0,0,0,0,0,0,0,0,0,0,0,0,0,0,0,0,0,0,0,0,0,0,0,0,0,0,0,0,0,0,0,0,0,0,0,0],"id":4,"left_children":[1,3,5,7,9,11,13,15,17,19,21,23,25,27,29,31,33,35,-1,-1,37,-1,39,-1,41,43,45,47,49,51,53,-1,55,-1,-1,-1,57,-1,-1,59,-1,61,-1,63,65,67,-1,-1,69,71,73,75,-1,77,79,81,-1,-1,-1,83,85,-1,-1,-1,87,-1,89,-1,-1,91,-1,93,95,-1,97,-1,99,101,103,105,-1,-1,107,109,-1,-1,111,-1,-1,-1,-1,113,-1,115,-1,-1,117,119,-1,-1,-1,121,123,125,127,-1,-1,-1,129,-1,131,-1,-1,-1,-1,-1,-1,-1,133,-1,-1,135,137,139,141,143,-1,-1,145,-1,-1,-1,147,149,-1,-1,-1,-1,151,153,-1,-1,155,157,159,161,-1,-1,-1,163,-1,-1,-1,165,-1,-1,-1,-1,167,-1,-1,-1,169,-1,-1,-1,-1,-1,-1,-1,171,173,-1,-1,-1],"loss_changes":[3.3754977E2,1.6856369E2,1.6957508E1,1.9429417E1,4.8861084E1,4.381308E1,5.102151E0,2.5988028E1,8.2780135E-1,1.107174E-1,7.353821E0,1.8254688E1,2.1624739E1,8.783283E-1,3.933108E1,2.7582633E0,5.3587036E0,2.307985E0,0E0,0E0,3.0305547E-1,0E0,4.3809204E0,0E0,5.35466E0,2.7015848E0,1.3417637E1,4.2365375E0,8.0616E-2,3.0534983E-2,4.030714E1,0E0,3.5943332E0,0E0,0E0,0E0,4.3161955E0,0E0,0E0,1.2854614E0,0E0,1.2932587E0,0E0,5.0182858E0,5.766293E-1,3.0073738E0,0E0,0E0,1.3366343E1,4.7431946E-2,7.8956765E-1,2.5032133E-1,0E0,3.2415222E1,3.819825E-1,5.4394E0,0E0,0E0,0E0,2.8877249E0,3.587036E-1,0E0,0E0,0E0,6.777836E0,0E0,3.7008743E0,0E0,0E0,4.390167E0,0E0,3.1431597E-1,9.027481E-3,0E0,4.88701E0,0E0,1.4165774E-1,1.4421097E1,1.7887335E1,6.482133E-1,0E0,0E0,1.0725393E0,1.0529709E0,0E0,0E0,3.5768147E0,0E0,0E0,0E0,0E0,6.2210083E-1,0E0,1.9660096E0,0E0,0E0,1.1115804E-1,5.266757E-1,0E0,0E0,0E0,6.5128213E-1,5.142151E0,1.2768919E1,1.2780204E-3,0E0,0E0,0E0,6.0166264E-1,0E0,5.765953E-1,0E0,0E0,0E0,0E0,0E0,0E0,0E0,8.179541E-1,0E0,0E0,2.6011032E-1,8.729821E-2,2.3455147E1,2.5323257E0,6.6721077E0,0E0,0E0,2.0386465E-3,0E0,0E0,0E0,6.132622E-1,8.491946E-1,0E0,0E0,0E0,0E0,3.177428E-1,1.279541E0,0E0,0E0,6.572647E-1,1.8374519E0,1.824989E-3,1.0864597E-2,0E0,0E0,0E0,1.1965857E0,0E0,0E0,0E0,2.549125E-1,0E0,0E0,0E0,0E0,6.467209E-1,0E0,0E0,0E0,1.2525827E-2,0E0,0E0,0E0,0E0,0E0,0E0,0E0,8.969093E-4,6.068428E-4,0E0,0E0,0E0],"parents":[2147483647,0,0,1,1,2,2,3,3,4,4,5,5,6,6,7,7,8,8,9,9,10,10,11,11,12,12,13,13,14,14,15,15,16,16,17,17,20,20,22,22,24,24,25,25,26,26,27,27,28,28,29,29,30,30,32,32,36,36,39,39,41,41,43,43,44,44,45,45,48,48,49,49,50,50,51,51,53,53,54,54,55,55,59,59,60,60,64,64,66,66,69,69,71,71,72,72,74,74,76,76,77,77,78,78,79,79,82,82,83,83,86,86,91,91,93,93,96,96,97,97,101,101,102,102,103,103,104,104,108,108,110,110,118,118,121,121,122,122,123,123,124,124,125,125,128,128,132,132,133,133,138,138,139,139,142,142,143,143,144,144,145,145,149,149,153,153,158,158,162,162,170,170,171,171],"right_children":[2,4,6,8,10,12,14,16,18,20,22,24,26,28,30,32,34,36,-1,-1,38,-1,40,-1,42,44,46,48,50,52,54,-1,56,-1,-1,-1,58,-1,-1,60,-1,62,-1,64,66,68,-1,-1,70,72,74,76,-1,78,80,82,-1,-1,-1,84,86,-1,-1,-1,88,-1,90,-1,-1,92,-1,94,96,-1,98,-1,100,102,104,106,-1,-1,108,110,-1,-1,112,-1,-1,-1,-1,114,-1,116,-1,-1,118,120,-1,-1,-1,122,124,126,128,-1,-1,-1,130,-1,132,-1,-1,-1,-1,-1,-1,-1,134,-1,-1,136,138,140,142,144,-1,-1,146,-1,-1,-1,148,150,-1,-1,-1,-1,152,154,-1,-1,156,158,160,162,-1,-1,-1,164,-1,-1,-1,166,-1,-1,-1,-1,168,-1,-1,-1,170,-1,-1,-1,-1,-1,-1,-1,172,174,-1,-1,-1],"split_conditions":[-1.8887215E0,-5.1363163E-2,-1.6828369E0,-7.449615E-1,4.291011E-1,-1.9850543E0,1.0845606E0,-1.7332324E0,-4.8840576E-1,4.1270602E-1,-1.337692E0,-8.8247293E-1,-8.399053E-1,-1.574687E0,8.2112294E-1,-1.2049301E0,-1.6381539E0,-2.1273004E-1,-9.322258E-4,-9.25054E-4,-9.506384E-1,-8.7587204E-4,9.2753816E-1,-9.1680366E-4,-7.8047745E-2,-1.9215198E0,-7.449615E-1,6.935228E-1,1.0128387E0,-1.0655897E0,9.8530924E-1,-9.266796E-4,-7.8047745E-2,3.945298E-2,-8.5811486E-4,-9.23232E-4,-1.5648733E-1,2.2074258E-2,-8.0570224E-4,4.9942082E-1,-8.386549E-4,8.522739E-1,-8.626277E-4,-3.5397857E-1,-1.0132283E0,-1.6819935E0,-9.1412663E-4,-9.327125E-4,-9.166027E-1,-1.5500139E0,1.1433612E0,2.4006681E0,-9.335668E-4,-3.6801136E-1,-1.489298E0,-1.2986027E0,-9.124415E-4,3.732922E-2,-8.921387E-4,-7.95019E-1,1.7766092E0,3.9545767E-2,-6.518557E-4,-9.2337717E-4,-1.132732E0,-9.3305774E-4,3.7415975E-1,-8.0570224E-4,3.9298926E-2,1.1053724E0,-9.276449E-4,-1.3015941E0,8.604196E-1,-9.3265175E-4,7.430509E-1,-9.0563E-4,-8.96457E-1,4.7529268E-1,-3.7533775E-1,1.004662E0,-9.325747E-4,-8.943515E-4,-1.5400186E0,-1.3700413E0,-8.386549E-4,3.951078E-2,-2.0345058E0,-8.981377E-4,3.8469285E-2,-9.1883505E-4,3.5743043E-2,-9.159425E-1,-8.5811486E-4,1.0281333E0,-9.3010155E-4,-9.3363546E-4,1.1715115E0,-4.8604876E-1,-9.2277053E-4,-4.949051E-4,2.2074258E-2,-1.0398335E0,-4.1687626E-1,5.9771415E-2,4.9942082E-1,2.8438939E-2,-8.0570224E-4,-6.6727545E-4,8.522739E-1,-6.7295175E-4,-9.159425E-1,-8.386549E-4,3.873592E-2,-5.179381E-4,3.8936976E-2,3.3194996E-2,-9.070932E-4,-9.332125E-4,6.6548306E-1,3.6871552E-2,-5.179381E-4,-8.0149055E-1,-4.5798033E-1,-9.43569E-1,-9.805173E-2,5.20377E-1,-9.1603847E-4,-9.2986476E-4,-1.6514778E-1,3.85227E-2,-5.179381E-4,-5.179381E-4,1.4087844E0,1.755598E-1,-9.2792464E-4,-5.091223E-4,2.8438939E-2,-9.150752E-4,-4.5023388E-1,1.9133997E0,-9.207478E-4,-7.71098E-4,1.1164117E0,9.3352455E-1,-3.93208E-1,-2.9010287E-1,-9.198052E-4,3.877024E-2,-5.09275E-4,-1.7310856E-2,-8.637306E-4,2.2074258E-2,-8.137249E-4,-9.466608E-1,3.9491776E-2,-4.9235695E-4,3.9708264E-2,-7.3173497E-4,1.4978677E-1,-8.7538065E-4,-2.7219404E-3,-9.1653987E-4,6.6548306E-1,-7.766675E-4,3.433862E-2,-7.378254E-4,2.2074258E-2,3.9472844E-2,-5.0695625E-4,-4.3827966E-3,-2.9737964E-1,-1.0280085E0,-8.528798E-4,-4.9387675E-4,-2.7219404E-3],"split_indices":[9,12,9,1,14,5,12,10,1,14,11,2,10,9,2,0,4,2,0,0,0,0,8,0,2,5,1,14,12,11,14,0,2,0,0,0,2,0,0,14,0,8,0,2,4,0,0,0,1,9,2,12,0,5,9,2,0,0,0,2,14,0,0,0,11,0,7,0,0,14,0,11,12,0,14,0,0,14,4,2,0,0,1,2,0,0,4,0,0,0,0,3,0,14,0,0,2,0,0,0,0,10,9,10,14,0,0,0,8,0,3,0,0,0,0,0,0,0,14,0,0,0,5,5,4,8,0,0,10,0,0,0,3,4,0,0,0,0,5,12,0,0,2,2,4,10,0,0,0,4,0,0,0,4,0,0,0,0,5,0,0,0,14,0,0,0,0,0,0,0,9,0,0,0,0],"split_type":[0,0,0,0,0,0,0,0,0,0,0,0,0,0,0,0,0,0,0,0,0,0,0,0,0,0,0,0,0,0,0,0,0,0,0,0,0,0,0,0,0,0,0,0,0,0,0,0,0,0,0,0,0,0,0,0,0,0,0,0,0,0,0,0,0,0,0,0,0,0,0,0,0,0,0,0,0,0,0,0,0,0,0,0,0,0,0,0,0,0,0,0,0,0,0,0,0,0,0,0,0,0,0,0,0,0,0,0,0,0,0,0,0,0,0,0,0,0,0,0,0,0,0,0,0,0,0,0,0,0,0,0,0,0,0,0,0,0,0,0,0,0,0,0,0,0,0,0,0,0,0,0,0,0,0,0,0,0,0,0,0,0,0,0,0,0,0,0,0,0,0,0,0,0,0],"sum_hessian":[7.0271E4,1.924E3,6.8347E4,9.01E2,1.023E3,1.701E3,6.6646E4,2.85E2,6.16E2,9.1E1,9.32E2,1.81E2,1.52E3,5.625E4,1.0396E4,1.84E2,1.01E2,9.9E1,5.17E2,8.5E1,6E0,1.2E1,9.2E2,4.3E1,1.38E2,1.415E3,1.05E2,9.54E2,5.5296E4,8.941E3,1.455E3,1.05E2,7.9E1,9.2E1,9E0,7E1,2.9E1,1E0,5E0,9.13E2,7E0,1.29E2,9E0,1.14E2,1.301E3,6.8E1,3.7E1,7.86E2,1.68E2,5.448E4,8.16E2,2.6E1,8.915E3,7.63E2,6.92E2,4.5E1,3.4E1,1.2E1,1.7E1,4.1E1,8.72E2,1.27E2,2E0,7.1E1,4.3E1,1.245E3,5.6E1,5E0,6.3E1,4.6E1,1.22E2,2.38E2,5.4242E4,7.38E2,7.8E1,2.4E1,2E0,3.53E2,4.1E2,7E0,6.85E2,1.8E1,2.7E1,3.4E1,7E0,8.36E2,3.6E1,2E1,2.3E1,4.9E1,7E0,3.7E1,9E0,3.1E1,2.07E2,5.241E4,1.832E3,1.1E1,6.7E1,1E0,1E0,4.9E1,3.04E2,1.34E2,2.76E2,2E0,5E0,2E0,2.5E1,2E0,3.2E1,7E0,2.9E1,1E0,3.6E1,4E0,2.7E1,1.686E3,1.46E2,1E1,1E0,3E0,4.6E1,1.66E2,1.38E2,9E1,4.4E1,1.74E2,1.02E2,2.4E1,1E0,1E0,3.1E1,1.8E1,1.28E2,1E0,2E0,3.9E1,7E0,1.08E2,5.8E1,4E0,1.34E2,7.7E1,1.3E1,5.2E1,5E1,3E1,1E0,9E0,9E0,1E0,6E0,4E0,1.04E2,1E0,1.33E2,3E0,7.4E1,1.2E1,1E0,3.7E1,1.5E1,4E0,5E0,3E0,1E0,7.3E1,1E0,5E0,1E1,2E0,8E0,1E0,1E0],"tree_param":{"num_deleted":"0","num_feature":"15","num_nodes":"175","size_leaf_vector":"1"}},{"base_weights":[5.1360974E-5,3.9249045E-1,-1.1001564E-2,9.2680216E-2,6.561978E-1,8.271444E-2,-1.3394674E-2,2.9744115E-1,-2.383498E-3,-8.089379E-3,7.2099763E-1,5.233237E-1,2.9937582E-2,-1.6970927E-2,5.9552565E-3,8.367136E-2,6.822448E-1,7.7052794E-2,-8.857045E-4,-8.793391E-4,1.09748624E-1,-8.354472E-4,7.3062754E-1,-8.7200536E-4,6.907358E-1,-1.0862732E-3,4.4408703E-1,1.1634465E-2,-1.7464647E-2,-1.764039E-2,1.5086344E-1,-8.8078267E-4,2.1683076E-1,3.7501544E-2,-8.194997E-4,-8.777206E-4,2.983881E-1,2.1522403E-2,-7.721313E-4,7.363636E-1,-8.0196373E-4,7.398266E-1,-8.2592043E-4,1.3875742E-1,-1.34372255E-2,6.917991E-1,-8.696231E-4,-8.861362E-4,1.4827631E-1,-1.7605696E-2,-8.0374675E-3,1.5204257E-2,-8.8689366E-4,3.013828E-1,-1.5294816E-2,3.9030755E-1,-8.6812297E-4,3.5606336E-2,-8.500099E-4,5.396913E-1,7.44982E-1,3.7583925E-2,-6.2309054E-4,-8.778496E-4,3.9139107E-1,-8.8644226E-4,8.061181E-2,-7.721313E-4,3.7364684E-2,5.7930917E-1,-8.816397E-4,-4.0730243E-3,-1.7664999E-2,-8.860822E-4,8.265423E-2,-8.6297805E-4,2.80668E-1,5.1221865E-1,1.1905369E-1,1.9460033E-1,-8.860139E-4,-8.519875E-4,6.527822E-1,6.512957E-1,-8.0196373E-4,3.7537597E-2,5.943215E-1,-8.553692E-4,3.6625963E-2,-8.738121E-4,3.417928E-2,7.2082716E-1,-8.194997E-4,8.447621E-2,-8.838201E-4,-8.869545E-4,-1.5536855E-2,6.435689E-1,-8.7731046E-4,2.1522403E-2,-4.7230363E-4,3.3701748E-2,5.889846E-1,4.0262815E-1,-1.9580266E-2,2.7490973E-2,-7.721313E-4,-6.450329E-4,7.0448476E-1,6.919559E-1,-6.5324845E-4,-8.0196373E-4,3.686368E-2,-5.0498964E-4,3.704275E-2,3.1867195E-2,-8.633584E-4,-8.865795E-4,9.756035E-3,3.5195574E-2,-5.0498964E-4,4.0740067E-1,1.1805265E-3,4.7063828E-1,7.2693324E-1,6.0592234E-1,-8.712544E-4,-8.836373E-4,-2.2631098E-2,3.667361E-2,-5.0498964E-4,-5.0498964E-4,7.142108E-1,1.9523202E-1,-8.818881E-4,-4.9639423E-4,2.7490973E-2,-8.7047595E-4,9.398318E-2,7.305474E-1,-8.754907E-4,-7.4025407E-4,7.4902034E-1,7.110536E-1,-2.3089292E-2,-2.7147021E-2,-8.7471673E-4,-4.924506E-4,3.6894266E-2,3.874381E-1,-8.248628E-4,-7.7879033E-4,2.1522403E-2,7.445565E-1,-6.312506E-4,-4.8004804E-4,3.7737668E-2,-7.0429494E-4,7.40247E-1,-8.349786E-4,-2.653892E-3,-8.719189E-4,-4.850836E-2,-7.456008E-4,3.290784E-2,3.7587967E-2,-4.7343798E-4,3.7525874E-2,-4.9428234E-4,-4.20018E-3,-2.4737472E-2,-4.180562E-2,-8.14974E-4,-4.8152983E-4,-2.653892E-3],"categories":[],"categories_nodes":[],"categories_segments":[],"categories_sizes":[],"default_left":[0,0,0,0,0,0,0,0,0,0,0,0,0,0,0,0,0,0,0,0,0,0,0,0,0,0,0,0,0,0,0,0,0,0,0,0,0,0,0,0,0,0,0,0,0,0,0,0,0,0,0,0,0,0,0,0,0,0,0,0,0,0,0,0,0,0,0,0,0,0,0,0,0,0,0,0,0,0,0,0,0,0,0,0,0,0,0,0,0,0,0,0,0,0,0,0,0,0,0,0,0,0,0,0,0,0,0,0,0,0,0,0,0,0,0,0,0,0,0,0,0,0,0,0,0,0,0,0,0,0,0,0,0,0,0,0,0,0,0,0,0,0,0,0,0,0,0,0,0,0,0,0,0,0,0,0,0,0,0,0,0,0,0,0,0,0,0,0,0,0,0,0,0,0,0],"id":5,"left_children":[1,3,5,7,9,11,13,15,17,19,21,23,25,27,29,31,33,35,-1,-1,37,-1,39,-1,41,43,45,47,49,51,53,-1,55,-1,-1,-1,57,-1,-1,59,-1,61,-1,63,65,67,-1,-1,69,71,73,75,-1,77,79,81,-1,-1,-1,83,85,-1,-1,-1,87,-1,89,-1,-1,91,-1,93,95,-1,97,-1,99,101,103,105,-1,-1,107,109,-1,-1,111,-1,-1,-1,-1,113,-1,115,-1,-1,117,119,-1,-1,-1,121,123,125,127,-1,-1,-1,129,131,-1,-1,-1,-1,-1,-1,-1,-1,133,-1,-1,135,137,139,141,143,-1,-1,145,-1,-1,-1,147,149,-1,-1,-1,-1,151,153,-1,-1,155,157,159,161,-1,-1,-1,163,-1,-1,-1,165,-1,-1,-1,-1,167,-1,-1,-1,169,-1,-1,-1,-1,-1,-1,-1,171,173,-1,-1,-1],"loss_changes":[3.048161E2,1.5213385E2,1.53296995E1,1.7558441E1,4.4084625E1,3.956259E1,4.612092E0,2.3469103E1,7.527509E-1,1.0489239E-1,6.6402893E0,1.6488579E1,1.954307E1,7.946358E-1,3.5552105E1,2.4989734E0,4.842781E0,2.0992293E0,0E0,0E0,2.8768855E-1,0E0,3.9563599E0,0E0,4.838257E0,2.4475837E0,1.212932E1,3.8335345E0,7.3387146E-2,2.8900385E-2,3.6419224E1,0E0,3.256944E0,0E0,0E0,0E0,3.9267552E0,0E0,0E0,1.1471863E0,0E0,1.168457E0,0E0,4.548254E0,5.269458E-1,2.719654E0,0E0,0E0,1.2095791E1,4.3649673E-2,7.1901506E-1,2.375293E-1,0E0,2.9308327E1,3.5624948E-1,4.9293675E0,0E0,0E0,0E0,2.6153698E0,3.126831E-1,0E0,0E0,0E0,6.1439466E0,0E0,3.3831847E0,0E0,0E0,3.9740133E0,0E0,2.8938514E-1,8.277893E-3,0E0,4.4513993E0,0E0,1.3442595E-1,1.29839325E1,1.6165548E1,6.0538095E-1,0E0,0E0,9.727783E-1,9.544964E-1,0E0,0E0,3.2401638E0,0E0,0E0,0E0,0E0,5.6375694E-1,0E0,1.811025E0,0E0,0E0,1.01924956E-1,4.8043823E-1,0E0,0E0,0E0,6.071763E-1,4.6372147E0,1.1538797E1,1.2120605E-3,0E0,0E0,0E0,5.459709E-1,5.2281094E-1,0E0,0E0,0E0,0E0,0E0,0E0,0E0,0E0,7.503345E-1,0E0,0E0,2.432003E-1,8.272086E-2,2.1200779E1,2.2883072E0,6.0341415E0,0E0,0E0,1.9143932E-3,0E0,0E0,0E0,5.558033E-1,7.796089E-1,0E0,0E0,0E0,0E0,3.0160657E-1,1.1442108E0,0E0,0E0,5.9438324E-1,1.6616325E0,1.796281E-3,1.0145746E-2,0E0,0E0,0E0,1.0990515E0,0E0,0E0,0E0,5.882454E-1,0E0,0E0,0E0,0E0,5.852318E-1,0E0,0E0,0E0,1.1422016E-2,0E0,0E0,0E0,0E0,0E0,0E0,0E0,9.028204E-4,5.7687983E-4,0E0,0E0,0E0],"parents":[2147483647,0,0,1,1,2,2,3,3,4,4,5,5,6,6,7,7,8,8,9,9,10,10,11,11,12,12,13,13,14,14,15,15,16,16,17,17,20,20,22,22,24,24,25,25,26,26,27,27,28,28,29,29,30,30,32,32,36,36,39,39,41,41,43,43,44,44,45,45,48,48,49,49,50,50,51,51,53,53,54,54,55,55,59,59,60,60,64,64,66,66,69,69,71,71,72,72,74,74,76,76,77,77,78,78,79,79,82,82,83,83,86,86,91,91,93,93,96,96,97,97,101,101,102,102,103,103,104,104,108,108,109,109,118,118,121,121,122,122,123,123,124,124,125,125,128,128,132,132,133,133,138,138,139,139,142,142,143,143,144,144,145,145,149,149,153,153,158,158,162,162,170,170,171,171],"right_children":[2,4,6,8,10,12,14,16,18,20,22,24,26,28,30,32,34,36,-1,-1,38,-1,40,-1,42,44,46,48,50,52,54,-1,56,-1,-1,-1,58,-1,-1,60,-1,62,-1,64,66,68,-1,-1,70,72,74,76,-1,78,80,82,-1,-1,-1,84,86,-1,-1,-1,88,-1,90,-1,-1,92,-1,94,96,-1,98,-1,100,102,104,106,-1,-1,108,110,-1,-1,112,-1,-1,-1,-1,114,-1,116,-1,-1,118,120,-1,-1,-1,122,124,126,128,-1,-1,-1,130,132,-1,-1,-1,-1,-1,-1,-1,-1,134,-1,-1,136,138,140,142,144,-1,-1,146,-1,-1,-1,148,150,-1,-1,-1,-1,152,154,-1,-1,156,158,160,162,-1,-1,-1,164,-1,-1,-1,166,-1,-1,-1,-1,168,-1,-1,-1,170,-1,-1,-1,-1,-1,-1,-1,172,174,-1,-1,-1],"split_conditions":[-1.8887215E0,-5.1363163E-2,-1.6828369E0,-7.449615E-1,4.291011E-1,-1.9850543E0,1.0845606E0,-1.7332324E0,-4.8840576E-1,4.1270602E-1,-1.337692E0,-8.8247293E-1,-8.399053E-1,-1.574687E0,8.2112294E-1,-1.2049301E0,-1.6381539E0,-2.1273004E-1,-8.857045E-4,-8.793391E-4,-9.506384E-1,-8.354472E-4,9.2753816E-1,-8.7200536E-4,8.522739E-1,-1.9215198E0,-7.449615E-1,6.935228E-1,1.0128387E0,-1.0655897E0,9.8530924E-1,-8.8078267E-4,-7.8047745E-2,3.7501544E-2,-8.194997E-4,-8.777206E-4,-1.5648733E-1,2.1522403E-2,-7.721313E-4,4.9942082E-1,-8.0196373E-4,-7.8047745E-2,-8.2592043E-4,-3.5397857E-1,-1.0132283E0,-1.6819935E0,-8.696231E-4,-8.861362E-4,-9.166027E-1,-1.5500139E0,1.1433612E0,-1.1040002E0,-8.8689366E-4,-3.6801136E-1,-1.489298E0,-1.2986027E0,-8.6812297E-4,3.5606336E-2,-8.500099E-4,-7.95019E-1,1.7766092E0,3.7583925E-2,-6.2309054E-4,-8.778496E-4,-1.132732E0,-8.8644226E-4,3.7415975E-1,-7.721313E-4,3.7364684E-2,1.1053724E0,-8.816397E-4,-1.3015941E0,8.604196E-1,-8.860822E-4,7.430509E-1,-8.6297805E-4,-8.8151896E-1,4.7529268E-1,-3.7533775E-1,1.004662E0,-8.860139E-4,-8.519875E-4,-1.5400186E0,1.4087844E0,-8.0196373E-4,3.7537597E-2,-2.0345058E0,-8.553692E-4,3.6625963E-2,-8.738121E-4,3.417928E-2,-9.159425E-1,-8.194997E-4,1.0281333E0,-8.838201E-4,-8.869545E-4,1.1715115E0,-4.8604876E-1,-8.7731046E-4,2.1522403E-2,-4.7230363E-4,-1.0398335E0,-4.1687626E-1,5.9771415E-2,4.9942082E-1,2.7490973E-2,-7.721313E-4,-6.450329E-4,8.522739E-1,-9.159425E-1,-6.5324845E-4,-8.0196373E-4,3.686368E-2,-5.0498964E-4,3.704275E-2,3.1867195E-2,-8.633584E-4,-8.865795E-4,6.6548306E-1,3.5195574E-2,-5.0498964E-4,-8.0149055E-1,4.527873E-1,-9.43569E-1,-9.805173E-2,5.20377E-1,-8.712544E-4,-8.836373E-4,-1.6514778E-1,3.667361E-2,-5.0498964E-4,-5.0498964E-4,-1.3700413E0,1.755598E-1,-8.818881E-4,-4.9639423E-4,2.7490973E-2,-8.7047595E-4,-4.40049E-1,-6.7593956E-1,-8.754907E-4,-7.4025407E-4,1.1164117E0,9.3352455E-1,-3.93208E-1,-2.9010287E-1,-8.7471673E-4,-4.924506E-4,3.6894266E-2,-1.7310856E-2,-8.248628E-4,-7.7879033E-4,2.1522403E-2,4.8316225E-1,-6.312506E-4,-4.8004804E-4,3.7737668E-2,-7.0429494E-4,1.4978677E-1,-8.349786E-4,-2.653892E-3,-8.719189E-4,6.6548306E-1,-7.456008E-4,3.290784E-2,3.7587967E-2,-4.7343798E-4,3.7525874E-2,-4.9428234E-4,-4.20018E-3,-2.9737964E-1,-1.0280085E0,-8.14974E-4,-4.8152983E-4,-2.653892E-3],"split_indices":[9,12,9,1,14,5,12,10,1,14,11,2,10,9,2,0,4,2,0,0,0,0,8,0,8,5,1,14,12,11,14,0,2,0,0,0,2,0,0,14,0,2,0,2,4,0,0,0,1,9,2,9,0,5,9,2,0,0,0,2,14,0,0,0,11,0,7,0,0,14,0,11,12,0,14,0,0,14,4,2,0,0,1,3,0,0,4,0,0,0,0,3,0,14,0,0,2,0,0,0,0,10,9,10,14,0,0,0,8,3,0,0,0,0,0,0,0,0,14,0,0,0,14,5,4,8,0,0,10,0,0,0,2,4,0,0,0,0,10,0,0,0,2,2,4,10,0,0,0,4,0,0,0,3,0,0,0,0,5,0,0,0,14,0,0,0,0,0,0,0,9,0,0,0,0],"split_type":[0,0,0,0,0,0,0,0,0,0,0,0,0,0,0,0,0,0,0,0,0,0,0,0,0,0,0,0,0,0,0,0,0,0,0,0,0,0,0,0,0,0,0,0,0,0,0,0,0,0,0,0,0,0,0,0,0,0,0,0,0,0,0,0,0,0,0,0,0,0,0,0,0,0,0,0,0,0,0,0,0,0,0,0,0,0,0,0,0,0,0,0,0,0,0,0,0,0,0,0,0,0,0,0,0,0,0,0,0,0,0,0,0,0,0,0,0,0,0,0,0,0,0,0,0,0,0,0,0,0,0,0,0,0,0,0,0,0,0,0,0,0,0,0,0,0,0,0,0,0,0,0,0,0,0,0,0,0,0,0,0,0,0,0,0,0,0,0,0,0,0,0,0,0,0],"sum_hessian":[7.0271E4,1.924E3,6.8347E4,9.01E2,1.023E3,1.701E3,6.6646E4,2.85E2,6.16E2,9.1E1,9.32E2,1.81E2,1.52E3,5.625E4,1.0396E4,1.84E2,1.01E2,9.9E1,5.17E2,8.5E1,6E0,1.2E1,9.2E2,4.3E1,1.38E2,1.415E3,1.05E2,9.54E2,5.5296E4,8.941E3,1.455E3,1.05E2,7.9E1,9.2E1,9E0,7E1,2.9E1,1E0,5E0,9.13E2,7E0,1.29E2,9E0,1.14E2,1.301E3,6.8E1,3.7E1,7.86E2,1.68E2,5.448E4,8.16E2,2.6E1,8.915E3,7.63E2,6.92E2,4.5E1,3.4E1,1.2E1,1.7E1,4.1E1,8.72E2,1.27E2,2E0,7.1E1,4.3E1,1.245E3,5.6E1,5E0,6.3E1,4.6E1,1.22E2,2.38E2,5.4242E4,7.38E2,7.8E1,2.4E1,2E0,3.53E2,4.1E2,7E0,6.85E2,1.8E1,2.7E1,3.4E1,7E0,8.36E2,3.6E1,2E1,2.3E1,4.9E1,7E0,3.7E1,9E0,3.1E1,2.07E2,5.241E4,1.832E3,1.1E1,6.7E1,1E0,1E0,4.9E1,3.04E2,1.34E2,2.76E2,2E0,5E0,2E0,2.5E1,3.2E1,2E0,7E0,2.9E1,1E0,3.6E1,4E0,2.7E1,1.686E3,1.46E2,1E1,1E0,3E0,4.6E1,1.66E2,1.38E2,9E1,4.4E1,1.74E2,1.02E2,2.4E1,1E0,1E0,3.1E1,1.8E1,1.28E2,1E0,2E0,3.9E1,7E0,1.08E2,5.8E1,4E0,1.34E2,7.7E1,1.3E1,5.2E1,5E1,1E0,3E1,9E0,9E0,6E0,1E0,1.06E2,2E0,1E0,1.33E2,3E0,7.4E1,1.2E1,1E0,3.7E1,1.5E1,4E0,5E0,1.05E2,1E0,7.3E1,1E0,5E0,1E1,2E0,8E0,1E0,1E0],"tree_param":{"num_deleted":"0","num_feature":"15","num_nodes":"175","size_leaf_vector":"1"}},{"base_weights":[5.8443486E-5,3.7298483E-1,-1.0444912E-2,8.815994E-2,6.2351125E-1,7.8659974E-2,-1.2720274E-2,2.8281248E-1,-2.2108508E-3,-7.468921E-3,6.850618E-1,4.973513E-1,2.8508445E-2,-1.6120147E-2,5.675316E-3,7.966575E-2,6.4849216E-1,7.353894E-2,-8.415047E-4,-8.358834E-4,1.07225515E-1,-7.9688814E-4,6.942126E-1,-8.29396E-4,6.5645903E-1,-9.844224E-4,4.222197E-1,1.1088293E-2,-1.6589755E-2,-1.6756212E-2,1.4343427E-1,-8.37159E-4,2.0641176E-1,3.564663E-2,-7.8262214E-4,-8.344526E-4,2.8462723E-1,2.0984342E-2,-7.399592E-4,6.9966364E-1,-7.6687784E-4,7.0311964E-1,-7.88754E-4,1.3212298E-1,-1.2740465E-2,6.5773946E-1,-8.272862E-4,-8.4188563E-4,1.4106864E-1,-1.6724333E-2,-7.5952904E-3,1.5191715E-2,-8.4255397E-4,2.8649715E-1,-1.44927995E-2,3.715459E-1,-8.2595693E-4,3.396296E-2,-8.098705E-4,7.012395E-1,-6.314251E-4,3.571941E-2,-6.023208E-4,-8.3456666E-4,3.7263453E-1,-8.421557E-4,7.716553E-2,-7.399592E-4,3.5525642E-2,5.511037E-1,-8.3791616E-4,-3.7433486E-3,-1.678122E-2,-8.41838E-4,7.894954E-2,-8.2155515E-4,2.736513E-1,4.8694384E-1,1.13152556E-1,1.8821017E-1,-8.417778E-4,-8.116302E-4,6.214118E-1,5.401503E-1,7.078172E-1,-8.1463734E-4,3.487097E-2,-8.309953E-4,3.268394E-2,6.857473E-1,-7.8262214E-4,8.122127E-2,-8.3984155E-4,-8.426076E-4,-1.474388E-2,6.1428136E-1,-8.340901E-4,2.0984342E-2,-4.6049603E-4,3.2954015E-2,5.5977184E-1,3.8273355E-1,-1.8640174E-2,2.657461E-2,-7.399592E-4,-6.235318E-4,6.706517E-1,6.584458E-1,-7.6687784E-4,3.566296E-2,5.6558007E-1,-4.923649E-4,3.5240665E-2,3.0592507E-2,-8.2173216E-4,-8.422768E-4,9.475413E-3,3.3595778E-2,-4.923649E-4,3.9377928E-1,1.5443325E-3,4.473196E-1,6.9084924E-1,5.7598704E-1,-8.2865974E-4,-8.397079E-4,-2.1595633E-2,3.4913275E-2,-4.923649E-4,-4.923649E-4,6.796377E-1,-7.6687784E-4,3.5081938E-2,1.8711975E-1,-8.381355E-4,-4.8398436E-4,2.657461E-2,-8.2860264E-4,9.193322E-2,6.943548E-1,-8.3245814E-4,-7.106439E-4,7.118452E-1,6.759666E-1,-2.2184031E-2,-2.5959905E-2,-8.318384E-4,3.5109054E-2,-4.802119E-4,3.712824E-1,-7.8774395E-4,2.0984342E-2,-7.421998E-4,7.076756E-1,-6.1020895E-4,-4.6804684E-4,3.5864864E-2,-6.778839E-4,7.037284E-1,-7.96441E-4,-2.5875445E-3,-8.2947017E-4,-4.6592355E-2,-7.1577675E-4,3.153668E-2,3.5726298E-2,-4.6160203E-4,3.5674937E-2,-4.8192526E-4,-4.0251724E-3,-2.3859724E-2,-4.076048E-2,-7.7875296E-4,-4.6949158E-4,-2.5875445E-3],"categories":[],"categories_nodes":[],"categories_segments":[],"categories_sizes":[],"default_left":[0,0,0,0,0,0,0,0,0,0,0,0,0,0,0,0,0,0,0,0,0,0,0,0,0,0,0,0,0,0,0,0,0,0,0,0,0,0,0,0,0,0,0,0,0,0,0,0,0,0,0,0,0,0,0,0,0,0,0,0,0,0,0,0,0,0,0,0,0,0,0,0,0,0,0,0,0,0,0,0,0,0,0,0,0,0,0,0,0,0,0,0,0,0,0,0,0,0,0,0,0,0,0,0,0,0,0,0,0,0,0,0,0,0,0,0,0,0,0,0,0,0,0,0,0,0,0,0,0,0,0,0,0,0,0,0,0,0,0,0,0,0,0,0,0,0,0,0,0,0,0,0,0,0,0,0,0,0,0,0,0,0,0,0,0,0,0,0,0,0,0,0,0,0,0],"id":6,"left_children":[1,3,5,7,9,11,13,15,17,19,21,23,25,27,29,31,33,35,-1,-1,37,-1,39,-1,41,43,45,47,49,51,53,-1,55,-1,-1,-1,57,-1,-1,59,-1,61,-1,63,65,67,-1,-1,69,71,73,75,-1,77,79,81,-1,-1,-1,83,-1,-1,-1,-1,85,-1,87,-1,-1,89,-1,91,93,-1,95,-1,97,99,101,103,-1,-1,105,107,109,-1,-1,-1,-1,111,-1,113,-1,-1,115,117,-1,-1,-1,119,121,123,125,-1,-1,-1,127,129,-1,-1,131,-1,-1,-1,-1,-1,133,-1,-1,135,137,139,141,143,-1,-1,145,-1,-1,-1,147,-1,-1,149,-1,-1,-1,-1,151,153,-1,-1,155,157,159,161,-1,-1,-1,163,-1,-1,-1,165,-1,-1,-1,-1,167,-1,-1,-1,169,-1,-1,-1,-1,-1,-1,-1,171,173,-1,-1,-1],"loss_changes":[2.7525778E2,1.3730563E2,1.3858278E1,1.5867619E1,3.9774414E1,3.5724434E1,4.168371E0,2.1194315E1,6.845063E-1,9.938429E-2,5.9959717E0,1.4893337E1,1.7661772E1,7.189207E-1,3.213063E1,2.2640538E0,4.376522E0,1.9093571E0,0E0,0E0,2.7310705E-1,0E0,3.572937E0,0E0,4.3710823E0,2.217463E0,1.09647045E1,3.4688647E0,6.68087E-2,2.7357817E-2,3.2900284E1,0E0,2.9512174E0,0E0,0E0,0E0,3.5724535E0,0E0,0E0,1.0348206E0,0E0,1.0562668E0,0E0,4.1222486E0,4.8154598E-1,2.459467E0,0E0,0E0,1.0946E1,4.0168762E-2,6.5476704E-1,2.2517334E-1,0E0,2.6491112E1,3.3226302E-1,4.467149E0,0E0,0E0,0E0,5.840454E-1,0E0,0E0,0E0,0E0,5.5693426E0,0E0,3.0927715E0,0E0,0E0,3.597309E0,0E0,2.6643535E-1,7.58934E-3,0E0,4.0546126E0,0E0,1.2778866E-1,1.1685921E1,1.4609477E1,5.653813E-1,0E0,0E0,8.823061E-1,2.638567E0,2.7236938E-1,0E0,0E0,0E0,0E0,5.109043E-1,0E0,1.6682651E0,0E0,0E0,9.346041E-2,4.3827057E-1,0E0,0E0,0E0,5.660622E-1,4.1866455E0,1.0427147E1,1.1485815E-3,0E0,0E0,0E0,4.9544716E-1,4.7405148E-1,0E0,0E0,2.9351997E0,0E0,0E0,0E0,0E0,0E0,6.883115E-1,0E0,0E0,2.273907E-1,7.848696E-2,1.9152534E1,2.0678024E0,5.457241E0,0E0,0E0,1.7972179E-3,0E0,0E0,0E0,5.0395584E-1,0E0,0E0,7.1572626E-1,0E0,0E0,0E0,0E0,2.862028E-1,1.0345345E0,0E0,0E0,5.375366E-1,1.5026474E0,1.7649271E-3,9.47389E-3,0E0,0E0,0E0,1.0094677E0,0E0,0E0,0E0,5.320816E-1,0E0,0E0,0E0,0E0,5.296173E-1,0E0,0E0,0E0,1.0413419E-2,0E0,0E0,0E0,0E0,0E0,0E0,0E0,9.0534147E-4,5.483967E-4,0E0,0E0,0E0],"parents":[2147483647,0,0,1,1,2,2,3,3,4,4,5,5,6,6,7,7,8,8,9,9,10,10,11,11,12,12,13,13,14,14,15,15,16,16,17,17,20,20,22,22,24,24,25,25,26,26,27,27,28,28,29,29,30,30,32,32,36,36,39,39,41,41,43,43,44,44,45,45,48,48,49,49,50,50,51,51,53,53,54,54,55,55,59,59,64,64,66,66,69,69,71,71,72,72,74,74,76,76,77,77,78,78,79,79,82,82,83,83,84,84,89,89,91,91,94,94,95,95,99,99,100,100,101,101,102,102,106,106,107,107,110,110,116,116,119,119,120,120,121,121,122,122,123,123,126,126,130,130,133,133,138,138,139,139,142,142,143,143,144,144,145,145,149,149,153,153,158,158,162,162,170,170,171,171],"right_children":[2,4,6,8,10,12,14,16,18,20,22,24,26,28,30,32,34,36,-1,-1,38,-1,40,-1,42,44,46,48,50,52,54,-1,56,-1,-1,-1,58,-1,-1,60,-1,62,-1,64,66,68,-1,-1,70,72,74,76,-1,78,80,82,-1,-1,-1,84,-1,-1,-1,-1,86,-1,88,-1,-1,90,-1,92,94,-1,96,-1,98,100,102,104,-1,-1,106,108,110,-1,-1,-1,-1,112,-1,114,-1,-1,116,118,-1,-1,-1,120,122,124,126,-1,-1,-1,128,130,-1,-1,132,-1,-1,-1,-1,-1,134,-1,-1,136,138,140,142,144,-1,-1,146,-1,-1,-1,148,-1,-1,150,-1,-1,-1,-1,152,154,-1,-1,156,158,160,162,-1,-1,-1,164,-1,-1,-1,166,-1,-1,-1,-1,168,-1,-1,-1,170,-1,-1,-1,-1,-1,-1,-1,172,174,-1,-1,-1],"split_conditions":[-1.8887215E0,-5.1363163E-2,-1.6828369E0,-7.449615E-1,4.291011E-1,-1.9850543E0,1.0845606E0,-1.7332324E0,-4.8840576E-1,4.1270602E-1,-1.337692E0,-8.8247293E-1,-8.399053E-1,-1.574687E0,8.2112294E-1,-1.2049301E0,-1.6381539E0,-2.1273004E-1,-8.415047E-4,-8.358834E-4,-9.506384E-1,-7.9688814E-4,9.2753816E-1,-8.29396E-4,8.522739E-1,-1.9215198E0,-7.449615E-1,6.935228E-1,1.0128387E0,-1.0655897E0,9.8530924E-1,-8.37159E-4,-7.8047745E-2,3.564663E-2,-7.8262214E-4,-8.344526E-4,-1.5648733E-1,2.0984342E-2,-7.399592E-4,-7.769794E-1,-7.6687784E-4,-7.8047745E-2,-7.88754E-4,-3.5397857E-1,-1.0132283E0,-1.6819935E0,-8.272862E-4,-8.4188563E-4,-9.166027E-1,-1.5500139E0,1.1433612E0,-1.1040002E0,-8.4255397E-4,-3.6801136E-1,-1.489298E0,-1.2986027E0,-8.2595693E-4,3.396296E-2,-8.098705E-4,4.9942082E-1,-6.314251E-4,3.571941E-2,-6.023208E-4,-8.3456666E-4,-1.132732E0,-8.421557E-4,3.7415975E-1,-7.399592E-4,3.5525642E-2,1.1053724E0,-8.3791616E-4,-1.3015941E0,8.604196E-1,-8.41838E-4,7.430509E-1,-8.2155515E-4,-8.8151896E-1,4.7529268E-1,-3.7533775E-1,1.004662E0,-8.417778E-4,-8.116302E-4,-1.5400186E0,-7.95019E-1,1.7766092E0,-8.1463734E-4,3.487097E-2,-8.309953E-4,3.268394E-2,-9.159425E-1,-7.8262214E-4,1.0281333E0,-8.3984155E-4,-8.426076E-4,1.1715115E0,-4.8604876E-1,-8.340901E-4,2.0984342E-2,-4.6049603E-4,-1.0398335E0,-4.1687626E-1,5.9771415E-2,4.9942082E-1,2.657461E-2,-7.399592E-4,-6.235318E-4,8.522739E-1,-9.159425E-1,-7.6687784E-4,3.566296E-2,-2.0345058E0,-4.923649E-4,3.5240665E-2,3.0592507E-2,-8.2173216E-4,-8.422768E-4,6.6548306E-1,3.3595778E-2,-4.923649E-4,-8.0149055E-1,-4.5798033E-1,-9.43569E-1,-9.805173E-2,5.20377E-1,-8.2865974E-4,-8.397079E-4,-1.6514778E-1,3.4913275E-2,-4.923649E-4,-4.923649E-4,1.4087844E0,-7.6687784E-4,3.5081938E-2,1.755598E-1,-8.381355E-4,-4.8398436E-4,2.657461E-2,-8.2860264E-4,-4.5023388E-1,-6.7593956E-1,-8.3245814E-4,-7.106439E-4,1.1164117E0,9.3352455E-1,-3.93208E-1,-2.9010287E-1,-8.318384E-4,3.5109054E-2,-4.802119E-4,-1.7310856E-2,-7.8774395E-4,2.0984342E-2,-7.421998E-4,4.8316225E-1,-6.1020895E-4,-4.6804684E-4,3.5864864E-2,-6.778839E-4,1.4978677E-1,-7.96441E-4,-2.5875445E-3,-8.2947017E-4,6.6548306E-1,-7.1577675E-4,3.153668E-2,3.5726298E-2,-4.6160203E-4,3.5674937E-2,-4.8192526E-4,-4.0251724E-3,-2.9737964E-1,-1.0280085E0,-7.7875296E-4,-4.6949158E-4,-2.5875445E-3],"split_indices":[9,12,9,1,14,5,12,10,1,14,11,2,10,9,2,0,4,2,0,0,0,0,8,0,8,5,1,14,12,11,14,0,2,0,0,0,2,0,0,11,0,2,0,2,4,0,0,0,1,9,2,9,0,5,9,2,0,0,0,14,0,0,0,0,11,0,7,0,0,14,0,11,12,0,14,0,0,14,4,2,0,0,1,2,14,0,0,0,0,3,0,14,0,0,2,0,0,0,0,10,9,10,14,0,0,0,8,3,0,0,4,0,0,0,0,0,14,0,0,0,5,5,4,8,0,0,10,0,0,0,3,0,0,4,0,0,0,0,5,0,0,0,2,2,4,10,0,0,0,4,0,0,0,3,0,0,0,0,5,0,0,0,14,0,0,0,0,0,0,0,9,0,0,0,0],"split_type":[0,0,0,0,0,0,0,0,0,0,0,0,0,0,0,0,0,0,0,0,0,0,0,0,0,0,0,0,0,0,0,0,0,0,0,0,0,0,0,0,0,0,0,0,0,0,0,0,0,0,0,0,0,0,0,0,0,0,0,0,0,0,0,0,0,0,0,0,0,0,0,0,0,0,0,0,0,0,0,0,0,0,0,0,0,0,0,0,0,0,0,0,0,0,0,0,0,0,0,0,0,0,0,0,0,0,0,0,0,0,0,0,0,0,0,0,0,0,0,0,0,0,0,0,0,0,0,0,0,0,0,0,0,0,0,0,0,0,0,0,0,0,0,0,0,0,0,0,0,0,0,0,0,0,0,0,0,0,0,0,0,0,0,0,0,0,0,0,0,0,0,0,0,0,0],"sum_hessian":[7.0271E4,1.924E3,6.8347E4,9.01E2,1.023E3,1.701E3,6.6646E4,2.85E2,6.16E2,9.1E1,9.32E2,1.81E2,1.52E3,5.625E4,1.0396E4,1.84E2,1.01E2,9.9E1,5.17E2,8.5E1,6E0,1.2E1,9.2E2,4.3E1,1.38E2,1.415E3,1.05E2,9.54E2,5.5296E4,8.941E3,1.455E3,1.05E2,7.9E1,9.2E1,9E0,7E1,2.9E1,1E0,5E0,9.13E2,7E0,1.29E2,9E0,1.14E2,1.301E3,6.8E1,3.7E1,7.86E2,1.68E2,5.448E4,8.16E2,2.6E1,8.915E3,7.63E2,6.92E2,4.5E1,3.4E1,1.2E1,1.7E1,9.11E2,2E0,1.27E2,2E0,7.1E1,4.3E1,1.245E3,5.6E1,5E0,6.3E1,4.6E1,1.22E2,2.38E2,5.4242E4,7.38E2,7.8E1,2.4E1,2E0,3.53E2,4.1E2,7E0,6.85E2,1.8E1,2.7E1,3.9E1,8.72E2,2E1,2.3E1,4.9E1,7E0,3.7E1,9E0,3.1E1,2.07E2,5.241E4,1.832E3,1.1E1,6.7E1,1E0,1E0,4.9E1,3.04E2,1.34E2,2.76E2,2E0,5E0,2E0,2.5E1,3.2E1,7E0,8.36E2,3.6E1,1E0,3.6E1,4E0,2.7E1,1.686E3,1.46E2,1E1,1E0,3E0,4.6E1,1.66E2,1.38E2,9E1,4.4E1,1.74E2,1.02E2,2.4E1,1E0,1E0,3.1E1,7E0,2.9E1,1.8E1,1.28E2,1E0,2E0,3.9E1,7E0,1.08E2,5.8E1,4E0,1.34E2,7.7E1,1.3E1,5.2E1,5E1,3E1,1E0,9E0,9E0,1E0,6E0,1.06E2,2E0,1E0,1.33E2,3E0,7.4E1,1.2E1,1E0,3.7E1,1.5E1,4E0,5E0,1.05E2,1E0,7.3E1,1E0,5E0,1E1,2E0,8E0,1E0,1E0],"tree_param":{"num_deleted":"0","num_feature":"15","num_nodes":"175","size_leaf_vector":"1"}},{"base_weights":[6.474035E-5,3.5444894E-1,-9.916381E-3,8.386022E-2,5.924534E-1,7.480435E-2,-1.207979E-2,2.6890326E-1,-2.0492927E-3,-6.884514E-3,6.509171E-1,4.7266778E-1,2.7147578E-2,-1.5312004E-2,5.4086526E-3,7.5851776E-2,6.1640936E-1,7.018518E-2,-7.9951074E-4,-7.945752E-4,1.04756296E-1,-7.6010864E-4,6.596127E-1,-7.888687E-4,6.23883E-1,-8.898394E-4,4.0142906E-1,1.0567685E-2,-1.575868E-2,-1.5916292E-2,1.3637173E-1,-7.9569593E-4,1.9649316E-1,3.3883464E-2,-7.474042E-4,-7.9331774E-4,2.7150095E-1,2.0459734E-2,-7.091275E-4,6.6479284E-1,-7.33327E-4,6.6823655E-1,-7.550417E-4,1.2580572E-1,-1.20796235E-2,6.253566E-1,-7.870104E-4,-7.998448E-4,1.3421123E-1,-1.588708E-2,-7.177059E-3,1.5161844E-2,-8.0043095E-4,2.7234763E-1,-1.3732094E-2,3.5368568E-1,-7.858391E-4,3.239544E-2,-7.716266E-4,6.662909E-1,-6.103776E-4,3.3947393E-2,-5.763047E-4,-7.9341786E-4,3.547768E-1,-8.000817E-4,7.386607E-2,-7.091275E-4,3.3777114E-2,5.2427113E-1,-7.963609E-4,-3.4351319E-3,-1.5941652E-2,-7.9980306E-4,7.541054E-2,-7.828056E-4,2.669242E-1,4.629187E-1,1.07543446E-1,1.82029E-1,-7.9975027E-4,-7.731845E-4,5.9154826E-1,5.13977E-1,6.725065E-1,-7.7584514E-4,3.320007E-2,-7.9027656E-4,3.125402E-2,6.523743E-1,-7.474042E-4,7.809054E-2,-7.980514E-4,-8.004781E-4,-1.3991218E-2,5.8632594E-1,-7.929988E-4,-4.4041916E-4,2.0459734E-2,3.2216396E-2,5.320079E-1,3.6382133E-1,-1.7745571E-2,2.5688788E-2,-7.091275E-4,-6.027475E-4,6.3844293E-1,6.2655795E-1,-7.33327E-4,3.3881944E-2,5.382285E-1,-4.800558E-4,3.3526253E-2,2.9368807E-2,-7.82113E-4,-8.001879E-4,9.200251E-3,3.2068696E-2,-4.800558E-4,3.8061297E-1,1.8801702E-3,4.2515612E-1,6.5655637E-1,5.475298E-1,-7.8814756E-4,-7.979624E-4,-2.06083E-2,3.323744E-2,-4.800558E-4,-4.800558E-4,6.4673793E-1,-7.33327E-4,3.3386312E-2,1.7934446E-1,-7.965535E-4,-4.7188476E-4,2.5688788E-2,-7.882082E-4,8.9866824E-2,6.5995497E-1,-7.9154066E-4,-6.822182E-4,6.765152E-1,6.426108E-1,-2.1316543E-2,-2.482588E-2,-7.9106196E-4,3.3410233E-2,-4.682066E-4,-7.5298385E-4,3.5581416E-1,2.0459734E-2,-7.103912E-4,6.726213E-1,-5.898687E-4,-4.5634565E-4,3.4085E-2,-6.524633E-4,6.6901124E-1,-7.596822E-4,-2.522856E-3,-7.8908814E-4,-4.4754047E-2,5.1565194E-1,-6.427741E-4,3.3956833E-2,-4.5006195E-4,3.3915292E-2,-4.6987712E-4,-3.8574568E-3,-2.3015447E-2,-4.2887405E-4,3.0222654E-2,-3.974147E-2,-7.441417E-4,-4.5775433E-4,-2.522856E-3],"categories":[],"categories_nodes":[],"categories_segments":[],"categories_sizes":[],"default_left":[0,0,0,0,0,0,0,0,0,0,0,0,0,0,0,0,0,0,0,0,0,0,0,0,0,0,0,0,0,0,0,0,0,0,0,0,0,0,0,0,0,0,0,0,0,0,0,0,0,0,0,0,0,0,0,0,0,0,0,0,0,0,0,0,0,0,0,0,0,0,0,0,0,0,0,0,0,0,0,0,0,0,0,0,0,0,0,0,0,0,0,0,0,0,0,0,0,0,0,0,0,0,0,0,0,0,0,0,0,0,0,0,0,0,0,0,0,0,0,0,0,0,0,0,0,0,0,0,0,0,0,0,0,0,0,0,0,0,0,0,0,0,0,0,0,0,0,0,0,0,0,0,0,0,0,0,0,0,0,0,0,0,0,0,0,0,0,0,0,0,0,0,0,0,0,0,0],"id":7,"left_children":[1,3,5,7,9,11,13,15,17,19,21,23,25,27,29,31,33,35,-1,-1,37,-1,39,-1,41,43,45,47,49,51,53,-1,55,-1,-1,-1,57,-1,-1,59,-1,61,-1,63,65,67,-1,-1,69,71,73,75,-1,77,79,81,-1,-1,-1,83,-1,-1,-1,-1,85,-1,87,-1,-1,89,-1,91,93,-1,95,-1,97,99,101,103,-1,-1,105,107,109,-1,-1,-1,-1,111,-1,113,-1,-1,115,117,-1,-1,-1,119,121,123,125,-1,-1,-1,127,129,-1,-1,131,-1,-1,-1,-1,-1,133,-1,-1,135,137,139,141,143,-1,-1,145,-1,-1,-1,147,-1,-1,149,-1,-1,-1,-1,151,153,-1,-1,155,157,159,161,-1,-1,-1,-1,163,-1,-1,165,-1,-1,-1,-1,167,-1,-1,-1,169,171,-1,-1,-1,-1,-1,-1,173,-1,-1,175,-1,-1,-1],"loss_changes":[2.4856625E2,1.2392287E2,1.25281105E1,1.4339606E1,3.588495E1,3.22586E1,3.767397E0,1.9140003E1,6.224506E-1,9.4175115E-2,5.4142456E0,1.3452427E1,1.5961558E1,6.504173E-1,2.9038706E1,2.0512142E0,3.9551697E0,1.7366607E0,0E0,0E0,2.5927025E-1,0E0,3.2266235E0,0E0,3.9495163E0,2.008977E0,9.911907E0,3.1388814E0,6.0816765E-2,2.5900602E-2,2.972143E1,0E0,2.6741836E0,0E0,0E0,0E0,3.250119E0,0E0,0E0,9.350891E-1,0E0,9.543762E-1,0E0,3.7361453E0,4.4006002E-1,2.2241821E0,0E0,0E0,9.905496E0,3.6966324E-2,5.962603E-1,2.1366663E-1,0E0,2.3945099E1,3.099035E-1,4.048261E0,0E0,0E0,0E0,5.1779175E-1,0E0,0E0,0E0,0E0,5.0484757E0,0E0,2.827291E0,0E0,0E0,3.2563086E0,0E0,2.4530892E-1,6.959915E-3,0E0,3.6931884E0,0E0,1.2129016E-1,1.0516785E1,1.3203175E1,5.2802706E-1,0E0,0E0,8.002577E-1,2.3897972E0,2.3690796E-1,0E0,0E0,0E0,0E0,4.6302223E-1,0E0,1.5367644E0,0E0,0E0,8.570027E-2,3.9981318E-1,0E0,0E0,0E0,5.277362E-1,3.7798767E0,9.422565E0,1.0876283E-3,0E0,0E0,0E0,4.4961262E-1,4.298525E-1,0E0,0E0,2.6589422E0,0E0,0E0,0E0,0E0,0E0,6.314216E-1,0E0,0E0,2.1260983E-1,7.438257E-2,1.7302164E1,1.8685493E0,4.93557E0,0E0,0E0,1.6867742E-3,0E0,0E0,0E0,4.569559E-1,0E0,0E0,6.5718085E-1,0E0,0E0,0E0,0E0,2.7168524E-1,9.35379E-1,0E0,0E0,4.8614502E-1,1.3588867E0,1.7313203E-3,8.846033E-3,0E0,0E0,0E0,0E0,5.959022E-1,0E0,0E0,4.8130035E-1,0E0,0E0,0E0,0E0,4.7929382E-1,0E0,0E0,0E0,9.491958E-3,3.3105004E-1,0E0,0E0,0E0,0E0,0E0,0E0,9.048232E-4,0E0,0E0,5.2131945E-4,0E0,0E0,0E0],"parents":[2147483647,0,0,1,1,2,2,3,3,4,4,5,5,6,6,7,7,8,8,9,9,10,10,11,11,12,12,13,13,14,14,15,15,16,16,17,17,20,20,22,22,24,24,25,25,26,26,27,27,28,28,29,29,30,30,32,32,36,36,39,39,41,41,43,43,44,44,45,45,48,48,49,49,50,50,51,51,53,53,54,54,55,55,59,59,64,64,66,66,69,69,71,71,72,72,74,74,76,76,77,77,78,78,79,79,82,82,83,83,84,84,89,89,91,91,94,94,95,95,99,99,100,100,101,101,102,102,106,106,107,107,110,110,116,116,119,119,120,120,121,121,122,122,123,123,126,126,130,130,133,133,138,138,139,139,142,142,143,143,144,144,145,145,150,150,153,153,158,158,162,162,163,163,170,170,173,173],"right_children":[2,4,6,8,10,12,14,16,18,20,22,24,26,28,30,32,34,36,-1,-1,38,-1,40,-1,42,44,46,48,50,52,54,-1,56,-1,-1,-1,58,-1,-1,60,-1,62,-1,64,66,68,-1,-1,70,72,74,76,-1,78,80,82,-1,-1,-1,84,-1,-1,-1,-1,86,-1,88,-1,-1,90,-1,92,94,-1,96,-1,98,100,102,104,-1,-1,106,108,110,-1,-1,-1,-1,112,-1,114,-1,-1,116,118,-1,-1,-1,120,122,124,126,-1,-1,-1,128,130,-1,-1,132,-1,-1,-1,-1,-1,134,-1,-1,136,138,140,142,144,-1,-1,146,-1,-1,-1,148,-1,-1,150,-1,-1,-1,-1,152,154,-1,-1,156,158,160,162,-1,-1,-1,-1,164,-1,-1,166,-1,-1,-1,-1,168,-1,-1,-1,170,172,-1,-1,-1,-1,-1,-1,174,-1,-1,176,-1,-1,-1],"split_conditions":[-1.8887215E0,-5.1363163E-2,-1.6828369E0,-7.449615E-1,4.291011E-1,-1.9850543E0,1.0845606E0,-1.7332324E0,-4.8840576E-1,4.1270602E-1,-1.337692E0,-8.8247293E-1,-8.399053E-1,-1.574687E0,8.2112294E-1,-1.2049301E0,-1.6381539E0,-2.1273004E-1,-7.9951074E-4,-7.945752E-4,-9.506384E-1,-7.6010864E-4,9.2753816E-1,-7.888687E-4,-7.8047745E-2,-1.9215198E0,-7.449615E-1,6.935228E-1,1.0128387E0,-1.0655897E0,9.8530924E-1,-7.9569593E-4,-7.8047745E-2,3.3883464E-2,-7.474042E-4,-7.9331774E-4,-1.5648733E-1,2.0459734E-2,-7.091275E-4,-7.769794E-1,-7.33327E-4,8.522739E-1,-7.550417E-4,-3.5397857E-1,-1.0132283E0,-1.6819935E0,-7.870104E-4,-7.998448E-4,-9.166027E-1,-1.5500139E0,1.1433612E0,2.4006681E0,-8.0043095E-4,-3.6801136E-1,-1.489298E0,-1.2986027E0,-7.858391E-4,3.239544E-2,-7.716266E-4,4.9942082E-1,-6.103776E-4,3.3947393E-2,-5.763047E-4,-7.9341786E-4,-1.132732E0,-8.000817E-4,3.7415975E-1,-7.091275E-4,3.3777114E-2,1.1053724E0,-7.963609E-4,-1.3015941E0,8.604196E-1,-7.9980306E-4,7.430509E-1,-7.828056E-4,-8.96457E-1,4.7529268E-1,-3.7533775E-1,1.004662E0,-7.9975027E-4,-7.731845E-4,-1.5400186E0,-7.95019E-1,1.7766092E0,-7.7584514E-4,3.320007E-2,-7.9027656E-4,3.125402E-2,-9.159425E-1,-7.474042E-4,1.0281333E0,-7.980514E-4,-8.004781E-4,1.1715115E0,-4.8604876E-1,-7.929988E-4,-4.4041916E-4,2.0459734E-2,-1.0398335E0,-4.1687626E-1,5.9771415E-2,4.9942082E-1,2.5688788E-2,-7.091275E-4,-6.027475E-4,8.522739E-1,-9.159425E-1,-7.33327E-4,3.3881944E-2,-2.0345058E0,-4.800558E-4,3.3526253E-2,2.9368807E-2,-7.82113E-4,-8.001879E-4,6.6548306E-1,3.2068696E-2,-4.800558E-4,-8.0149055E-1,-4.5798033E-1,-9.43569E-1,-9.805173E-2,5.20377E-1,-7.8814756E-4,-7.979624E-4,-1.6514778E-1,3.323744E-2,-4.800558E-4,-4.800558E-4,1.4087844E0,-7.33327E-4,3.3386312E-2,6.348432E-1,-7.965535E-4,-4.7188476E-4,2.5688788E-2,-7.882082E-4,-4.5023388E-1,-6.7593956E-1,-7.9154066E-4,-6.822182E-4,1.1164117E0,9.3352455E-1,-3.93208E-1,-2.9010287E-1,-7.9106196E-4,3.3410233E-2,-4.682066E-4,-7.5298385E-4,1.5831286E0,2.0459734E-2,-7.103912E-4,4.8316225E-1,-5.898687E-4,-4.5634565E-4,3.4085E-2,-6.524633E-4,1.4978677E-1,-7.596822E-4,-2.522856E-3,-7.8908814E-4,6.6548306E-1,-1.1692324E0,-6.427741E-4,3.3956833E-2,-4.5006195E-4,3.3915292E-2,-4.6987712E-4,-3.8574568E-3,-2.9737964E-1,-4.2887405E-4,3.0222654E-2,-1.0280085E0,-7.441417E-4,-4.5775433E-4,-2.522856E-3],"split_indices":[9,12,9,1,14,5,12,10,1,14,11,2,10,9,2,0,4,2,0,0,0,0,8,0,2,5,1,14,12,11,14,0,2,0,0,0,2,0,0,11,0,8,0,2,4,0,0,0,1,9,2,12,0,5,9,2,0,0,0,14,0,0,0,0,11,0,7,0,0,14,0,11,12,0,14,0,0,14,4,2,0,0,1,2,14,0,0,0,0,3,0,14,0,0,2,0,0,0,0,10,9,10,14,0,0,0,8,3,0,0,4,0,0,0,0,0,14,0,0,0,5,5,4,8,0,0,10,0,0,0,3,0,0,3,0,0,0,0,5,0,0,0,2,2,4,10,0,0,0,0,7,0,0,3,0,0,0,0,5,0,0,0,14,0,0,0,0,0,0,0,9,0,0,0,0,0,0],"split_type":[0,0,0,0,0,0,0,0,0,0,0,0,0,0,0,0,0,0,0,0,0,0,0,0,0,0,0,0,0,0,0,0,0,0,0,0,0,0,0,0,0,0,0,0,0,0,0,0,0,0,0,0,0,0,0,0,0,0,0,0,0,0,0,0,0,0,0,0,0,0,0,0,0,0,0,0,0,0,0,0,0,0,0,0,0,0,0,0,0,0,0,0,0,0,0,0,0,0,0,0,0,0,0,0,0,0,0,0,0,0,0,0,0,0,0,0,0,0,0,0,0,0,0,0,0,0,0,0,0,0,0,0,0,0,0,0,0,0,0,0,0,0,0,0,0,0,0,0,0,0,0,0,0,0,0,0,0,0,0,0,0,0,0,0,0,0,0,0,0,0,0,0,0,0,0,0,0],"sum_hessian":[7.0271E4,1.924E3,6.8347E4,9.01E2,1.023E3,1.701E3,6.6646E4,2.85E2,6.16E2,9.1E1,9.32E2,1.81E2,1.52E3,5.625E4,1.0396E4,1.84E2,1.01E2,9.9E1,5.17E2,8.5E1,6E0,1.2E1,9.2E2,4.3E1,1.38E2,1.415E3,1.05E2,9.54E2,5.5296E4,8.941E3,1.455E3,1.05E2,7.9E1,9.2E1,9E0,7E1,2.9E1,1E0,5E0,9.13E2,7E0,1.29E2,9E0,1.14E2,1.301E3,6.8E1,3.7E1,7.86E2,1.68E2,5.448E4,8.16E2,2.6E1,8.915E3,7.63E2,6.92E2,4.5E1,3.4E1,1.2E1,1.7E1,9.11E2,2E0,1.27E2,2E0,7.1E1,4.3E1,1.245E3,5.6E1,5E0,6.3E1,4.6E1,1.22E2,2.38E2,5.4242E4,7.38E2,7.8E1,2.4E1,2E0,3.53E2,4.1E2,7E0,6.85E2,1.8E1,2.7E1,3.9E1,8.72E2,2E1,2.3E1,4.9E1,7E0,3.7E1,9E0,3.1E1,2.07E2,5.241E4,1.832E3,1.1E1,6.7E1,1E0,1E0,4.9E1,3.04E2,1.34E2,2.76E2,2E0,5E0,2E0,2.5E1,3.2E1,7E0,8.36E2,3.6E1,1E0,3.6E1,4E0,2.7E1,1.686E3,1.46E2,1E1,1E0,3E0,4.6E1,1.66E2,1.38E2,9E1,4.4E1,1.74E2,1.02E2,2.4E1,1E0,1E0,3.1E1,7E0,2.9E1,1.8E1,1.28E2,1E0,2E0,3.9E1,7E0,1.08E2,5.8E1,4E0,1.34E2,7.7E1,1.3E1,5.2E1,5E1,3E1,1E0,9E0,9E0,1E0,6E0,1.06E2,2E0,1E0,1.33E2,3E0,7.4E1,1.2E1,1E0,3.7E1,1.5E1,6E0,3E0,1.05E2,1E0,7.3E1,1E0,5E0,1E1,1E0,5E0,2E0,8E0,1E0,1E0],"tree_param":{"num_deleted":"0","num_feature":"15","num_nodes":"177","size_leaf_vector":"1"}},{"base_weights":[7.030606E-5,3.3683458E-1,-9.4145555E-3,7.977028E-2,5.6294316E-1,7.113781E-2,-1.1471523E-2,2.5567815E-1,-1.8981552E-3,-6.334244E-3,6.184743E-1,4.4920927E-1,2.5851721E-2,-1.4544369E-2,5.15463E-3,7.222027E-2,5.859138E-1,6.698422E-2,-7.596124E-4,-7.5530837E-4,1.0234E-1,-7.250267E-4,6.267373E-1,-7.5032166E-4,5.929235E-1,-8.020606E-4,3.8166213E-1,1.007145E-2,-1.496923E-2,-1.51184155E-2,1.2965767E-1,-7.562865E-4,1.8705097E-1,3.2207504E-2,-7.137709E-4,-7.542105E-4,2.5898004E-1,1.9948242E-2,-6.795805E-4,6.3166E-1,-7.0124393E-4,6.350814E-1,-7.210706E-4,1.1979048E-1,-1.1452859E-2,5.94568E-1,-7.4869546E-4,-7.599034E-4,1.2768707E-1,-1.5091739E-2,-6.781492E-3,1.5116216E-2,-7.604139E-4,2.5889778E-1,-1.3010598E-2,3.366836E-1,-7.476698E-4,3.0900268E-2,-7.351887E-4,6.3308406E-1,-5.900317E-4,3.2263286E-2,-5.5707543E-4,-7.5429794E-4,3.3777487E-1,-7.6010975E-4,7.0707224E-2,-6.795805E-4,3.2114644E-2,4.9874482E-1,-7.568666E-4,-3.1471052E-3,-1.514409E-2,-7.598671E-4,7.202983E-2,-7.45231E-4,2.602511E-1,4.4008136E-1,1.0221192E-1,1.7605E-1,-7.598211E-4,-7.3656E-4,5.6311923E-1,4.890714E-1,6.389574E-1,-7.389001E-4,3.1609233E-2,-7.5155305E-4,2.9886654E-2,6.2062526E-1,-7.137709E-4,7.5079344E-2,-7.583407E-4,-7.604549E-4,-1.3277035E-2,5.5964196E-1,-7.53932E-4,-4.2940868E-4,1.9948242E-2,3.1489138E-2,5.056208E-1,3.4584302E-1,-1.6894251E-2,2.4832495E-2,-6.795805E-4,-5.8265583E-4,6.077807E-1,5.9621376E-1,-7.0124393E-4,3.2189872E-2,5.121996E-1,-4.680544E-4,3.1895246E-2,2.8194053E-2,-7.44404E-4,-7.6020224E-4,8.928003E-3,3.0611027E-2,-4.680544E-4,3.6788654E-1,2.1895904E-3,4.0409064E-1,6.239655E-1,5.204776E-1,-7.496159E-4,-7.5829227E-4,-1.9666841E-2,3.1642042E-2,-4.680544E-4,-4.680544E-4,6.1543053E-1,-7.0124393E-4,3.177264E-2,1.7187187E-1,-7.570346E-4,-4.6008764E-4,2.4832495E-2,-7.502471E-4,8.788855E-2,6.2725914E-1,-7.526345E-4,-6.5492943E-4,6.429385E-1,6.109007E-1,-2.0485183E-2,-2.3742536E-2,-7.522845E-4,3.179361E-2,-4.5650147E-4,3.4097925E-1,-7.2113384E-4,-6.7729474E-4,1.9948242E-2,6.393034E-1,-5.702064E-4,-4.44937E-4,3.239347E-2,-6.279959E-4,6.360066E-1,-7.2461995E-4,-2.4597847E-3,-7.50672E-4,-4.299023E-2,-6.581284E-4,2.8963378E-2,3.2275006E-2,-4.388104E-4,3.2242447E-2,-4.581302E-4,-3.6967292E-3,-2.2203289E-2,-3.8747933E-2,-7.110687E-4,-4.4631047E-4,-2.4597847E-3],"categories":[],"categories_nodes":[],"categories_segments":[],"categories_sizes":[],"default_left":[0,0,0,0,0,0,0,0,0,0,0,0,0,0,0,0,0,0,0,0,0,0,0,0,0,0,0,0,0,0,0,0,0,0,0,0,0,0,0,0,0,0,0,0,0,0,0,0,0,0,0,0,0,0,0,0,0,0,0,0,0,0,0,0,0,0,0,0,0,0,0,0,0,0,0,0,0,0,0,0,0,0,0,0,0,0,0,0,0,0,0,0,0,0,0,0,0,0,0,0,0,0,0,0,0,0,0,0,0,0,0,0,0,0,0,0,0,0,0,0,0,0,0,0,0,0,0,0,0,0,0,0,0,0,0,0,0,0,0,0,0,0,0,0,0,0,0,0,0,0,0,0,0,0,0,0,0,0,0,0,0,0,0,0,0,0,0,0,0,0,0,0,0,0,0],"id":8,"left_children":[1,3,5,7,9,11,13,15,17,19,21,23,25,27,29,31,33,35,-1,-1,37,-1,39,-1,41,43,45,47,49,51,53,-1,55,-1,-1,-1,57,-1,-1,59,-1,61,-1,63,65,67,-1,-1,69,71,73,75,-1,77,79,81,-1,-1,-1,83,-1,-1,-1,-1,85,-1,87,-1,-1,89,-1,91,93,-1,95,-1,97,99,101,103,-1,-1,105,107,109,-1,-1,-1,-1,111,-1,113,-1,-1,115,117,-1,-1,-1,119,121,123,125,-1,-1,-1,127,129,-1,-1,131,-1,-1,-1,-1,-1,133,-1,-1,135,137,139,141,143,-1,-1,145,-1,-1,-1,147,-1,-1,149,-1,-1,-1,-1,151,153,-1,-1,155,157,159,161,-1,-1,-1,163,-1,-1,-1,165,-1,-1,-1,-1,167,-1,-1,-1,169,-1,-1,-1,-1,-1,-1,-1,171,173,-1,-1,-1],"loss_changes":[2.2446336E2,1.11844635E2,1.1325642E1,1.2958729E1,3.2375275E1,2.9128971E1,3.4050436E0,1.72848E1,5.660222E-1,8.924792E-2,4.888916E0,1.2150921E1,1.4425002E1,5.8844185E-1,2.6244568E1,1.8583796E0,3.5743828E0,1.5795861E0,0E0,0E0,2.461399E-1,0E0,2.9140015E0,0E0,3.5681686E0,1.8200921E0,8.9601965E0,2.8402865E0,5.5363655E-2,2.4524927E-2,2.6849771E1,0E0,2.4231505E0,0E0,0E0,0E0,2.9568694E0,0E0,0E0,8.449707E-1,0E0,8.6275864E-1,0E0,3.3862057E0,4.021504E-1,2.0114079E0,0E0,0E0,8.96389E0,3.4021378E-2,5.429815E-1,2.0257609E-1,0E0,2.1644138E1,2.890596E-1,3.6686454E0,0E0,0E0,0E0,4.5892334E-1,0E0,0E0,0E0,0E0,4.576323E0,0E0,2.5846033E0,0E0,0E0,2.9476347E0,0E0,2.2586066E-1,6.3819885E-3,0E0,3.363975E0,0E0,1.15301475E-1,9.463814E0,1.1932228E1,4.9314296E-1,0E0,0E0,7.2584724E-1,2.1644802E0,2.0578003E-1,0E0,0E0,0E0,0E0,4.1963768E-1,0E0,1.4156345E0,0E0,0E0,7.856852E-2,3.6473966E-1,0E0,0E0,0E0,4.9200904E-1,3.4126053E0,8.514738E0,1.0291636E-3,0E0,0E0,0E0,4.0803146E-1,3.8978767E-1,0E0,0E0,2.4086895E0,0E0,0E0,0E0,0E0,0E0,5.791136E-1,0E0,0E0,1.9879067E-1,7.057577E-2,1.563055E1,1.6885147E0,4.463827E0,0E0,0E0,1.5827231E-3,0E0,0E0,0E0,4.143505E-1,0E0,0E0,6.034897E-1,0E0,0E0,0E0,0E0,2.5783512E-1,8.457413E-1,0E0,0E0,4.3967438E-1,1.2288857E0,1.6958192E-3,8.259362E-3,0E0,0E0,0E0,8.5150313E-1,0E0,0E0,0E0,4.353714E-1,0E0,0E0,0E0,0E0,4.3376732E-1,0E0,0E0,0E0,8.6502265E-3,0E0,0E0,0E0,0E0,0E0,0E0,0E0,9.015887E-4,4.9557956E-4,0E0,0E0,0E0],"parents":[2147483647,0,0,1,1,2,2,3,3,4,4,5,5,6,6,7,7,8,8,9,9,10,10,11,11,12,12,13,13,14,14,15,15,16,16,17,17,20,20,22,22,24,24,25,25,26,26,27,27,28,28,29,29,30,30,32,32,36,36,39,39,41,41,43,43,44,44,45,45,48,48,49,49,50,50,51,51,53,53,54,54,55,55,59,59,64,64,66,66,69,69,71,71,72,72,74,74,76,76,77,77,78,78,79,79,82,82,83,83,84,84,89,89,91,91,94,94,95,95,99,99,100,100,101,101,102,102,106,106,107,107,110,110,116,116,119,119,120,120,121,121,122,122,123,123,126,126,130,130,133,133,138,138,139,139,142,142,143,143,144,144,145,145,149,149,153,153,158,158,162,162,170,170,171,171],"right_children":[2,4,6,8,10,12,14,16,18,20,22,24,26,28,30,32,34,36,-1,-1,38,-1,40,-1,42,44,46,48,50,52,54,-1,56,-1,-1,-1,58,-1,-1,60,-1,62,-1,64,66,68,-1,-1,70,72,74,76,-1,78,80,82,-1,-1,-1,84,-1,-1,-1,-1,86,-1,88,-1,-1,90,-1,92,94,-1,96,-1,98,100,102,104,-1,-1,106,108,110,-1,-1,-1,-1,112,-1,114,-1,-1,116,118,-1,-1,-1,120,122,124,126,-1,-1,-1,128,130,-1,-1,132,-1,-1,-1,-1,-1,134,-1,-1,136,138,140,142,144,-1,-1,146,-1,-1,-1,148,-1,-1,150,-1,-1,-1,-1,152,154,-1,-1,156,158,160,162,-1,-1,-1,164,-1,-1,-1,166,-1,-1,-1,-1,168,-1,-1,-1,170,-1,-1,-1,-1,-1,-1,-1,172,174,-1,-1,-1],"split_conditions":[-1.8887215E0,-5.1363163E-2,-1.6828369E0,-7.449615E-1,4.291011E-1,-1.9850543E0,1.0845606E0,-1.7332324E0,-4.8840576E-1,4.1270602E-1,-1.337692E0,-8.8247293E-1,-8.399053E-1,-1.574687E0,8.2112294E-1,-1.2049301E0,-1.6381539E0,-2.1273004E-1,-7.596124E-4,-7.5530837E-4,-9.506384E-1,-7.250267E-4,9.2753816E-1,-7.5032166E-4,8.522739E-1,-1.9215198E0,-7.449615E-1,6.935228E-1,1.0128387E0,-1.0655897E0,9.8530924E-1,-7.562865E-4,-7.8047745E-2,3.2207504E-2,-7.137709E-4,-7.542105E-4,-1.5648733E-1,1.9948242E-2,-6.795805E-4,-7.769794E-1,-7.0124393E-4,-7.8047745E-2,-7.210706E-4,-3.5397857E-1,-1.0132283E0,-1.6819935E0,-7.4869546E-4,-7.599034E-4,-9.166027E-1,-1.5500139E0,1.1433612E0,2.4006681E0,-7.604139E-4,-3.6801136E-1,-1.489298E0,-1.2986027E0,-7.476698E-4,3.0900268E-2,-7.351887E-4,4.9942082E-1,-5.900317E-4,3.2263286E-2,-5.5707543E-4,-7.5429794E-4,-1.132732E0,-7.6010975E-4,3.7415975E-1,-6.795805E-4,3.2114644E-2,1.1053724E0,-7.568666E-4,-1.3015941E0,8.604196E-1,-7.598671E-4,7.430509E-1,-7.45231E-4,-8.96457E-1,4.7529268E-1,-3.7533775E-1,1.004662E0,-7.598211E-4,-7.3656E-4,-1.5400186E0,-7.95019E-1,1.7766092E0,-7.389001E-4,3.1609233E-2,-7.5155305E-4,2.9886654E-2,-9.159425E-1,-7.137709E-4,1.0281333E0,-7.583407E-4,-7.604549E-4,1.1715115E0,-4.8604876E-1,-7.53932E-4,-4.2940868E-4,1.9948242E-2,-1.0398335E0,-4.1687626E-1,5.9771415E-2,4.9942082E-1,2.4832495E-2,-6.795805E-4,-5.8265583E-4,8.522739E-1,-9.159425E-1,-7.0124393E-4,3.2189872E-2,-2.0345058E0,-4.680544E-4,3.1895246E-2,2.8194053E-2,-7.44404E-4,-7.6020224E-4,6.6548306E-1,3.0611027E-2,-4.680544E-4,-8.0149055E-1,4.527873E-1,-9.43569E-1,-9.805173E-2,5.20377E-1,-7.496159E-4,-7.5829227E-4,-1.6514778E-1,3.1642042E-2,-4.680544E-4,-4.680544E-4,1.4087844E0,-7.0124393E-4,3.177264E-2,1.755598E-1,-7.570346E-4,-4.6008764E-4,2.4832495E-2,-7.502471E-4,-4.40049E-1,-6.7593956E-1,-7.526345E-4,-6.5492943E-4,1.1164117E0,9.3352455E-1,-3.93208E-1,-2.9010287E-1,-7.522845E-4,3.179361E-2,-4.5650147E-4,-1.7310856E-2,-7.2113384E-4,-6.7729474E-4,1.9948242E-2,4.8316225E-1,-5.702064E-4,-4.44937E-4,3.239347E-2,-6.279959E-4,1.4978677E-1,-7.2461995E-4,-2.4597847E-3,-7.50672E-4,6.6548306E-1,-6.581284E-4,2.8963378E-2,3.2275006E-2,-4.388104E-4,3.2242447E-2,-4.581302E-4,-3.6967292E-3,-2.9737964E-1,-1.0280085E0,-7.110687E-4,-4.4631047E-4,-2.4597847E-3],"split_indices":[9,12,9,1,14,5,12,10,1,14,11,2,10,9,2,0,4,2,0,0,0,0,8,0,8,5,1,14,12,11,14,0,2,0,0,0,2,0,0,11,0,2,0,2,4,0,0,0,1,9,2,12,0,5,9,2,0,0,0,14,0,0,0,0,11,0,7,0,0,14,0,11,12,0,14,0,0,14,4,2,0,0,1,2,14,0,0,0,0,3,0,14,0,0,2,0,0,0,0,10,9,10,14,0,0,0,8,3,0,0,4,0,0,0,0,0,14,0,0,0,14,5,4,8,0,0,10,0,0,0,3,0,0,4,0,0,0,0,10,0,0,0,2,2,4,10,0,0,0,4,0,0,0,3,0,0,0,0,5,0,0,0,14,0,0,0,0,0,0,0,9,0,0,0,0],"split_type":[0,0,0,0,0,0,0,0,0,0,0,0,0,0,0,0,0,0,0,0,0,0,0,0,0,0,0,0,0,0,0,0,0,0,0,0,0,0,0,0,0,0,0,0,0,0,0,0,0,0,0,0,0,0,0,0,0,0,0,0,0,0,0,0,0,0,0,0,0,0,0,0,0,0,0,0,0,0,0,0,0,0,0,0,0,0,0,0,0,0,0,0,0,0,0,0,0,0,0,0,0,0,0,0,0,0,0,0,0,0,0,0,0,0,0,0,0,0,0,0,0,0,0,0,0,0,0,0,0,0,0,0,0,0,0,0,0,0,0,0,0,0,0,0,0,0,0,0,0,0,0,0,0,0,0,0,0,0,0,0,0,0,0,0,0,0,0,0,0,0,0,0,0,0,0],"sum_hessian":[7.0271E4,1.924E3,6.8347E4,9.01E2,1.023E3,1.701E3,6.6646E4,2.85E2,6.16E2,9.1E1,9.32E2,1.81E2,1.52E3,5.625E4,1.0396E4,1.84E2,1.01E2,9.9E1,5.17E2,8.5E1,6E0,1.2E1,9.2E2,4.3E1,1.38E2,1.415E3,1.05E2,9.54E2,5.5296E4,8.941E3,1.455E3,1.05E2,7.9E1,9.2E1,9E0,7E1,2.9E1,1E0,5E0,9.13E2,7E0,1.29E2,9E0,1.14E2,1.301E3,6.8E1,3.7E1,7.86E2,1.68E2,5.448E4,8.16E2,2.6E1,8.915E3,7.63E2,6.92E2,4.5E1,3.4E1,1.2E1,1.7E1,9.11E2,2E0,1.27E2,2E0,7.1E1,4.3E1,1.245E3,5.6E1,5E0,6.3E1,4.6E1,1.22E2,2.38E2,5.4242E4,7.38E2,7.8E1,2.4E1,2E0,3.53E2,4.1E2,7E0,6.85E2,1.8E1,2.7E1,3.9E1,8.72E2,2E1,2.3E1,4.9E1,7E0,3.7E1,9E0,3.1E1,2.07E2,5.241E4,1.832E3,1.1E1,6.7E1,1E0,1E0,4.9E1,3.04E2,1.34E2,2.76E2,2E0,5E0,2E0,2.5E1,3.2E1,7E0,8.36E2,3.6E1,1E0,3.6E1,4E0,2.7E1,1.686E3,1.46E2,1E1,1E0,3E0,4.6E1,1.66E2,1.38E2,9E1,4.4E1,1.74E2,1.02E2,2.4E1,1E0,1E0,3.1E1,7E0,2.9E1,1.8E1,1.28E2,1E0,2E0,3.9E1,7E0,1.08E2,5.8E1,4E0,1.34E2,7.7E1,1.3E1,5.2E1,5E1,3E1,1E0,9E0,9E0,6E0,1E0,1.06E2,2E0,1E0,1.33E2,3E0,7.4E1,1.2E1,1E0,3.7E1,1.5E1,4E0,5E0,1.05E2,1E0,7.3E1,1E0,5E0,1E1,2E0,8E0,1E0,1E0],"tree_param":{"num_deleted":"0","num_feature":"15","num_nodes":"175","size_leaf_vector":"1"}},{"base_weights":[7.5207E-5,3.2009596E-1,-8.938078E-3,7.587988E-2,5.3490335E-1,6.765108E-2,-1.0893842E-2,2.431035E-1,-1.7568114E-3,-5.8163E-3,5.8764863E-1,4.2691493E-1,2.4617767E-2,-1.3815198E-2,4.9126493E-3,6.876251E-2,5.5692685E-1,6.392912E-2,-7.217051E-4,-7.179821E-4,9.997566E-2,-6.9156394E-4,5.9550047E-1,-7.136582E-4,5.635003E-1,-7.2065013E-4,3.6286852E-1,7.1070073E-3,-1.4268283E-2,-1.436048E-2,1.23274885E-1,-7.1882893E-4,1.7806226E-1,3.0614445E-2,-6.8165123E-4,-7.1703113E-4,2.4703653E-1,1.9449536E-2,-6.512647E-4,6.001786E-1,-6.7056454E-4,6.0357374E-1,-6.902566E-4,1.1406283E-1,-1.0858422E-2,5.652952E-1,-7.122458E-4,-7.2238134E-4,1.0749136E-1,-1.4386419E-2,-6.4073754E-3,1.50557235E-2,-7.223975E-4,2.4611305E-1,-1.2326311E-2,3.2049847E-1,-7.1135437E-4,2.9474098E-2,-7.0047146E-4,6.0153234E-1,-5.7036395E-4,3.0662725E-2,-5.330589E-4,-7.171069E-4,3.215877E-1,-7.221347E-4,6.7683004E-2,-6.512647E-4,3.0534003E-2,4.371601E-1,-7.217581E-4,-7.224329E-4,-1.2598963E-2,-7.219251E-4,6.8800345E-2,-7.100911E-4,2.5385004E-1,4.1837308E-1,9.714427E-2,1.7026663E-1,-7.2188536E-4,-7.016703E-4,5.3605586E-1,4.6537203E-1,6.07082E-1,-7.037144E-4,3.0094624E-2,-7.147269E-4,2.8579114E-2,5.843705E-1,-6.9935224E-4,-7.2221464E-4,8.664098E-3,5.341718E-1,-7.167898E-4,1.9449536E-2,-4.107827E-4,3.0772544E-2,4.8054242E-1,3.2875255E-1,-1.6084105E-2,2.4004746E-2,-6.512647E-4,-5.63234E-4,5.785907E-1,5.673385E-1,-6.7056454E-4,3.05823E-2,4.8742935E-1,-5.491534E-4,3.0684004E-2,1.6473006E-1,-7.1947626E-4,2.9219616E-2,-4.5635304E-4,3.5558534E-1,2.4741685E-3,3.8406888E-1,5.9299237E-1,4.9476114E-1,-7.1296794E-4,-7.205943E-4,-1.8769098E-2,3.0123224E-2,-4.5635304E-4,-4.5635304E-4,5.856383E-1,-6.7056454E-4,3.023696E-2,3.2676077E-1,-6.886828E-4,-4.4858546E-4,2.4004746E-2,-7.136725E-4,8.590299E-2,5.9618306E-1,-7.1564055E-4,-6.287322E-4,6.1102825E-1,5.807551E-1,-1.968838E-2,-2.270757E-2,-7.154078E-4,3.0255208E-2,-4.4508892E-4,-6.318033E-4,2.7756566E-2,-6.4826774E-4,1.9449536E-2,6.076358E-1,-5.5119954E-4,-4.3381355E-4,3.0785883E-2,-6.04446E-4,6.046301E-1,-6.911759E-4,-2.39829E-3,-7.141261E-4,-4.1297838E-2,3.0676482E-2,-4.2784013E-4,3.0652111E-2,-4.4667695E-4,-3.542699E-3,-2.1421958E-2,-3.7779234E-2,-6.7946565E-4,-4.351527E-4,-2.39829E-3],"categories":[],"categories_nodes":[],"categories_segments":[],"categories_sizes":[],"default_left":[0,0,0,0,0,0,0,0,0,0,0,0,0,0,0,0,0,0,0,0,0,0,0,0,0,0,0,0,0,0,0,0,0,0,0,0,0,0,0,0,0,0,0,0,0,0,0,0,0,0,0,0,0,0,0,0,0,0,0,0,0,0,0,0,0,0,0,0,0,0,0,0,0,0,0,0,0,0,0,0,0,0,0,0,0,0,0,0,0,0,0,0,0,0,0,0,0,0,0,0,0,0,0,0,0,0,0,0,0,0,0,0,0,0,0,0,0,0,0,0,0,0,0,0,0,0,0,0,0,0,0,0,0,0,0,0,0,0,0,0,0,0,0,0,0,0,0,0,0,0,0,0,0,0,0,0,0,0,0,0,0,0,0,0,0,0,0,0,0],"id":9,"left_children":[1,3,5,7,9,11,13,15,17,19,21,23,25,27,29,31,33,35,-1,-1,37,-1,39,-1,41,43,45,47,49,51,53,-1,55,-1,-1,-1,57,-1,-1,59,-1,61,-1,63,65,67,-1,-1,69,71,73,75,-1,77,79,81,-1,-1,-1,83,-1,-1,-1,-1,85,-1,87,-1,-1,89,-1,-1,91,-1,93,-1,95,97,99,101,-1,-1,103,105,107,-1,-1,-1,-1,109,-1,-1,111,113,-1,-1,-1,115,117,119,121,-1,-1,-1,123,125,-1,-1,127,-1,-1,129,-1,-1,-1,131,133,135,137,139,-1,-1,141,-1,-1,-1,143,-1,-1,145,-1,-1,-1,-1,147,149,-1,-1,151,153,155,157,-1,-1,-1,-1,-1,-1,-1,159,-1,-1,-1,-1,161,-1,-1,-1,163,-1,-1,-1,-1,-1,165,167,-1,-1,-1],"loss_changes":[2.026981E2,1.0094377E2,1.0238607E1,1.1710811E1,2.9208313E1,2.6302948E1,3.0775852E0,1.5609415E1,5.147107E-1,8.458678E-2,4.414551E0,1.097533E1,1.3036355E1,5.3333473E-1,2.3719517E1,1.6836703E0,3.230257E0,1.4367195E0,0E0,0E0,2.3367956E-1,0E0,2.6315308E0,0E0,3.2240486E0,1.6489651E0,8.099862E0,2.582904E0,5.1038742E-2,2.3225307E-2,2.4255629E1,0E0,2.1956768E0,0E0,0E0,0E0,2.6900787E0,0E0,0E0,7.6361084E-1,0E0,7.7954865E-1,0E0,3.0690432E0,3.675085E-1,1.8189964E0,0E0,0E0,8.487533E0,5.8526993E-3,4.9446362E-1,1.922416E-1,0E0,1.9564636E1,2.696277E-1,3.3246212E0,0E0,0E0,0E0,4.066162E-1,0E0,0E0,0E0,0E0,4.148328E0,0E0,2.3627508E0,0E0,0E0,3.793745E0,0E0,0E0,7.204723E-2,0E0,3.0641036E0,0E0,1.09443024E-1,8.515511E0,1.0783609E1,4.6056557E-1,0E0,0E0,6.583624E-1,1.9604044E0,1.7861938E-1,0E0,0E0,0E0,0E0,7.570696E-1,0E0,0E0,5.3125954E-1,3.327508E-1,0E0,0E0,0E0,4.5870394E-1,3.0810242E0,7.6943493E0,9.732023E-4,0E0,0E0,0E0,3.7030602E-1,3.5346794E-1,0E0,0E0,2.1819925E0,0E0,0E0,5.540393E-1,0E0,0E0,0E0,1.858707E-1,6.689613E-2,1.4120436E1,1.525837E0,4.0372353E0,0E0,0E0,1.4847368E-3,0E0,0E0,0E0,3.7572956E-1,0E0,0E0,7.820971E-1,0E0,0E0,0E0,0E0,2.4476966E-1,7.6470184E-1,0E0,0E0,3.9765167E-1,1.1113319E0,1.6587479E-3,7.71123E-3,0E0,0E0,0E0,0E0,0E0,0E0,0E0,3.938446E-1,0E0,0E0,0E0,0E0,3.9257812E-1,0E0,0E0,0E0,7.881435E-3,0E0,0E0,0E0,0E0,0E0,8.959342E-4,4.7111E-4,0E0,0E0,0E0],"parents":[2147483647,0,0,1,1,2,2,3,3,4,4,5,5,6,6,7,7,8,8,9,9,10,10,11,11,12,12,13,13,14,14,15,15,16,16,17,17,20,20,22,22,24,24,25,25,26,26,27,27,28,28,29,29,30,30,32,32,36,36,39,39,41,41,43,43,44,44,45,45,48,48,49,49,50,50,51,51,53,53,54,54,55,55,59,59,64,64,66,66,69,69,72,72,74,74,76,76,77,77,78,78,79,79,82,82,83,83,84,84,89,89,92,92,93,93,97,97,98,98,99,99,100,100,104,104,105,105,108,108,111,111,115,115,116,116,117,117,118,118,119,119,122,122,126,126,129,129,134,134,135,135,138,138,139,139,140,140,141,141,149,149,154,154,158,158,164,164,165,165],"right_children":[2,4,6,8,10,12,14,16,18,20,22,24,26,28,30,32,34,36,-1,-1,38,-1,40,-1,42,44,46,48,50,52,54,-1,56,-1,-1,-1,58,-1,-1,60,-1,62,-1,64,66,68,-1,-1,70,72,74,76,-1,78,80,82,-1,-1,-1,84,-1,-1,-1,-1,86,-1,88,-1,-1,90,-1,-1,92,-1,94,-1,96,98,100,102,-1,-1,104,106,108,-1,-1,-1,-1,110,-1,-1,112,114,-1,-1,-1,116,118,120,122,-1,-1,-1,124,126,-1,-1,128,-1,-1,130,-1,-1,-1,132,134,136,138,140,-1,-1,142,-1,-1,-1,144,-1,-1,146,-1,-1,-1,-1,148,150,-1,-1,152,154,156,158,-1,-1,-1,-1,-1,-1,-1,160,-1,-1,-1,-1,162,-1,-1,-1,164,-1,-1,-1,-1,-1,166,168,-1,-1,-1],"split_conditions":[-1.8887215E0,-5.1363163E-2,-1.6828369E0,-7.449615E-1,4.291011E-1,-1.9850543E0,1.0845606E0,-1.7332324E0,-4.8840576E-1,4.1270602E-1,-1.337692E0,-8.8247293E-1,-8.399053E-1,-1.5500139E0,8.2112294E-1,-1.2049301E0,-1.6381539E0,-2.1273004E-1,-7.217051E-4,-7.179821E-4,-9.506384E-1,-6.9156394E-4,9.2753816E-1,-7.136582E-4,-7.8047745E-2,-1.9215198E0,-7.449615E-1,6.935228E-1,1.0128387E0,-1.0655897E0,9.8530924E-1,-7.1882893E-4,-7.8047745E-2,3.0614445E-2,-6.8165123E-4,-7.1703113E-4,-1.5648733E-1,1.9449536E-2,-6.512647E-4,-7.769794E-1,-6.7056454E-4,8.522739E-1,-6.902566E-4,-3.5397857E-1,-1.0132283E0,-1.6819935E0,-7.122458E-4,-7.2238134E-4,-9.166027E-1,8.604196E-1,1.1433612E0,-1.1040002E0,-7.223975E-4,-3.6801136E-1,-1.489298E0,-1.2986027E0,-7.1135437E-4,2.9474098E-2,-7.0047146E-4,4.9942082E-1,-5.7036395E-4,3.0662725E-2,-5.330589E-4,-7.171069E-4,-1.132732E0,-7.221347E-4,3.7415975E-1,-6.512647E-4,3.0534003E-2,1.1053724E0,-7.217581E-4,-7.224329E-4,1.1715115E0,-7.219251E-4,7.430509E-1,-7.100911E-4,-8.8151896E-1,4.7529268E-1,-3.7533775E-1,1.004662E0,-7.2188536E-4,-7.016703E-4,-1.5400186E0,-7.95019E-1,1.7766092E0,-7.037144E-4,3.0094624E-2,-7.147269E-4,2.8579114E-2,-9.159425E-1,-6.9935224E-4,-7.2221464E-4,6.6548306E-1,-4.8604876E-1,-7.167898E-4,1.9449536E-2,-4.107827E-4,-1.0398335E0,-4.1687626E-1,5.9771415E-2,4.9942082E-1,2.4004746E-2,-6.512647E-4,-5.63234E-4,8.522739E-1,-9.159425E-1,-6.7056454E-4,3.05823E-2,-2.0345058E0,-5.491534E-4,3.0684004E-2,1.755598E-1,-7.1947626E-4,2.9219616E-2,-4.5635304E-4,-8.0149055E-1,4.527873E-1,-9.43569E-1,-9.805173E-2,5.20377E-1,-7.1296794E-4,-7.205943E-4,-1.6514778E-1,3.0123224E-2,-4.5635304E-4,-4.5635304E-4,1.4087844E0,-6.7056454E-4,3.023696E-2,-1.7310856E-2,-6.886828E-4,-4.4858546E-4,2.4004746E-2,-7.136725E-4,-4.40049E-1,-6.7593956E-1,-7.1564055E-4,-6.287322E-4,1.1164117E0,9.3352455E-1,-3.93208E-1,-2.9010287E-1,-7.154078E-4,3.0255208E-2,-4.4508892E-4,-6.318033E-4,2.7756566E-2,-6.4826774E-4,1.9449536E-2,4.8316225E-1,-5.5119954E-4,-4.3381355E-4,3.0785883E-2,-6.04446E-4,1.4978677E-1,-6.911759E-4,-2.39829E-3,-7.141261E-4,6.6548306E-1,3.0676482E-2,-4.2784013E-4,3.0652111E-2,-4.4667695E-4,-3.542699E-3,-2.9737964E-1,-1.0280085E0,-6.7946565E-4,-4.351527E-4,-2.39829E-3],"split_indices":[9,12,9,1,14,5,12,10,1,14,11,2,10,9,2,0,4,2,0,0,0,0,8,0,2,5,1,14,12,11,14,0,2,0,0,0,2,0,0,11,0,8,0,2,4,0,0,0,1,12,2,9,0,5,9,2,0,0,0,14,0,0,0,0,11,0,7,0,0,